{"learner":{"attributes":{"scikit_learn":"{\"_estimator_type\": \"regressor\"}"},"feature_names":["temperature_2m_max","temperature_2m_min","precipitation_sum","wind_speed_10m_max","wind_direction_10m_dominant"],"feature_types":["float","float","float","float","float"],"gradient_booster":{"model":{"gbtree_model_param":{"num_parallel_tree":"1","num_trees":"100"},"iteration_indptr":[0,1,2,3,4,5,6,7,8,9,10,11,12,13,14,15,16,17,18,19,20,21,22,23,24,25,26,27,28,29,30,31,32,33,34,35,36,37,38,39,40,41,42,43,44,45,46,47,48,49,50,51,52,53,54,55,56,57,58,59,60,61,62,63,64,65,66,67,68,69,70,71,72,73,74,75,76,77,78,79,80,81,82,83,84,85,86,87,88,89,90,91,92,93,94,95,96,97,98,99,100],"tree_info":[0,0,0,0,0,0,0,0,0,0,0,0,0,0,0,0,0,0,0,0,0,0,0,0,0,0,0,0,0,0,0,0,0,0,0,0,0,0,0,0,0,0,0,0,0,0,0,0,0,0,0,0,0,0,0,0,0,0,0,0,0,0,0,0,0,0,0,0,0,0,0,0,0,0,0,0,0,0,0,0,0,0,0,0,0,0,0,0,0,0,0,0,0,0,0,0,0,0,0,0],"trees":[{"base_weights":[-7.646386E-7,5.7243385E0,-4.8152494E0,-2.4075608E0,7.119824E0,4.0258203E0,-6.1544976E0,2.5362616E0,-5.1655173E0,9.158996E0,2.9580557E0,9.206473E0,-2.0339757E-1,-4.1989865E0,-8.819306E0,-5.928142E-1,8.625329E0,-2.2934046E0,-9.939315E0,9.891443E0,5.4162025E-2,6.3144164E0,1.3773718E0,1.4198616E1,4.0738525E0,-1.7421685E0,6.2293706E0,-1.626569E0,-5.946536E0,-4.5128794E0,-1.0042333E1,7.7130914E0,-2.5625188E0,3.5101385E0,1.5713091E1,-5.584727E0,5.758662E0,-1.3494809E1,-7.357749E0,1.2104534E1,8.369673E0,-7.680719E0,7.379093E0,9.199549E-2,7.764781E0,5.7620854E0,-8.693444E-1,8.113928E0,1.0395055E1,4.9911423E0,2.5822914E0,1.4686688E0,-6.67228E0,1.3648746E1,-2.2513149E0,-6.5983295E0,-2.1228294E0,5.4142814E0,-5.9873285E0,-1.0227101E1,3.091142E0,-2.3164359E-1,2.8693705E0,1.191142E0,-9.909703E-1,-1.3974655E0,2.3028967E0,9.6835643E-1,5.2693706E0,2.091142E0,-1.9584848E0,3.6215227E0,-9.5424616E-1,-1.1088581E0,-4.578478E0,-6.474654E-1,-2.4593318E0,3.3011637E0,9.3548565E0,1.5444179E0,3.5662558E0,5.911419E-1,-2.7030816E0,3.8475988E0,-3.1306298E0,-1.6451442E0,2.1743252E0,3.9848776E0,1.4650857E0,3.752156E0,-7.687557E-1,-1.7461284E0,2.4375394E-1,-6.088581E-1,3.4850442E0,-1.53682E-1,2.0253203E0,3.5893705E0,1.4694094E-2,-2.3189836E0,4.0253463E-1,2.7534628E-2,6.529371E0,6.0640335E-1,-1.164978E0,-1.5986297E0,-2.5404258E0,-1.0488095E0,4.261965E-1,-1.2088583E0,2.3881893E0,-1.9652686E0,2.691142E0,-2.6751487E0,-3.9974961E0],"categories":[],"categories_nodes":[],"categories_segments":[],"categories_sizes":[],"default_left":[0,0,0,0,0,0,0,0,0,0,0,0,0,0,0,0,0,0,0,0,0,0,0,0,0,0,0,0,0,0,0,0,0,0,0,0,0,0,0,0,0,0,0,0,0,0,0,0,0,0,0,0,0,0,0,0,0,0,0,0,0,0,0,0,0,0,0,0,0,0,0,0,0,0,0,0,0,0,0,0,0,0,0,0,0,0,0,0,0,0,0,0,0,0,0,0,0,0,0,0,0,0,0,0,0,0,0,0,0,0,0,0,0,0,0],"id":0,"left_children":[1,3,5,7,9,11,13,15,17,19,21,23,25,27,29,31,33,35,37,39,41,43,45,47,49,51,-1,53,55,57,59,61,63,65,67,69,71,73,75,77,79,81,83,85,87,89,91,-1,93,-1,95,97,99,101,103,105,107,109,111,113,-1,-1,-1,-1,-1,-1,-1,-1,-1,-1,-1,-1,-1,-1,-1,-1,-1,-1,-1,-1,-1,-1,-1,-1,-1,-1,-1,-1,-1,-1,-1,-1,-1,-1,-1,-1,-1,-1,-1,-1,-1,-1,-1,-1,-1,-1,-1,-1,-1,-1,-1,-1,-1,-1,-1],"loss_changes":[4.9532715E4,9.333809E3,1.1581E4,1.6629176E3,5.9219883E3,2.8282766E3,4.381949E3,8.434519E2,1.0466543E3,3.1338047E3,1.2221426E3,1.4282783E3,2.359248E3,2.197582E3,1.8402207E3,5.1057037E2,4.8867358E2,1.3572579E3,1.6689233E2,1.3636914E3,2.0963455E3,6.671194E2,1.571351E3,1.1360063E3,5.1920544E2,1.0862249E3,0E0,1.9393654E3,7.1373535E2,1.2180217E3,1.1504727E3,1.01646545E2,1.340926E2,3.7606674E2,8.200098E1,4.7197998E2,8.84933E2,1.3402234E2,6.529419E1,3.331629E3,2.896752E3,2.4872644E2,1.9772578E3,6.3823224E2,8.89051E2,3.064166E3,8.87393E2,0E0,3.8789282E2,0E0,3.6467365E2,6.2525214E2,2.3922913E2,8.782096E2,1.3535891E3,5.459453E2,2.1906714E2,2.9659717E2,6.572744E2,1.00119727E3,0E0,0E0,0E0,0E0,0E0,0E0,0E0,0E0,0E0,0E0,0E0,0E0,0E0,0E0,0E0,0E0,0E0,0E0,0E0,0E0,0E0,0E0,0E0,0E0,0E0,0E0,0E0,0E0,0E0,0E0,0E0,0E0,0E0,0E0,0E0,0E0,0E0,0E0,0E0,0E0,0E0,0E0,0E0,0E0,0E0,0E0,0E0,0E0,0E0,0E0,0E0,0E0,0E0,0E0,0E0],"parents":[2147483647,0,0,1,1,2,2,3,3,4,4,5,5,6,6,7,7,8,8,9,9,10,10,11,11,12,12,13,13,14,14,15,15,16,16,17,17,18,18,19,19,20,20,21,21,22,22,23,23,24,24,25,25,27,27,28,28,29,29,30,30,31,31,32,32,33,33,34,34,35,35,36,36,37,37,38,38,39,39,40,40,41,41,42,42,43,43,44,44,45,45,46,46,48,48,50,50,51,51,52,52,53,53,54,54,55,55,56,56,57,57,58,58,59,59],"right_children":[2,4,6,8,10,12,14,16,18,20,22,24,26,28,30,32,34,36,38,40,42,44,46,48,50,52,-1,54,56,58,60,62,64,66,68,70,72,74,76,78,80,82,84,86,88,90,92,-1,94,-1,96,98,100,102,104,106,108,110,112,114,-1,-1,-1,-1,-1,-1,-1,-1,-1,-1,-1,-1,-1,-1,-1,-1,-1,-1,-1,-1,-1,-1,-1,-1,-1,-1,-1,-1,-1,-1,-1,-1,-1,-1,-1,-1,-1,-1,-1,-1,-1,-1,-1,-1,-1,-1,-1,-1,-1,-1,-1,-1,-1,-1,-1],"split_conditions":[2.152676E2,4.4372204E1,1.3202726E1,-1.635E0,1.8010251E2,-4.35E-1,2.8021536E2,6.5E-2,1.9171478E1,2.3269482E1,1.5141414E1,1.1928989E1,1.0200001E1,1E-1,-3.5349998E0,1.1212135E1,3E-1,1.692383E1,1.6998474E1,1.0415E1,1.3697777E2,1.1165805E1,2E-1,2.4130075E2,2.1781297E2,2.7004987E2,6.2293706E0,-7.335E0,1.2565E1,1.4003029E1,1.5764999E1,3.1250758E0,-1.2835E1,1.1138813E1,-7.1349998E0,8.557102E0,2.9633558E1,3.1250758E0,1.9108318E1,6.6150002E0,1.4917212E1,-3.35E-1,9.600001E0,3E-1,1.1615E1,1.8165E1,6.65E-1,8.113928E0,2.4658723E2,4.9911423E0,2.93991E2,9.178235E0,2.6E0,1.4118243E1,1.6203999E1,5.3650002E0,3.7999992E0,-3.385E0,4.1150002E0,2.196E1,3.091142E0,-2.3164359E-1,2.8693705E0,1.191142E0,-9.909703E-1,-1.3974655E0,2.3028967E0,9.6835643E-1,5.2693706E0,2.091142E0,-1.9584848E0,3.6215227E0,-9.5424616E-1,-1.1088581E0,-4.578478E0,-6.474654E-1,-2.4593318E0,3.3011637E0,9.3548565E0,1.5444179E0,3.5662558E0,5.911419E-1,-2.7030816E0,3.8475988E0,-3.1306298E0,-1.6451442E0,2.1743252E0,3.9848776E0,1.4650857E0,3.752156E0,-7.687557E-1,-1.7461284E0,2.4375394E-1,-6.088581E-1,3.4850442E0,-1.53682E-1,2.0253203E0,3.5893705E0,1.4694094E-2,-2.3189836E0,4.0253463E-1,2.7534628E-2,6.529371E0,6.0640335E-1,-1.164978E0,-1.5986297E0,-2.5404258E0,-1.0488095E0,4.261965E-1,-1.2088583E0,2.3881893E0,-1.9652686E0,2.691142E0,-2.6751487E0,-3.9974961E0],"split_indices":[4,4,3,1,4,1,4,0,3,3,3,3,2,2,1,3,2,3,4,0,4,3,2,4,4,4,0,1,1,3,1,4,1,4,1,3,4,4,4,1,3,0,2,2,0,0,1,0,4,0,4,3,2,3,3,1,2,0,0,3,0,0,0,0,0,0,0,0,0,0,0,0,0,0,0,0,0,0,0,0,0,0,0,0,0,0,0,0,0,0,0,0,0,0,0,0,0,0,0,0,0,0,0,0,0,0,0,0,0,0,0,0,0,0,0],"split_type":[0,0,0,0,0,0,0,0,0,0,0,0,0,0,0,0,0,0,0,0,0,0,0,0,0,0,0,0,0,0,0,0,0,0,0,0,0,0,0,0,0,0,0,0,0,0,0,0,0,0,0,0,0,0,0,0,0,0,0,0,0,0,0,0,0,0,0,0,0,0,0,0,0,0,0,0,0,0,0,0,0,0,0,0,0,0,0,0,0,0,0,0,0,0,0,0,0,0,0,0,0,0,0,0,0,0,0,0,0,0,0,0,0,0,0],"sum_hessian":[1.795E3,8.2E2,9.75E2,1.2E2,7E2,1.28E2,8.47E2,4.3E1,7.7E1,4.69E2,2.31E2,5.7E1,7.1E1,4.9E2,3.57E2,2.9E1,1.4E1,4.9E1,2.8E1,4.34E2,3.5E1,7.3E1,1.58E2,2.8E1,2.9E1,6.7E1,4E0,1.99E2,2.91E2,8E1,2.77E2,5E0,2.4E1,9E0,5E0,3.5E1,1.4E1,1E1,1.8E1,1.74E2,2.6E2,1.7E1,1.8E1,1.4E1,5.9E1,5.3E1,1.05E2,5E0,2.3E1,2E0,2.7E1,4.1E1,2.6E1,7E0,1.92E2,2.48E2,4.3E1,1E1,7E1,2.75E2,2E0,1E0,4E0,2E0,2.2E1,3E0,6E0,1E0,4E0,2E0,3.3E1,8E0,6E0,2E0,8E0,3E0,1.5E1,1.66E2,8E0,1.37E2,1.23E2,2E0,1.5E1,1.4E1,4E0,8E0,6E0,1.9E1,4E1,2.9E1,2.4E1,2.6E1,7.9E1,2E0,2.1E1,1.6E1,1.1E1,4E0,3.7E1,2.3E1,3E0,3E0,4E0,5.3E1,1.39E2,1.5E2,9.8E1,3.1E1,1.2E1,2E0,8E0,6.8E1,2E0,1.96E2,7.9E1],"tree_param":{"num_deleted":"0","num_feature":"5","num_nodes":"115","size_leaf_vector":"1"}},{"base_weights":[2.9592134E-2,4.5533433E0,-3.0654106E0,-1.3011144E0,5.871797E0,1.3181871E-1,-4.877837E0,5.557013E-1,-5.28676E0,6.1345086E0,-7.4246907E0,6.8389616E0,-6.827241E-1,-3.4612958E0,-7.2159963E0,5.412462E-3,1.2798275E1,-9.283376E-1,-7.588474E0,5.7354803E0,1.1889425E1,-9.546566E-2,-1.2646214E1,9.935156E0,2.568034E0,4.219862E0,-1.9191802E0,-3.8164027E0,4.9170363E-1,-4.6159825E0,-9.022566E0,2.5505261E0,-3.544494E0,5.121291E-1,4.777891E0,-4.0851994E0,9.563548E0,-8.127206E0,-3.899727E-1,7.5099835E0,4.2592807E0,5.9910035E0,1.5219291E1,-1.1938434E0,4.2025796E-1,-1.3622575E1,-1.0182066E0,7.7379827E0,6.820812E0,-8.2549566E-1,3.6705048E0,9.934135E0,1.0225425E0,9.232882E-1,-3.2475426E0,-2.5107048E0,-6.063272E0,3.921863E0,-5.17868E0,-5.3762712E0,1.1969156E1,-1.2666979E1,-7.926903E0,5.212137E-1,6.725128E0,-1.7481745E0,5.661233E-1,-4.6750298E-1,-2.0320425E0,3.6339152E0,2.8725615E-1,-1.3785021E0,-3.1233454E0,-1.2127439E0,1.0372562E0,1.5890638E0,3.763276E0,5.6187075E-1,1.6968392E0,-2.360461E0,3.523802E0,4.7377577E0,3.9121658E-1,-9.341641E-2,-5.761814E-1,-4.433655E0,-1.1761814E0,2.923924E0,-2.4692645E0,-1.7191285E0,6.6000414E-1,6.9141996E-1,6.9724317E0,-2.3145597E-2,5.0431643E0,2.1072009E0,-3.1921503E-1,-1.3235468E0,1.0813897E0,-8.8298506E-1,4.649783E0,-1.5269874E0,-3.2760394E0,5.024138E0,5.7087827E-1,-3.0617788E0,-6.441564E-1,-1.9296288E0,-2.8417075E-1,-4.1593745E-2,6.0261717E0,-2.1995366E0,-4.2242904E0,-9.506425E-2,-2.7096248E0],"categories":[],"categories_nodes":[],"categories_segments":[],"categories_sizes":[],"default_left":[0,0,0,0,0,0,0,0,0,0,0,0,0,0,0,0,0,0,0,0,0,0,0,0,0,0,0,0,0,0,0,0,0,0,0,0,0,0,0,0,0,0,0,0,0,0,0,0,0,0,0,0,0,0,0,0,0,0,0,0,0,0,0,0,0,0,0,0,0,0,0,0,0,0,0,0,0,0,0,0,0,0,0,0,0,0,0,0,0,0,0,0,0,0,0,0,0,0,0,0,0,0,0,0,0,0,0,0,0,0,0,0,0,0,0],"id":1,"left_children":[1,3,5,7,9,11,13,15,17,19,21,23,25,27,29,31,33,35,37,39,41,43,45,47,49,51,53,55,57,59,61,63,65,-1,-1,67,69,71,73,75,77,79,81,83,-1,85,-1,87,-1,89,-1,91,93,95,97,99,101,103,105,107,109,111,113,-1,-1,-1,-1,-1,-1,-1,-1,-1,-1,-1,-1,-1,-1,-1,-1,-1,-1,-1,-1,-1,-1,-1,-1,-1,-1,-1,-1,-1,-1,-1,-1,-1,-1,-1,-1,-1,-1,-1,-1,-1,-1,-1,-1,-1,-1,-1,-1,-1,-1,-1,-1],"loss_changes":[2.5159795E4,5.6423857E3,6.183634E3,1.0020201E3,2.127457E3,2.118949E3,2.2305635E3,6.264673E2,4.2432446E2,1.2751855E3,4.5802936E2,5.298784E2,2.1054927E3,5.998677E2,1.1608105E3,8.2218274E2,1.115863E2,5.6901196E2,1.0541638E2,1.4061309E3,6.355366E2,1.153359E1,1.6999146E1,4.9908716E2,6.333985E2,1.2687671E3,1.0489028E3,1.1318672E3,7.2052167E2,1.413565E3,4.9854785E2,8.1723865E2,4.8215634E2,0E0,0E0,7.7752106E1,7.616586E1,1.6191174E2,5.613594E1,2.6966133E3,9.9609717E2,1.2888164E3,1.6286914E2,1.9672842E0,0E0,9.366699E0,0E0,7.8581335E2,0E0,2.3520581E2,0E0,2.4846033E3,7.9994806E2,1.0865262E3,1.5237166E3,1.9855112E3,6.204136E2,5.6367914E2,1.9144687E2,4.755642E2,4.9424573E2,1.4570996E2,9.8956885E2,0E0,0E0,0E0,0E0,0E0,0E0,0E0,0E0,0E0,0E0,0E0,0E0,0E0,0E0,0E0,0E0,0E0,0E0,0E0,0E0,0E0,0E0,0E0,0E0,0E0,0E0,0E0,0E0,0E0,0E0,0E0,0E0,0E0,0E0,0E0,0E0,0E0,0E0,0E0,0E0,0E0,0E0,0E0,0E0,0E0,0E0,0E0,0E0,0E0,0E0,0E0,0E0],"parents":[2147483647,0,0,1,1,2,2,3,3,4,4,5,5,6,6,7,7,8,8,9,9,10,10,11,11,12,12,13,13,14,14,15,15,16,16,17,17,18,18,19,19,20,20,21,21,22,22,23,23,24,24,25,25,26,26,27,27,28,28,29,29,30,30,31,31,32,32,35,35,36,36,37,37,38,38,39,39,40,40,41,41,42,42,43,43,45,45,47,47,49,49,51,51,52,52,53,53,54,54,55,55,56,56,57,57,58,58,59,59,60,60,61,61,62,62],"right_children":[2,4,6,8,10,12,14,16,18,20,22,24,26,28,30,32,34,36,38,40,42,44,46,48,50,52,54,56,58,60,62,64,66,-1,-1,68,70,72,74,76,78,80,82,84,-1,86,-1,88,-1,90,-1,92,94,96,98,100,102,104,106,108,110,112,114,-1,-1,-1,-1,-1,-1,-1,-1,-1,-1,-1,-1,-1,-1,-1,-1,-1,-1,-1,-1,-1,-1,-1,-1,-1,-1,-1,-1,-1,-1,-1,-1,-1,-1,-1,-1,-1,-1,-1,-1,-1,-1,-1,-1,-1,-1,-1,-1,-1,-1,-1,-1],"split_conditions":[2.0303464E2,4.7629574E1,1.6299694E1,1.9171478E1,1.5400001E1,1.0685391E1,2.818325E2,2.5765001E1,-1.2850001E0,1.6665E1,2.5932495E1,4.8650002E0,2.2756761E2,2.1715E1,-2.3500001E-1,1.1165E1,1.2783802E1,9.15E-1,2.5932495E1,1.1415E1,1E-1,1.4584319E2,1.6615E1,1.1365E1,9.299999E0,1.665E0,-2.235E0,5.465E0,2.3815E1,8.365E0,7.765E0,1.0714999E1,1.7163355E1,5.121291E-1,4.777891E0,2.2E0,6.665E0,2.1758419E1,1.2149999E0,2.4650002E0,1.3979871E1,2.8165E1,2.3269482E1,1.8699997E1,4.2025796E-1,3.1614477E1,-1.0182066E0,1.0214999E1,6.820812E0,1.9615E1,3.6705048E0,1.1014999E1,2.7315E1,1.2594856E1,1.3365E1,5.215E0,2.6302246E2,9.264999E0,1.7339897E1,4.415E0,-1.2349999E0,4.015E0,9.315E0,5.212137E-1,6.725128E0,-1.7481745E0,5.661233E-1,-4.6750298E-1,-2.0320425E0,3.6339152E0,2.8725615E-1,-1.3785021E0,-3.1233454E0,-1.2127439E0,1.0372562E0,1.5890638E0,3.763276E0,5.6187075E-1,1.6968392E0,-2.360461E0,3.523802E0,4.7377577E0,3.9121658E-1,-9.341641E-2,-5.761814E-1,-4.433655E0,-1.1761814E0,2.923924E0,-2.4692645E0,-1.7191285E0,6.6000414E-1,6.9141996E-1,6.9724317E0,-2.3145597E-2,5.0431643E0,2.1072009E0,-3.1921503E-1,-1.3235468E0,1.0813897E0,-8.8298506E-1,4.649783E0,-1.5269874E0,-3.2760394E0,5.024138E0,5.7087827E-1,-3.0617788E0,-6.441564E-1,-1.9296288E0,-2.8417075E-1,-4.1593745E-2,6.0261717E0,-2.1995366E0,-4.2242904E0,-9.506425E-2,-2.7096248E0],"split_indices":[4,4,3,3,2,3,4,0,1,1,3,1,4,0,1,0,3,0,3,0,2,4,0,0,2,1,1,1,0,0,0,0,3,0,0,2,0,3,0,1,3,0,3,2,0,3,0,0,0,0,0,0,0,3,1,1,4,1,3,0,1,0,0,0,0,0,0,0,0,0,0,0,0,0,0,0,0,0,0,0,0,0,0,0,0,0,0,0,0,0,0,0,0,0,0,0,0,0,0,0,0,0,0,0,0,0,0,0,0,0,0,0,0,0,0],"split_type":[0,0,0,0,0,0,0,0,0,0,0,0,0,0,0,0,0,0,0,0,0,0,0,0,0,0,0,0,0,0,0,0,0,0,0,0,0,0,0,0,0,0,0,0,0,0,0,0,0,0,0,0,0,0,0,0,0,0,0,0,0,0,0,0,0,0,0,0,0,0,0,0,0,0,0,0,0,0,0,0,0,0,0,0,0,0,0,0,0,0,0,0,0,0,0,0,0,0,0,0,0,0,0,0,0,0,0,0,0,0,0,0,0,0,0],"sum_hessian":[1.795E3,7.29E2,1.066E3,1.34E2,5.95E2,3.86E2,6.8E2,9.2E1,4.2E1,5.84E2,1.1E1,4.1E1,3.45E2,4.25E2,2.55E2,8.9E1,3E0,1.5E1,2.7E1,5.48E2,3.6E1,5E0,6E0,2.3E1,1.8E1,6.9E1,2.76E2,3.9E2,3.5E1,1.06E2,1.49E2,5.2E1,3.7E1,1E0,2E0,1.2E1,3E0,2.5E1,2E0,2.47E2,3.01E2,1.4E1,2.2E1,3E0,2E0,5E0,1E0,2.1E1,2E0,1.4E1,4E0,2.4E1,4.5E1,8.8E1,1.88E2,2.48E2,1.42E2,2.2E1,1.3E1,1.02E2,4E0,3.2E1,1.17E2,5.1E1,1E0,2.6E1,1.1E1,7E0,5E0,2E0,1E0,1.1E1,1.4E1,1E0,1E0,1.73E2,7.4E1,1.12E2,1.89E2,4E0,1E1,2.1E1,1E0,2E0,1E0,4E0,1E0,1.9E1,2E0,5E0,9E0,1.6E1,8E0,4.3E1,2E0,2.1E1,6.7E1,1.61E2,2.7E1,2.43E2,5E0,1.2E2,2.2E1,2E0,2E1,4E0,9E0,8.2E1,2E1,2E0,2E0,8E0,2.4E1,1.5E1,1.02E2],"tree_param":{"num_deleted":"0","num_feature":"5","num_nodes":"115","size_leaf_vector":"1"}},{"base_weights":[3.999978E-2,3.3991685E0,-2.0785685E0,-7.3880845E-1,4.4536695E0,2.9042247E-1,-3.423544E0,7.0331717E0,-1.3808764E0,5.7397776E0,1.7047004E0,2.957674E0,-1.0492859E0,-2.304123E0,-4.8599825E0,7.3259735E-1,3.6484654E0,-1.8938217E0,8.049407E0,8.034786E0,4.3656564E0,5.328271E-1,8.855251E0,8.131524E0,1.1866982E0,5.1270747E0,-1.680396E0,-2.4826643E0,4.853697E0,-3.5533485E0,-6.98079E0,5.2677116E0,-1.6675262E0,-1.1944387E0,-6.30784E0,-2.2933483E-2,4.232819E0,3.951753E0,1.1324127E1,-6.0405856E-1,5.7926774E0,1.123138E1,-2.8812367E-1,1.9290419E1,4.5446506E0,5.0855966E0,1.7395088E1,5.567575E-1,3.9510624E0,-3.463458E0,6.3027744E0,-1.9481504E0,9.220597E0,-1.2057067E0,-3.2737145E0,-1.6541501E0,1.0084615E1,-4.8680544E0,3.172307E0,-9.331397E0,-5.0586433E0,1.7908478E0,4.7435534E-1,-1.7215468E-2,-9.548545E-1,-2.1208327E0,8.8166773E-1,-1.1756448E0,7.745897E-1,1.7291225E0,-5.574737E0,1.6423796E0,5.456144E0,2.973229E0,-9.6571064E-1,3.681096E0,1.1234182E0,3.4829876E-1,5.828961E0,1.8957726E0,-3.316225E-1,-1.6211077E0,7.292016E0,2.544403E-1,2.856403E0,5.1718867E-1,3.4851947E0,8.090056E0,1.8775975E0,1.7023942E-2,2.9236834E0,3.0836086E0,-8.741529E-2,-2.6695266E-1,-1.2709028E0,1.2671592E0,3.8428128E0,3.322909E-1,-7.443352E-1,-1.7614934E0,-7.7702713E-1,3.7160065E0,-5.591738E-1,1.7082554E0,-1.5729266E0,3.865463E0,-1.8062584E-1,-1.1234691E0,-3.0850966E0,2.7003317E0,-1.6915959E0],"categories":[],"categories_nodes":[],"categories_segments":[],"categories_sizes":[],"default_left":[0,0,0,0,0,0,0,0,0,0,0,0,0,0,0,0,0,0,0,0,0,0,0,0,0,0,0,0,0,0,0,0,0,0,0,0,0,0,0,0,0,0,0,0,0,0,0,0,0,0,0,0,0,0,0,0,0,0,0,0,0,0,0,0,0,0,0,0,0,0,0,0,0,0,0,0,0,0,0,0,0,0,0,0,0,0,0,0,0,0,0,0,0,0,0,0,0,0,0,0,0,0,0,0,0,0,0,0,0,0,0],"id":2,"left_children":[1,3,5,7,9,11,13,15,17,19,21,23,25,27,29,31,-1,33,35,37,39,41,43,45,47,49,51,53,55,57,59,61,-1,63,65,67,-1,69,71,73,75,77,79,81,83,85,87,89,-1,-1,91,93,95,97,99,-1,101,103,105,107,109,-1,-1,-1,-1,-1,-1,-1,-1,-1,-1,-1,-1,-1,-1,-1,-1,-1,-1,-1,-1,-1,-1,-1,-1,-1,-1,-1,-1,-1,-1,-1,-1,-1,-1,-1,-1,-1,-1,-1,-1,-1,-1,-1,-1,-1,-1,-1,-1,-1,-1],"loss_changes":[1.2788528E4,3.0359229E3,3.512225E3,7.1831177E2,1.9488662E3,1.4324392E3,1.1192119E3,3.4651953E2,6.537571E2,1.1538369E3,1.4868398E3,1.2181606E3,1.0493716E3,5.194031E2,8.259292E2,2.0046307E2,0E0,3.8143893E2,3.4275162E2,1.8355186E3,1.6913691E3,1.3558158E3,1.0368778E3,8.708843E2,7.5510626E2,5.6279443E2,7.27229E2,3.8798633E2,5.979218E2,1.7131565E3,4.769082E2,9.0966797E-1,0E0,2.4851947E2,1.4049585E2,5.0711773E1,0E0,2.720335E3,2.99163E3,1.5166879E3,2.4082397E3,8.8562317E2,7.845994E2,9.984575E2,3.4145667E2,5.72818E2,6.839861E2,4.4511618E2,0E0,0E0,6.322234E2,5.7257404E2,5.3487946E1,4.4531738E2,4.092578E2,0E0,2.156325E2,6.6760864E2,1.1808475E3,2.3279785E2,5.8896985E2,0E0,0E0,0E0,0E0,0E0,0E0,0E0,0E0,0E0,0E0,0E0,0E0,0E0,0E0,0E0,0E0,0E0,0E0,0E0,0E0,0E0,0E0,0E0,0E0,0E0,0E0,0E0,0E0,0E0,0E0,0E0,0E0,0E0,0E0,0E0,0E0,0E0,0E0,0E0,0E0,0E0,0E0,0E0,0E0,0E0,0E0,0E0,0E0,0E0,0E0],"parents":[2147483647,0,0,1,1,2,2,3,3,4,4,5,5,6,6,7,7,8,8,9,9,10,10,11,11,12,12,13,13,14,14,15,15,17,17,18,18,19,19,20,20,21,21,22,22,23,23,24,24,25,25,26,26,27,27,28,28,29,29,30,30,31,31,33,33,34,34,35,35,37,37,38,38,39,39,40,40,41,41,42,42,43,43,44,44,45,45,46,46,47,47,50,50,51,51,52,52,53,53,54,54,56,56,57,57,58,58,59,59,60,60],"right_children":[2,4,6,8,10,12,14,16,18,20,22,24,26,28,30,32,-1,34,36,38,40,42,44,46,48,50,52,54,56,58,60,62,-1,64,66,68,-1,70,72,74,76,78,80,82,84,86,88,90,-1,-1,92,94,96,98,100,-1,102,104,106,108,110,-1,-1,-1,-1,-1,-1,-1,-1,-1,-1,-1,-1,-1,-1,-1,-1,-1,-1,-1,-1,-1,-1,-1,-1,-1,-1,-1,-1,-1,-1,-1,-1,-1,-1,-1,-1,-1,-1,-1,-1,-1,-1,-1,-1,-1,-1,-1,-1,-1,-1],"split_conditions":[1.9862555E2,5.022708E1,1.6299694E1,1.0390226E1,2.0000002E0,2.4130075E2,2.7102734E2,3.7677074E1,2.4565E1,1.1415E1,1.3365E1,1.6499999E-1,1.0685391E1,2.6936902E2,3.365E0,2.644823E1,3.6484654E0,2.2771244E1,4.3090916E1,1.3484451E2,1.5264999E1,1.1212135E1,1.1133124E2,9.865E0,1.8365E1,2.4164693E2,2.7315E1,2E-1,6.5E-2,8.514999E0,1.5464999E1,3.265E0,-1.6675262E0,3.165E0,1.2514999E1,9.065E0,4.232819E0,1.2800398E2,1.9649999E0,2.265E0,1.8515001E1,1.3697777E2,2.565E0,6.627162E1,1.6665E1,2.312503E2,1.1565E1,1.5978486E1,3.9510624E0,-3.463458E0,3.276903E2,6.265E0,1E-1,1.5150001E0,-5.35E-1,-1.6541501E0,1.4214999E1,-1.0435E1,9.315E0,2.852548E2,1.6065E1,1.7908478E0,4.7435534E-1,-1.7215468E-2,-9.548545E-1,-2.1208327E0,8.8166773E-1,-1.1756448E0,7.745897E-1,1.7291225E0,-5.574737E0,1.6423796E0,5.456144E0,2.973229E0,-9.6571064E-1,3.681096E0,1.1234182E0,3.4829876E-1,5.828961E0,1.8957726E0,-3.316225E-1,-1.6211077E0,7.292016E0,2.544403E-1,2.856403E0,5.1718867E-1,3.4851947E0,8.090056E0,1.8775975E0,1.7023942E-2,2.9236834E0,3.0836086E0,-8.741529E-2,-2.6695266E-1,-1.2709028E0,1.2671592E0,3.8428128E0,3.322909E-1,-7.443352E-1,-1.7614934E0,-7.7702713E-1,3.7160065E0,-5.591738E-1,1.7082554E0,-1.5729266E0,3.865463E0,-1.8062584E-1,-1.1234691E0,-3.0850966E0,2.7003317E0,-1.6915959E0],"split_indices":[4,4,3,3,2,4,4,4,0,0,1,1,3,4,1,4,0,3,4,4,0,3,4,0,1,4,0,2,1,0,0,0,0,1,1,1,0,4,1,1,0,4,0,4,1,4,0,3,0,0,4,1,2,1,1,0,0,1,0,4,0,0,0,0,0,0,0,0,0,0,0,0,0,0,0,0,0,0,0,0,0,0,0,0,0,0,0,0,0,0,0,0,0,0,0,0,0,0,0,0,0,0,0,0,0,0,0,0,0,0,0],"split_type":[0,0,0,0,0,0,0,0,0,0,0,0,0,0,0,0,0,0,0,0,0,0,0,0,0,0,0,0,0,0,0,0,0,0,0,0,0,0,0,0,0,0,0,0,0,0,0,0,0,0,0,0,0,0,0,0,0,0,0,0,0,0,0,0,0,0,0,0,0,0,0,0,0,0,0,0,0,0,0,0,0,0,0,0,0,0,0,0,0,0,0,0,0,0,0,0,0,0,0,0,0,0,0,0,0,0,0,0,0,0,0],"sum_hessian":[1.795E3,6.94E2,1.101E3,1.41E2,5.53E2,3.99E2,7.02E2,1E1,1.31E2,3.76E2,1.77E2,1.33E2,2.66E2,3.96E2,3.06E2,5E0,5E0,1.25E2,6E0,1.39E2,2.37E2,1.53E2,2.4E1,3.3E1,1E2,2.4E1,2.42E2,3.87E2,9E0,1.91E2,1.15E2,3E0,2E0,1.09E2,1.6E1,3E0,3E0,6.3E1,7.6E1,5.3E1,1.84E2,1E1,1.43E2,6E0,1.8E1,2.6E1,7E0,9.6E1,4E0,1E0,2.3E1,2.37E2,5E0,1.49E2,2.38E2,3E0,6E0,1.6E2,3.1E1,5E1,6.5E1,2E0,1E0,7E1,3.9E1,1.5E1,1E0,1E0,2E0,5.9E1,4E0,4.2E1,3.4E1,1E1,4.3E1,4.3E1,1.41E2,5E0,5E0,1.5E1,1.28E2,1E0,5E0,1.1E1,7E0,1.8E1,8E0,3E0,4E0,9.2E1,4E0,1.4E1,9E0,1.63E2,7.4E1,3E0,2E0,5.3E1,9.6E1,4.8E1,1.9E2,5E0,1E0,5E0,1.55E2,8E0,2.3E1,8E0,4.2E1,2E0,6.3E1],"tree_param":{"num_deleted":"0","num_feature":"5","num_nodes":"111","size_leaf_vector":"1"}},{"base_weights":[5.8954235E-2,1.686498E0,-2.1669343E0,2.3913608E0,-1.8421441E-1,1.198833E0,-2.7759979E0,3.8232439E0,1.3152276E0,-1.2642682E0,4.9173236E0,3.1123626E0,-2.2922878E0,-3.169064E0,2.8918773E-1,7.724068E0,2.791421E0,6.799349E-1,6.504754E0,-6.228611E-1,-5.4857383E0,2.9671E1,1.5075594E0,2.0553012E0,1.7711575E1,-6.8023453E0,3.5252738E0,-2.5702598E0,-5.0249567E0,5.6689835E0,-1.060581E0,2.9399943E0,1.1762021E1,2.2495615E0,1.2035866E1,2.5575988E0,-4.2328584E-1,9.530424E0,1.9435774E0,-1.0717416E0,6.123729E0,5.4338207E0,-6.8497562E0,1.4286358E0,1.01101055E1,6.9528737E0,-4.5865613E-1,-2.9775429E0,2.905991E0,5.8588552E0,1.565971E0,-7.303548E0,7.0879614E-1,1.0157268E0,1.034886E1,-3.1145217E0,3.9084196E0,-5.742204E0,-5.0608796E-1,9.249804E0,2.5521633E-1,-4.5205073E0,1.21236E0,1.4456376E0,-3.4248855E0,5.5521727E0,1.196586E0,4.2943928E-1,1.8450414E0,5.7745843E0,-3.2424464E0,-7.163041E-1,1.2366205E0,1.3024713E0,-2.5348422E-1,2.0306537E0,3.9548912E0,-8.476869E-1,1.607554E0,-2.0700552E-1,-2.2078497E0,2.6399188E0,2.4654808E-2,-9.756094E-1,2.8239348E0,-3.4065077E0,-1.5314728E0,6.948843E0,1.01206E0,-1.6147977E0,4.587874E-1,1.3986368E0,-6.6934764E-1,-1.8894425E-1,-2.4819353E0,3.15532E0,-1.2427634E-1,3.5392668E0,6.831119E-1,-7.295152E-1,-1.3400944E0,2.5964177E0,-4.0409636E-1,-1.3010399E0,-2.1737523E0,3.448831E0,-9.9010897E-1,3.364356E0,-9.701884E-1,-4.872782E-1,1.7298118E0,-1.8243074E0,7.8769875E-1,2.678164E0,2.2502412E-1],"categories":[],"categories_nodes":[],"categories_segments":[],"categories_sizes":[],"default_left":[0,0,0,0,0,0,0,0,0,0,0,0,0,0,0,0,0,0,0,0,0,0,0,0,0,0,0,0,0,0,0,0,0,0,0,0,0,0,0,0,0,0,0,0,0,0,0,0,0,0,0,0,0,0,0,0,0,0,0,0,0,0,0,0,0,0,0,0,0,0,0,0,0,0,0,0,0,0,0,0,0,0,0,0,0,0,0,0,0,0,0,0,0,0,0,0,0,0,0,0,0,0,0,0,0,0,0,0,0,0,0,0,0,0,0],"id":3,"left_children":[1,3,5,7,9,11,13,15,17,19,21,23,25,27,29,31,33,35,37,39,41,43,45,47,49,51,53,55,57,59,61,63,65,67,69,71,73,75,77,79,81,83,85,-1,-1,87,89,-1,91,-1,-1,93,-1,95,97,99,101,103,105,107,109,111,113,-1,-1,-1,-1,-1,-1,-1,-1,-1,-1,-1,-1,-1,-1,-1,-1,-1,-1,-1,-1,-1,-1,-1,-1,-1,-1,-1,-1,-1,-1,-1,-1,-1,-1,-1,-1,-1,-1,-1,-1,-1,-1,-1,-1,-1,-1,-1,-1,-1,-1,-1,-1],"loss_changes":[6.5100796E3,1.3691426E3,1.559252E3,1.1568081E3,1.5765482E3,7.887369E2,7.756157E2,1.2785005E3,1.4198242E3,6.355958E2,4.175479E3,1.1364495E3,1.1259568E3,6.2053564E2,5.433619E2,1.2597168E3,1.2602861E3,8.00673E2,6.3010583E2,6.30416E2,4.989489E2,4.4171436E2,4.8498874E2,7.626407E2,1.1603516E1,1.27500244E2,3.1484647E2,1.5389739E3,4.4437183E2,2.884252E2,4.77333E2,9.181339E2,1.8137812E3,7.6981274E2,2.5147957E3,1.1161958E3,4.939026E2,1.9319678E2,3.408713E2,4.6055725E2,2.0945016E2,1.6886603E2,1.6214197E2,0E0,0E0,6.1811005E2,3.4104605E2,0E0,6.238646E2,0E0,0E0,1.4361438E2,0E0,2.0817238E2,3.1604553E1,3.5852368E2,8.597459E2,2.2004956E2,7.0868976E2,2.570108E2,8.18678E1,2.8360797E2,1.25261375E2,0E0,0E0,0E0,0E0,0E0,0E0,0E0,0E0,0E0,0E0,0E0,0E0,0E0,0E0,0E0,0E0,0E0,0E0,0E0,0E0,0E0,0E0,0E0,0E0,0E0,0E0,0E0,0E0,0E0,0E0,0E0,0E0,0E0,0E0,0E0,0E0,0E0,0E0,0E0,0E0,0E0,0E0,0E0,0E0,0E0,0E0,0E0,0E0,0E0,0E0,0E0,0E0],"parents":[2147483647,0,0,1,1,2,2,3,3,4,4,5,5,6,6,7,7,8,8,9,9,10,10,11,11,12,12,13,13,14,14,15,15,16,16,17,17,18,18,19,19,20,20,21,21,22,22,23,23,24,24,25,25,26,26,27,27,28,28,29,29,30,30,31,31,32,32,33,33,34,34,35,35,36,36,37,37,38,38,39,39,40,40,41,41,42,42,45,45,46,46,48,48,51,51,53,53,54,54,55,55,56,56,57,57,58,58,59,59,60,60,61,61,62,62],"right_children":[2,4,6,8,10,12,14,16,18,20,22,24,26,28,30,32,34,36,38,40,42,44,46,48,50,52,54,56,58,60,62,64,66,68,70,72,74,76,78,80,82,84,86,-1,-1,88,90,-1,92,-1,-1,94,-1,96,98,100,102,104,106,108,110,112,114,-1,-1,-1,-1,-1,-1,-1,-1,-1,-1,-1,-1,-1,-1,-1,-1,-1,-1,-1,-1,-1,-1,-1,-1,-1,-1,-1,-1,-1,-1,-1,-1,-1,-1,-1,-1,-1,-1,-1,-1,-1,-1,-1,-1,-1,-1,-1,-1,-1,-1,-1,-1],"split_conditions":[2.4130075E2,1.9652176E1,1.3684735E1,1.1565E1,1.1615E1,5.215E0,2.0015001E1,1.2096214E1,2.6765001E1,9.600001E0,1.5865E1,1.6865E1,1.1815E1,6.265E0,1.0065E1,1.0340668E2,1.1065E1,1.2800398E2,1.7906071E2,7.799999E0,1.315E0,1.1714999E1,1E-1,2.4244489E2,4.715E0,1.332E1,1.0200001E1,1.2514999E1,5.6E0,1E-1,1.2665E1,1.1525623E1,1.747423E2,1.8218275E1,1.749615E1,6.6150002E0,1.0041354E1,1.5725037E1,1.9917561E2,3.010685E1,1.9534187E2,6.5E-2,-1.135E0,1.4286358E0,1.01101055E1,1.7265001E1,1.9065E1,-2.9775429E0,3.3386517E2,5.8588552E0,1.565971E0,1.0041354E1,7.0879614E-1,1.2365E1,1.2783802E1,6.15E-1,2.788873E2,2.7102734E2,6.899999E0,3.5034937E2,9.764999E0,3.3790778E2,2.0165E1,1.4456376E0,-3.4248855E0,5.5521727E0,1.196586E0,4.2943928E-1,1.8450414E0,5.7745843E0,-3.2424464E0,-7.163041E-1,1.2366205E0,1.3024713E0,-2.5348422E-1,2.0306537E0,3.9548912E0,-8.476869E-1,1.607554E0,-2.0700552E-1,-2.2078497E0,2.6399188E0,2.4654808E-2,-9.756094E-1,2.8239348E0,-3.4065077E0,-1.5314728E0,6.948843E0,1.01206E0,-1.6147977E0,4.587874E-1,1.3986368E0,-6.6934764E-1,-1.8894425E-1,-2.4819353E0,3.15532E0,-1.2427634E-1,3.5392668E0,6.831119E-1,-7.295152E-1,-1.3400944E0,2.5964177E0,-4.0409636E-1,-1.3010399E0,-2.1737523E0,3.448831E0,-9.9010897E-1,3.364356E0,-9.701884E-1,-4.872782E-1,1.7298118E0,-1.8243074E0,7.8769875E-1,2.678164E0,2.2502412E-1],"split_indices":[4,3,3,0,1,1,0,3,0,2,0,0,1,1,1,4,0,4,4,2,0,1,2,4,1,3,2,0,2,2,1,3,4,3,3,1,3,3,4,3,4,0,1,0,0,0,0,0,4,0,0,3,0,1,3,1,4,4,2,4,1,4,0,0,0,0,0,0,0,0,0,0,0,0,0,0,0,0,0,0,0,0,0,0,0,0,0,0,0,0,0,0,0,0,0,0,0,0,0,0,0,0,0,0,0,0,0,0,0,0,0,0,0,0,0],"split_type":[0,0,0,0,0,0,0,0,0,0,0,0,0,0,0,0,0,0,0,0,0,0,0,0,0,0,0,0,0,0,0,0,0,0,0,0,0,0,0,0,0,0,0,0,0,0,0,0,0,0,0,0,0,0,0,0,0,0,0,0,0,0,0,0,0,0,0,0,0,0,0,0,0,0,0,0,0,0,0,0,0,0,0,0,0,0,0,0,0,0,0,0,0,0,0,0,0,0,0,0,0,0,0,0,0,0,0,0,0,0,0,0,0,0,0],"sum_hessian":[1.795E3,1.037E3,7.58E2,7.53E2,2.84E2,1.16E2,6.42E2,3.22E2,4.31E2,2.35E2,4.9E1,7.5E1,4.1E1,5.69E2,7.3E1,6.6E1,2.56E2,3.85E2,4.6E1,2.05E2,3E1,5E0,4.4E1,7.1E1,4E0,2.3E1,1.8E1,4.32E2,1.37E2,1.4E1,5.9E1,3.1E1,3.5E1,2.43E2,1.3E1,1.42E2,2.43E2,2.7E1,1.9E1,1.93E2,1.2E1,3E0,2.7E1,1E0,4E0,1.1E1,3.3E1,4E0,6.7E1,3E0,1E0,2.2E1,1E0,1.4E1,4E0,3.99E2,3.3E1,1.18E2,1.9E1,8E0,6E0,2.3E1,3.6E1,2.8E1,3E0,1.8E1,1.7E1,2.02E2,4.1E1,1E1,3E0,3.4E1,1.08E2,1.9E1,2.24E2,1.7E1,1E1,8E0,1.1E1,1.83E2,1E1,8E0,4E0,1E0,2E0,6E0,2.1E1,1E0,1E1,9E0,2.4E1,5E1,1.7E1,3E0,1.9E1,1E0,1.3E1,3E0,1E0,2.67E2,1.32E2,1.7E1,1.6E1,6.3E1,5.5E1,3E0,1.6E1,7E0,1E0,5E0,1E0,1.9E1,4E0,1E0,3.5E1],"tree_param":{"num_deleted":"0","num_feature":"5","num_nodes":"115","size_leaf_vector":"1"}},{"base_weights":[6.82571E-2,1.7793217E0,-1.0109245E0,-1.1656598E0,2.4848354E0,9.1571933E-1,-1.6009598E0,2.638068E0,-1.9295543E0,3.2930963E0,7.2721153E-1,5.938223E-1,8.871573E0,2.1577146E0,-1.7421367E0,4.2435975E0,-3.309337E-1,-3.972127E0,-6.653264E-1,6.825747E-1,3.764906E0,-6.4077474E-2,5.5724635E0,1.9124118E0,-1.2453005E0,1.2003803E1,1.1722789E0,8.876121E0,-9.9418414E-1,-1.3731273E0,-2.8756423E0,3.1517458E-1,7.641571E0,-4.5028157E0,1.8028868E0,-4.48291E0,2.6221137E0,1.0516572E1,-1.859295E0,4.5716534E0,-1.8585191E0,7.5640087E0,3.2803109E0,9.567022E-1,-3.4365413E0,1.6950735E1,3.250393E0,1.4248573E0,4.612944E0,-1.7023035E0,8.23522E0,4.007783E0,5.806452E-1,1.0605587E0,-8.874708E-1,1.3698319E1,1.314257E0,5.3457103E0,-3.7057514E0,-3.852758E0,-1.0430236E0,-4.048677E0,-7.5030756E-1,-6.7652357E-1,4.6433163E-1,2.5021424E0,4.1238728E-1,2.1770898E-1,-1.7080973E0,-1.0237261E0,-2.581782E0,-1.5779668E0,5.36374E0,2.2373295E0,-6.364205E-1,-2.51726E-1,4.104836E0,-3.278588E0,7.4856564E-2,3.706323E0,1.0146523E-2,-1.6182176E0,1.0924934E0,-2.3806868E-1,1.5042232E0,4.65917E-1,-1.7988154E0,6.3454475E0,6.522698E-1,-1.863338E-1,2.1535091E0,3.2296255E-1,3.2260175E0,-1.6747786E0,-2.7186546E-1,6.437073E-1,2.7663538E0,1.209826E0,4.447465E0,-5.9200174E-1,7.8884727E-1,2.9679886E-1,3.2473323E0,-2.3673275E0,4.397924E-1,-4.0176943E-1,-1.7490296E0,-8.569629E-3,-6.539211E-1,-5.755691E-1,-1.6168612E0,-5.600321E-1,1.0850146E0],"categories":[],"categories_nodes":[],"categories_segments":[],"categories_sizes":[],"default_left":[0,0,0,0,0,0,0,0,0,0,0,0,0,0,0,0,0,0,0,0,0,0,0,0,0,0,0,0,0,0,0,0,0,0,0,0,0,0,0,0,0,0,0,0,0,0,0,0,0,0,0,0,0,0,0,0,0,0,0,0,0,0,0,0,0,0,0,0,0,0,0,0,0,0,0,0,0,0,0,0,0,0,0,0,0,0,0,0,0,0,0,0,0,0,0,0,0,0,0,0,0,0,0,0,0,0,0,0,0,0,0,0,0],"id":4,"left_children":[1,3,5,7,9,11,13,15,17,19,21,23,25,27,29,31,33,35,37,39,41,43,45,47,49,51,53,55,57,59,61,63,65,67,-1,69,-1,71,73,75,77,79,81,83,85,87,89,91,-1,93,95,-1,-1,-1,-1,97,99,101,103,105,107,109,111,-1,-1,-1,-1,-1,-1,-1,-1,-1,-1,-1,-1,-1,-1,-1,-1,-1,-1,-1,-1,-1,-1,-1,-1,-1,-1,-1,-1,-1,-1,-1,-1,-1,-1,-1,-1,-1,-1,-1,-1,-1,-1,-1,-1,-1,-1,-1,-1,-1,-1],"loss_changes":[3.3182012E3,1.446915E3,1.2542064E3,3.9735254E2,7.94572E2,6.580221E2,4.516172E2,1.110412E2,2.891546E2,4.703916E2,6.8280804E2,6.086435E2,2.2708777E2,6.652723E2,3.3652637E2,1.9782175E2,2.651287E2,3.1839563E2,9.6746265E2,6.014473E2,5.73521E2,5.334393E2,6.054322E2,9.365031E2,4.6894458E2,6.967468E1,4.9498188E1,3.4664502E2,3.9801297E2,5.0019922E2,4.930874E2,2.883505E1,2.357489E1,4.1489845E1,0E0,1.5600671E2,0E0,9.071285E2,1.7455501E2,1.1946323E3,7.101727E2,1.2981963E3,9.286028E2,8.49055E2,4.6906546E2,2.0230176E2,3.390161E2,4.4982016E2,0E0,3.069343E2,1.02343445E1,0E0,0E0,0E0,0E0,5.548218E0,2.6808664E1,1.5636311E2,3.5789502E2,3.500393E2,6.284037E2,3.5525146E2,3.577971E2,0E0,0E0,0E0,0E0,0E0,0E0,0E0,0E0,0E0,0E0,0E0,0E0,0E0,0E0,0E0,0E0,0E0,0E0,0E0,0E0,0E0,0E0,0E0,0E0,0E0,0E0,0E0,0E0,0E0,0E0,0E0,0E0,0E0,0E0,0E0,0E0,0E0,0E0,0E0,0E0,0E0,0E0,0E0,0E0,0E0,0E0,0E0,0E0,0E0,0E0],"parents":[2147483647,0,0,1,1,2,2,3,3,4,4,5,5,6,6,7,7,8,8,9,9,10,10,11,11,12,12,13,13,14,14,15,15,16,16,17,17,18,18,19,19,20,20,21,21,22,22,23,23,24,24,25,25,26,26,27,27,28,28,29,29,30,30,31,31,32,32,33,33,35,35,37,37,38,38,39,39,40,40,41,41,42,42,43,43,44,44,45,45,46,46,47,47,49,49,50,50,55,55,56,56,57,57,58,58,59,59,60,60,61,61,62,62],"right_children":[2,4,6,8,10,12,14,16,18,20,22,24,26,28,30,32,34,36,38,40,42,44,46,48,50,52,54,56,58,60,62,64,66,68,-1,70,-1,72,74,76,78,80,82,84,86,88,90,92,-1,94,96,-1,-1,-1,-1,98,100,102,104,106,108,110,112,-1,-1,-1,-1,-1,-1,-1,-1,-1,-1,-1,-1,-1,-1,-1,-1,-1,-1,-1,-1,-1,-1,-1,-1,-1,-1,-1,-1,-1,-1,-1,-1,-1,-1,-1,-1,-1,-1,-1,-1,-1,-1,-1,-1,-1,-1,-1,-1,-1,-1],"split_conditions":[1.9862555E2,4.7629574E1,1.4512064E1,1.1659777E1,2.0000002E0,1.6115E1,-7.1349998E0,1.2650001E0,1.692383E1,1.1165805E1,1.3365E1,4.8650002E0,2.8515001E1,2.7218826E2,3.0254428E2,3E-1,2.0015001E1,7.9999995E0,1.749615E1,1.0014999E1,1.2261158E1,1.5264999E1,1.8065E1,1.6865E1,1.0999999E1,2.911581E2,2E-1,1E-1,1.5893093E1,3.815E0,3.3790778E2,9.462261E0,-1.435E0,1.6998474E1,1.8028868E0,1.6203999E1,2.6221137E0,1.4453668E1,-1.2835E1,4.65E-1,1.3565E1,1.5894662E2,1.243434E1,3.515E0,9.464999E0,1.3915E1,1.6665E1,1.4458382E1,4.612944E0,1.6265001E1,2.0352324E2,4.007783E0,5.806452E-1,1.0605587E0,-8.874708E-1,2.152676E2,6E-1,-2.885E0,3.1005508E2,-3.735E0,5.465E0,-3.85E-1,1.9265001E1,-6.7652357E-1,4.6433163E-1,2.5021424E0,4.1238728E-1,2.1770898E-1,-1.7080973E0,-1.0237261E0,-2.581782E0,-1.5779668E0,5.36374E0,2.2373295E0,-6.364205E-1,-2.51726E-1,4.104836E0,-3.278588E0,7.4856564E-2,3.706323E0,1.0146523E-2,-1.6182176E0,1.0924934E0,-2.3806868E-1,1.5042232E0,4.65917E-1,-1.7988154E0,6.3454475E0,6.522698E-1,-1.863338E-1,2.1535091E0,3.2296255E-1,3.2260175E0,-1.6747786E0,-2.7186546E-1,6.437073E-1,2.7663538E0,1.209826E0,4.447465E0,-5.9200174E-1,7.8884727E-1,2.9679886E-1,3.2473323E0,-2.3673275E0,4.397924E-1,-4.0176943E-1,-1.7490296E0,-8.569629E-3,-6.539211E-1,-5.755691E-1,-1.6168612E0,-5.600321E-1,1.0850146E0],"split_indices":[4,4,3,3,2,1,1,1,3,3,1,1,0,4,4,2,0,2,3,0,3,0,0,0,2,4,2,2,3,0,4,4,1,4,0,3,0,4,1,1,0,4,3,1,1,1,1,3,0,0,4,0,0,0,0,4,2,0,4,1,1,1,0,0,0,0,0,0,0,0,0,0,0,0,0,0,0,0,0,0,0,0,0,0,0,0,0,0,0,0,0,0,0,0,0,0,0,0,0,0,0,0,0,0,0,0,0,0,0,0,0,0,0],"split_type":[0,0,0,0,0,0,0,0,0,0,0,0,0,0,0,0,0,0,0,0,0,0,0,0,0,0,0,0,0,0,0,0,0,0,0,0,0,0,0,0,0,0,0,0,0,0,0,0,0,0,0,0,0,0,0,0,0,0,0,0,0,0,0,0,0,0,0,0,0,0,0,0,0,0,0,0,0,0,0,0,0,0,0,0,0,0,0,0,0,0,0,0,0,0,0,0,0,0,0,0,0,0,0,0,0,0,0,0,0,0,0,0,0],"sum_hessian":[1.795E3,6.94E2,1.101E3,1.34E2,5.6E2,2.58E2,8.43E2,2.2E1,1.12E2,3.83E2,1.77E2,2.49E2,9E0,3E1,8.13E2,1.4E1,8E0,4.2E1,7E1,5.9E1,3.24E2,1.53E2,2.4E1,1.45E2,1.04E2,6E0,3E0,9E0,2.1E1,6.15E2,1.98E2,7E0,7E0,5E0,3E0,4.1E1,1E0,6E0,6.4E1,2.3E1,3.6E1,3.5E1,2.89E2,1.18E2,3.5E1,3E0,2.1E1,1.41E2,4E0,1E2,4E0,5E0,1E0,2E0,1E0,5E0,4E0,6E0,1.5E1,7.1E1,5.44E2,1.27E2,7.1E1,2E0,5E0,6E0,1E0,1E0,4E0,3.4E1,7E0,2E0,4E0,1E0,6.3E1,1.5E1,8E0,6E0,3E1,2.1E1,1.4E1,1.1E1,2.78E2,8.3E1,3.5E1,1.2E1,2.3E1,2E0,1E0,1.1E1,1E1,1.37E2,4E0,1.6E1,8.4E1,1E0,3E0,1E0,4E0,1E0,3E0,4E0,2E0,8E0,7E0,3.2E1,3.9E1,2.88E2,2.56E2,5E1,7.7E1,5.7E1,1.4E1],"tree_param":{"num_deleted":"0","num_feature":"5","num_nodes":"113","size_leaf_vector":"1"}},{"base_weights":[6.867815E-2,9.467654E-1,-1.1322749E0,5.524614E0,8.329657E-1,-1.3671385E0,1.6774158E0,3.9078486E0,3.9095774E0,-1.0649731E0,1.0961659E0,4.142817E0,-1.5267162E0,9.062989E0,1.2592732E0,8.0310565E-1,8.307469E0,-1.2612327E0,5.1381207E0,6.5776825E0,9.69186E-1,-5.86741E0,6.2544694E0,-1.2730072E-1,-1.8591956E0,3.5445676E0,5.3377765E-1,3.6804664E0,4.74284E-2,-4.2042437E0,3.2264698E0,3.505291E-1,2.7161386E0,1.4682795E-1,-2.0677457E0,1.6808224E-1,1.9431936E0,1.9251728E-1,1.00010395E1,1.6154209E0,-1.0230638E-1,-3.163625E0,1.2249911E0,1.1392314E1,4.2168427E-1,-1.9082865E0,2.177893E0,-3.047598E0,-1.2696053E0,5.220268E0,-3.3988557E0,-1.1020926E0,5.4598236E0,6.489744E-1,-1.9010787E0,2.3835642E0,-9.24395E-1,-1.5194917E0,3.235543E-1,-3.7824523E0,-4.8556757E-1,1.1589893E0,-1.3332263E0,3.1995175E0,3.049221E-1,7.2754526E-1,1.12381056E-1,2.871474E-1,-3.6011362E-1,4.0486465E0,-8.1496125E-1,1.1953304E0,-9.676209E-1,-1.3927222E0,3.0756003E-1,1.344652E0,1.6067684E-1,-6.199297E-1,-1.7710539E0,3.4236866E-1,-6.2844646E-1,2.5252086E-1,2.328964E0,-1.1817464E0,-2.6669398E-1,-1.2325642E0,7.2943955E-3,8.9858824E-1,2.3242295E0],"categories":[],"categories_nodes":[],"categories_segments":[],"categories_sizes":[],"default_left":[0,0,0,0,0,0,0,0,0,0,0,0,0,0,0,0,0,0,0,0,0,0,0,0,0,0,0,0,0,0,0,0,0,0,0,0,0,0,0,0,0,0,0,0,0,0,0,0,0,0,0,0,0,0,0,0,0,0,0,0,0,0,0,0,0,0,0,0,0,0,0,0,0,0,0,0,0,0,0,0,0,0,0,0,0,0,0,0,0],"id":5,"left_children":[1,3,5,7,9,11,13,-1,15,17,19,21,23,25,27,29,31,33,35,37,39,41,43,45,47,-1,-1,49,51,53,55,-1,-1,57,59,-1,-1,61,63,65,67,-1,-1,69,71,73,75,77,79,81,83,85,87,-1,-1,-1,-1,-1,-1,-1,-1,-1,-1,-1,-1,-1,-1,-1,-1,-1,-1,-1,-1,-1,-1,-1,-1,-1,-1,-1,-1,-1,-1,-1,-1,-1,-1,-1,-1],"loss_changes":[1.8950286E3,5.361527E2,5.031532E2,2.5195502E2,5.0769897E2,6.226902E2,1.707924E2,0E0,2.9389062E2,1.5743997E2,6.1379895E2,4.5945996E2,3.1708228E2,3.9117264E1,1.6706976E2,1.834497E2,3.737372E1,1.3771349E2,2.0893372E1,4.352486E2,6.0396936E2,2.2925813E2,5.0465106E2,5.460843E2,3.8220032E2,0E0,0E0,2.2485718E2,2.4866208E2,8.160761E1,3.2213E2,0E0,0E0,2.2397202E2,3.4415903E2,0E0,0E0,1.5332849E2,6.671753E1,5.4566296E2,3.8389716E2,0E0,0E0,3.037213E2,1.2979436E2,6.062975E2,2.170904E2,4.9778748E2,7.384905E2,1.7161533E2,1.9225006E0,1.1185414E2,1.6259277E1,0E0,0E0,0E0,0E0,0E0,0E0,0E0,0E0,0E0,0E0,0E0,0E0,0E0,0E0,0E0,0E0,0E0,0E0,0E0,0E0,0E0,0E0,0E0,0E0,0E0,0E0,0E0,0E0,0E0,0E0,0E0,0E0,0E0,0E0,0E0,0E0],"parents":[2147483647,0,0,1,1,2,2,3,3,4,4,5,5,6,6,8,8,9,9,10,10,11,11,12,12,13,13,14,14,15,15,16,16,17,17,18,18,19,19,20,20,21,21,22,22,23,23,24,24,27,27,28,28,29,29,30,30,33,33,34,34,37,37,38,38,39,39,40,40,43,43,44,44,45,45,46,46,47,47,48,48,49,49,50,50,51,51,52,52],"right_children":[2,4,6,8,10,12,14,-1,16,18,20,22,24,26,28,30,32,34,36,38,40,42,44,46,48,-1,-1,50,52,54,56,-1,-1,58,60,-1,-1,62,64,66,68,-1,-1,70,72,74,76,78,80,82,84,86,88,-1,-1,-1,-1,-1,-1,-1,-1,-1,-1,-1,-1,-1,-1,-1,-1,-1,-1,-1,-1,-1,-1,-1,-1,-1,-1,-1,-1,-1,-1,-1,-1,-1,-1,-1,-1],"split_conditions":[2.4130075E2,8.669949E0,2.1715E1,-2.835E0,4.62653E1,1.0483357E1,8.615E0,3.9078486E0,6E-1,2.5765001E1,-6.935E0,2.4658723E2,-3.435E0,2.3165E1,2.2865E1,4.65E-1,4.4372204E1,-1.635E0,1.2783802E1,-1.0435E1,1.9862555E2,1.1065E1,3.276903E2,3.1399936E2,7.465E0,3.5445676E0,5.3377765E-1,3.4346378E2,2.7315E1,-1.35E-1,1E-1,3.505291E-1,2.7161386E0,-4.335E0,-1.335E0,1.6808224E-1,1.9431936E0,-1.1835E1,3.4650002E0,1E0,1.7786331E1,-3.163625E0,1.2249911E0,1.3415E1,-2.835E0,6.5E-2,3.2887317E2,3.15E-1,3.065E0,2.5660376E2,1.3365E1,2.3265001E1,1E-1,6.489744E-1,-1.9010787E0,2.3835642E0,-9.24395E-1,-1.5194917E0,3.235543E-1,-3.7824523E0,-4.8556757E-1,1.1589893E0,-1.3332263E0,3.1995175E0,3.049221E-1,7.2754526E-1,1.12381056E-1,2.871474E-1,-3.6011362E-1,4.0486465E0,-8.1496125E-1,1.1953304E0,-9.676209E-1,-1.3927222E0,3.0756003E-1,1.344652E0,1.6067684E-1,-6.199297E-1,-1.7710539E0,3.4236866E-1,-6.2844646E-1,2.5252086E-1,2.328964E0,-1.1817464E0,-2.6669398E-1,-1.2325642E0,7.2943955E-3,8.9858824E-1,2.3242295E0],"split_indices":[4,3,0,1,4,3,1,0,2,0,1,4,1,0,0,1,4,1,3,1,4,0,4,4,0,0,0,4,0,0,2,0,0,0,1,0,0,1,0,2,3,0,0,0,1,0,4,1,1,4,1,0,2,0,0,0,0,0,0,0,0,0,0,0,0,0,0,0,0,0,0,0,0,0,0,0,0,0,0,0,0,0,0,0,0,0,0,0,0],"split_type":[0,0,0,0,0,0,0,0,0,0,0,0,0,0,0,0,0,0,0,0,0,0,0,0,0,0,0,0,0,0,0,0,0,0,0,0,0,0,0,0,0,0,0,0,0,0,0,0,0,0,0,0,0,0,0,0,0,0,0,0,0,0,0,0,0,0,0,0,0,0,0,0,0,0,0,0,0,0,0,0,0,0,0,0,0,0,0,0,0],"sum_hessian":[1.795E3,1.037E3,7.58E2,2.4E1,1.013E3,7E2,5.8E1,3E0,2.1E1,1.23E2,8.9E2,1.9E1,6.81E2,2E0,5.6E1,1.3E1,8E0,1.2E2,3E0,1.9E1,8.71E2,3E0,1.6E1,1.31E2,5.5E2,1E0,1E0,1.8E1,3.8E1,4E0,9E0,1E0,7E0,4.4E1,7.6E1,1E0,2E0,7E0,1.2E1,5.43E2,3.28E2,2E0,1E0,8E0,8E0,7.4E1,5.7E1,1.81E2,3.69E2,1.5E1,3E0,3.2E1,6E0,1E0,3E0,5E0,4E0,6E0,3.8E1,2E0,7.4E1,4E0,3E0,1.1E1,1E0,3.28E2,2.15E2,1.67E2,1.61E2,7E0,1E0,4E0,4E0,3.8E1,3.6E1,2.3E1,3.4E1,1.36E2,4.5E1,9.4E1,2.75E2,6E0,9E0,2E0,1E0,8E0,2.4E1,4E0,2E0],"tree_param":{"num_deleted":"0","num_feature":"5","num_nodes":"89","size_leaf_vector":"1"}},{"base_weights":[5.609289E-2,6.703714E-1,-7.8406155E-1,5.30989E-1,3.3030653E0,1.5199258E0,-9.69756E-1,9.826824E-1,-6.245265E-1,3.642292E-1,4.848207E0,6.8770146E-1,4.8812194E0,-1.1550596E0,1.2787087E0,6.765105E-1,1.2715706E1,-1.7629069E0,1.104054E0,2.3270848E0,-9.6179366E-1,3.7264597E0,8.642595E0,3.3629189E0,-1.6537437E0,-5.065964E0,-1.0610051E0,3.9114494E0,4.3336737E-1,-6.6781235E-1,1.6687379E0,1.09944725E1,5.4859834E0,6.1143494E-1,-3.980529E0,-7.7366096E-1,3.1735094E0,4.1388226E-1,-5.536211E0,8.310968E0,2.098368E0,2.7681584E0,7.702504E-1,-1.7047157E0,4.650676E0,5.814084E-1,-5.567316E0,-7.505567E0,-1.5563218E-1,2.3948448E0,-1.2541028E0,1.1319319E0,2.9647145E0,-4.3808045E0,1.6949608E0,1.801949E-2,-1.4804726E0,1.3623937E0,-4.08971E-2,5.1726665E0,3.330216E-1,-4.564684E-1,1.5792307E0,-1.39466E0,3.1790987E-1,3.406398E0,-3.53562E-1,-7.641013E-1,1.1077409E0,-1.3146763E-1,1.1053057E0,-2.4518757E0,3.5608664E-1,8.783913E-2,2.8795593E0,-3.8740608E-1,1.5092245E0,-1.4684492E0,3.3421484E-1,2.1584902E0,3.3973742E-1,8.591106E-1,-7.5787514E-1,-1.8871397E0,2.4962598E-1,-3.1623528E0,-1.4096129E0,6.162498E-1,-9.150457E-1,-1.3143969E-1,1.6827983E0,-2.6579237E-1,-6.5142393E-1,1.1318352E0,-3.7723008E-1,-1.5631815E0,3.3863956E-1,1.7692161E0,3.294109E-1],"categories":[],"categories_nodes":[],"categories_segments":[],"categories_sizes":[],"default_left":[0,0,0,0,0,0,0,0,0,0,0,0,0,0,0,0,0,0,0,0,0,0,0,0,0,0,0,0,0,0,0,0,0,0,0,0,0,0,0,0,0,0,0,0,0,0,0,0,0,0,0,0,0,0,0,0,0,0,0,0,0,0,0,0,0,0,0,0,0,0,0,0,0,0,0,0,0,0,0,0,0,0,0,0,0,0,0,0,0,0,0,0,0,0,0,0,0,0,0],"id":6,"left_children":[1,3,5,7,9,11,13,15,17,19,21,23,-1,25,27,29,31,33,35,-1,37,39,41,43,45,47,49,51,53,55,57,-1,59,61,63,65,67,69,71,73,75,-1,-1,77,79,81,83,85,87,89,91,93,-1,95,97,-1,-1,-1,-1,-1,-1,-1,-1,-1,-1,-1,-1,-1,-1,-1,-1,-1,-1,-1,-1,-1,-1,-1,-1,-1,-1,-1,-1,-1,-1,-1,-1,-1,-1,-1,-1,-1,-1,-1,-1,-1,-1,-1,-1],"loss_changes":[9.2742114E2,3.791415E2,3.262028E2,5.157672E2,2.3436188E2,6.8854144E2,2.9438092E2,2.5419463E3,5.489898E2,1.9371599E2,1.125094E2,3.5007455E2,0E0,2.3371967E2,1.184854E2,9.25489E2,2.9134092E3,8.8701984E2,4.3378424E2,0E0,1.09270905E2,1.9155258E2,1.1696167E0,1.7760095E2,2.6565976E2,1.7852075E2,4.274168E2,2.0456583E2,2.6251346E2,9.1654346E2,2.0695034E3,0E0,7.525237E2,8.2178754E2,2.979923E2,3.0310156E2,1.6674689E2,4.0629673E1,8.060899E1,6.945688E1,2.2517545E2,0E0,0E0,5.9406197E1,1.7983078E2,1.4908621E2,5.613916E1,3.5675293E1,4.4643345E1,3.120805E2,2.017019E2,6.784363E1,0E0,4.7028534E1,7.881452E1,0E0,0E0,0E0,0E0,0E0,0E0,0E0,0E0,0E0,0E0,0E0,0E0,0E0,0E0,0E0,0E0,0E0,0E0,0E0,0E0,0E0,0E0,0E0,0E0,0E0,0E0,0E0,0E0,0E0,0E0,0E0,0E0,0E0,0E0,0E0,0E0,0E0,0E0,0E0,0E0,0E0,0E0,0E0,0E0],"parents":[2147483647,0,0,1,1,2,2,3,3,4,4,5,5,6,6,7,7,8,8,9,9,10,10,11,11,13,13,14,14,15,15,16,16,17,17,18,18,20,20,21,21,22,22,23,23,24,24,25,25,26,26,27,27,28,28,29,29,30,30,32,32,33,33,34,34,35,35,36,36,37,37,38,38,39,39,40,40,43,43,44,44,45,45,46,46,47,47,48,48,49,49,50,50,51,51,53,53,54,54],"right_children":[2,4,6,8,10,12,14,16,18,20,22,24,-1,26,28,30,32,34,36,-1,38,40,42,44,46,48,50,52,54,56,58,-1,60,62,64,66,68,70,72,74,76,-1,-1,78,80,82,84,86,88,90,92,94,-1,96,98,-1,-1,-1,-1,-1,-1,-1,-1,-1,-1,-1,-1,-1,-1,-1,-1,-1,-1,-1,-1,-1,-1,-1,-1,-1,-1,-1,-1,-1,-1,-1,-1,-1,-1,-1,-1,-1,-1,-1,-1,-1,-1,-1,-1],"split_conditions":[2.4130075E2,2.6765001E1,1.2261158E1,1.8165E1,1.6115E1,1.224E1,1.2565E1,1.1714999E1,4E-1,9.915E0,8E-1,-1.5350001E0,4.8812194E0,-3.935E0,2.5338979E2,1.4584319E2,3E-1,1.5493867E2,2.1415E1,2.3270848E0,1.5514999E1,1.2979984E1,1.7902534E1,2.6497104E2,1.097262E1,1E-1,-6.185E0,2.512609E2,2.600171E2,1.2800398E2,3E-1,1.09944725E1,1.5865E1,2.3265001E1,2.3021748E2,8.615E0,1.1464999E1,1.7902534E1,1.5915E1,2.8165E1,1.5141414E1,2.7681584E0,7.702504E-1,-7.335E0,3.276903E2,2.7747238E2,2.1715E1,1.4182355E1,4E-1,3.1097968E2,3.1399936E2,1.3565E1,2.9647145E0,2.7315E1,2.0165E1,1.801949E-2,-1.4804726E0,1.3623937E0,-4.08971E-2,5.1726665E0,3.330216E-1,-4.564684E-1,1.5792307E0,-1.39466E0,3.1790987E-1,3.406398E0,-3.53562E-1,-7.641013E-1,1.1077409E0,-1.3146763E-1,1.1053057E0,-2.4518757E0,3.5608664E-1,8.783913E-2,2.8795593E0,-3.8740608E-1,1.5092245E0,-1.4684492E0,3.3421484E-1,2.1584902E0,3.3973742E-1,8.591106E-1,-7.5787514E-1,-1.8871397E0,2.4962598E-1,-3.1623528E0,-1.4096129E0,6.162498E-1,-9.150457E-1,-1.3143969E-1,1.6827983E0,-2.6579237E-1,-6.5142393E-1,1.1318352E0,-3.7723008E-1,-1.5631815E0,3.3863956E-1,1.7692161E0,3.294109E-1],"split_indices":[4,0,3,0,1,3,1,1,2,1,2,1,0,0,4,4,2,4,0,0,1,3,3,4,3,2,1,4,4,4,2,0,0,0,4,1,1,3,1,0,3,0,0,1,4,4,0,3,2,4,4,1,0,0,0,0,0,0,0,0,0,0,0,0,0,0,0,0,0,0,0,0,0,0,0,0,0,0,0,0,0,0,0,0,0,0,0,0,0,0,0,0,0,0,0,0,0,0,0],"split_type":[0,0,0,0,0,0,0,0,0,0,0,0,0,0,0,0,0,0,0,0,0,0,0,0,0,0,0,0,0,0,0,0,0,0,0,0,0,0,0,0,0,0,0,0,0,0,0,0,0,0,0,0,0,0,0,0,0,0,0,0,0,0,0,0,0,0,0,0,0,0,0,0,0,0,0,0,0,0,0,0,0,0,0,0,0,0,0,0,0,0,0,0,0,0,0,0,0,0,0],"sum_hessian":[1.795E3,1.037E3,7.58E2,9.86E2,5.1E1,5.6E1,7.02E2,7.09E2,2.77E2,1.8E1,3.3E1,5.4E1,2E0,6.49E2,5.3E1,6.92E2,1.7E1,1.67E2,1.1E2,2E0,1.6E1,2.7E1,6E0,2.5E1,2.9E1,1.4E1,6.35E2,1.2E1,4.1E1,2.94E2,3.98E2,3E0,1.4E1,8.1E1,8.6E1,5.8E1,5.2E1,1.3E1,3E0,6E0,2.1E1,5E0,1E0,5E0,2E1,1.9E1,1E1,9E0,5E0,3.3E1,6.02E2,9E0,3E0,8E0,3.3E1,2.52E2,4.2E1,1.53E2,2.45E2,3E0,1.1E1,5.6E1,2.5E1,7.6E1,1E1,1E0,5.7E1,4E0,4.8E1,1.1E1,2E0,2E0,1E0,1E0,5E0,1E1,1.1E1,2E0,3E0,1.1E1,9E0,1.1E1,8E0,9E0,1E0,3E0,6E0,3E0,2E0,1.8E1,1.5E1,4.31E2,1.71E2,4E0,5E0,7E0,1E0,3E0,3E1],"tree_param":{"num_deleted":"0","num_feature":"5","num_nodes":"99","size_leaf_vector":"1"}},{"base_weights":[5.8029205E-2,2.7938756E-1,-1.6518697E0,1.0704573E0,-9.806076E-2,-2.665571E0,5.3879356E-1,4.4988796E-1,3.9120922E0,-1.7396659E-1,3.3912706E0,-3.616105E0,1.0393279E-1,7.4739985E0,-1.4721076E0,-3.7569925E-1,1.4740313E0,8.320036E0,2.053131E-1,-2.1908179E-1,5.098778E0,-2.805998E0,5.743601E0,-2.926938E0,-7.886623E0,9.858284E0,-1.3771486E0,-1.1719723E0,8.565937E0,1.3587307E0,-4.355205E0,1.3110727E0,-2.9198048E0,9.05506E0,8.1580585E-1,1.691551E1,5.1053405E0,-3.221145E0,3.6238744E0,-1.9136012E-1,-2.9435039E0,6.952508E-1,1.8772821E0,3.3784613E-1,-3.2503598E0,1.0705774E1,1.1995014E0,-5.4422407E0,-1.8536032E0,-1.12190275E1,-4.7887287E0,-2.0473035E-1,4.990561E0,-2.6747422E0,3.0121741E0,3.2349443E0,1.3434795E1,6.7924275E0,-1.849471E-1,-1.2868214E0,-6.893332E0,3.0508733E-1,6.417193E0,-1.5738093E0,2.4168755E-1,5.0448804E0,-1.6168388E0,5.590462E-1,-3.9892483E-1,3.2780735E0,7.39915E0,-5.5437016E-1,3.1848238E0,-2.2388794E-2,-3.5253077E0,2.6784718E0,-7.4810565E-2,-7.011401E-2,1.599956E0,-6.303492E-2,3.758978E-1,9.642651E-1,-5.7116807E-1,4.3165097E0,-2.2608533E0,-1.1018349E0,2.0419028E0,-7.273596E-1,-2.5516734E0,1.5323849E-1,-1.1514372E0,-3.6894634E0,-8.734663E-1,-3.7131205E-1,-2.2146018E0,9.8431325E-1,-1.0764419E0,7.916458E-1,-1.1282372E0,1.9170235E0,-5.889748E-1,2.594892E0,-3.4682273E-3,4.352337E-1,4.557101E0,-2.9356006E-1,3.2767622E0,5.4533744E-1,-2.207345E0,-1.613249E0,3.3862683E-1,-2.168897E0,-3.7816745E-1],"categories":[],"categories_nodes":[],"categories_segments":[],"categories_sizes":[],"default_left":[0,0,0,0,0,0,0,0,0,0,0,0,0,0,0,0,0,0,0,0,0,0,0,0,0,0,0,0,0,0,0,0,0,0,0,0,0,0,0,0,0,0,0,0,0,0,0,0,0,0,0,0,0,0,0,0,0,0,0,0,0,0,0,0,0,0,0,0,0,0,0,0,0,0,0,0,0,0,0,0,0,0,0,0,0,0,0,0,0,0,0,0,0,0,0,0,0,0,0,0,0,0,0,0,0,0,0,0,0,0,0,0,0],"id":7,"left_children":[1,3,5,7,9,11,13,15,17,19,21,23,25,27,29,31,33,35,37,39,41,43,45,47,49,51,53,-1,55,57,59,61,63,65,67,69,71,73,75,77,-1,79,-1,81,-1,83,85,87,89,91,93,95,-1,97,99,101,103,105,107,109,111,-1,-1,-1,-1,-1,-1,-1,-1,-1,-1,-1,-1,-1,-1,-1,-1,-1,-1,-1,-1,-1,-1,-1,-1,-1,-1,-1,-1,-1,-1,-1,-1,-1,-1,-1,-1,-1,-1,-1,-1,-1,-1,-1,-1,-1,-1,-1,-1,-1,-1,-1,-1],"loss_changes":[6.8024817E2,4.7515845E2,4.58896E2,9.046439E2,2.8610968E2,3.715594E2,9.3143933E2,3.5820862E2,1.501505E3,2.5231932E2,3.5141095E2,2.859419E2,5.4811487E2,2.1986682E2,4.3031985E2,1.01228973E3,9.357279E2,1.0741775E3,6.090644E2,2.7680963E2,4.1575806E1,1.8034363E2,3.7048486E2,2.3829028E2,9.080322E1,3.443869E2,1.9601018E2,0E0,3.1992102E2,2.2772893E2,1.9361612E2,8.168563E2,8.1884827E2,1.7722347E3,3.9585315E2,2.4091797E2,1.245777E3,6.969475E2,5.363988E2,2.4599207E2,0E0,1.7781578E0,0E0,4.4807972E1,0E0,6.458542E2,2.9817944E2,2.289729E2,3.1164548E2,1.7984802E1,7.374228E1,4.7154247E1,0E0,1.5996442E2,1.4699733E2,1.407307E2,1.2523096E2,2.0325778E2,3.2941336E2,1.3452731E2,1.7408752E1,0E0,0E0,0E0,0E0,0E0,0E0,0E0,0E0,0E0,0E0,0E0,0E0,0E0,0E0,0E0,0E0,0E0,0E0,0E0,0E0,0E0,0E0,0E0,0E0,0E0,0E0,0E0,0E0,0E0,0E0,0E0,0E0,0E0,0E0,0E0,0E0,0E0,0E0,0E0,0E0,0E0,0E0,0E0,0E0,0E0,0E0,0E0,0E0,0E0,0E0,0E0,0E0],"parents":[2147483647,0,0,1,1,2,2,3,3,4,4,5,5,6,6,7,7,8,8,9,9,10,10,11,11,12,12,13,13,14,14,15,15,16,16,17,17,18,18,19,19,20,20,21,21,22,22,23,23,24,24,25,25,26,26,28,28,29,29,30,30,31,31,32,32,33,33,34,34,35,35,36,36,37,37,38,38,39,39,41,41,43,43,45,45,46,46,47,47,48,48,49,49,50,50,51,51,53,53,54,54,55,55,56,56,57,57,58,58,59,59,60,60],"right_children":[2,4,6,8,10,12,14,16,18,20,22,24,26,28,30,32,34,36,38,40,42,44,46,48,50,52,54,-1,56,58,60,62,64,66,68,70,72,74,76,78,-1,80,-1,82,-1,84,86,88,90,92,94,96,-1,98,100,102,104,106,108,110,112,-1,-1,-1,-1,-1,-1,-1,-1,-1,-1,-1,-1,-1,-1,-1,-1,-1,-1,-1,-1,-1,-1,-1,-1,-1,-1,-1,-1,-1,-1,-1,-1,-1,-1,-1,-1,-1,-1,-1,-1,-1,-1,-1,-1,-1,-1,-1,-1,-1,-1,-1,-1],"split_conditions":[2.4379204E1,1.6784444E2,2.9024128E1,1.4854324E2,2.3871555E1,1.4514999E1,2.9660152E1,6.765E0,6.015E0,1.44E1,-4.35E-1,1.1964999E1,1.4915E1,2.415E0,1.365E0,6.415E0,7.265E0,1.2096214E1,2.0915E1,1.3900001E1,1.8633232E2,4.265E0,4.165E0,-1.5350001E0,2.3756747E2,2.5478743E1,1.3365E1,-1.1719723E0,2.9354904E1,2E-1,6E-1,3.9650002E0,1.6595179E1,1.6039202E1,1.081073E2,1.1212135E1,1.6645864E1,1.9515001E1,2.4565E1,1.8365E1,-2.9435039E0,1.1964999E1,1.8772821E0,2.8294116E2,-3.2503598E0,1.1615E1,1.1464999E1,7.0000005E-1,2.5233417E2,1.1E0,1E-1,1.4615E1,4.990561E0,8.764999E0,2.3756747E2,7.015E0,1.6345096E2,3.1072817E1,3.2149185E2,2.4062433E2,1.0214999E1,3.0508733E-1,6.417193E0,-1.5738093E0,2.4168755E-1,5.0448804E0,-1.6168388E0,5.590462E-1,-3.9892483E-1,3.2780735E0,7.39915E0,-5.5437016E-1,3.1848238E0,-2.2388794E-2,-3.5253077E0,2.6784718E0,-7.4810565E-2,-7.011401E-2,1.599956E0,-6.303492E-2,3.758978E-1,9.642651E-1,-5.7116807E-1,4.3165097E0,-2.2608533E0,-1.1018349E0,2.0419028E0,-7.273596E-1,-2.5516734E0,1.5323849E-1,-1.1514372E0,-3.6894634E0,-8.734663E-1,-3.7131205E-1,-2.2146018E0,9.8431325E-1,-1.0764419E0,7.916458E-1,-1.1282372E0,1.9170235E0,-5.889748E-1,2.594892E0,-3.4682273E-3,4.352337E-1,4.557101E0,-2.9356006E-1,3.2767622E0,5.4533744E-1,-2.207345E0,-1.613249E0,3.3862683E-1,-2.168897E0,-3.7816745E-1],"split_indices":[3,4,3,4,3,0,3,1,1,2,1,0,0,0,1,0,1,3,0,2,4,0,1,1,4,3,1,0,3,2,2,1,3,3,4,3,3,0,0,1,0,0,0,4,0,0,1,2,4,2,2,0,0,1,4,0,4,3,4,4,1,0,0,0,0,0,0,0,0,0,0,0,0,0,0,0,0,0,0,0,0,0,0,0,0,0,0,0,0,0,0,0,0,0,0,0,0,0,0,0,0,0,0,0,0,0,0,0,0,0,0,0,0],"split_type":[0,0,0,0,0,0,0,0,0,0,0,0,0,0,0,0,0,0,0,0,0,0,0,0,0,0,0,0,0,0,0,0,0,0,0,0,0,0,0,0,0,0,0,0,0,0,0,0,0,0,0,0,0,0,0,0,0,0,0,0,0,0,0,0,0,0,0,0,0,0,0,0,0,0,0,0,0,0,0,0,0,0,0,0,0,0,0,0,0,0,0,0,0,0,0,0,0,0,0,0,0,0,0,0,0,0,0,0,0,0,0,0,0],"sum_hessian":[1.795E3,1.59E3,2.05E2,5.13E2,1.077E3,1.4E2,6.5E1,4.22E2,9.1E1,1.055E3,2.2E1,1.04E2,3.6E1,1.4E1,5.1E1,2.34E2,1.88E2,4.1E1,5E1,1.047E3,8E0,6E0,1.6E1,9.1E1,1.3E1,4E0,3.2E1,1E0,1.3E1,2.6E1,2.5E1,1.41E2,9.3E1,1.4E1,1.74E2,1E1,3.1E1,2.5E1,2.5E1,1.045E3,2E0,2E0,6E0,5E0,1E0,7E0,9E0,2.6E1,6.5E1,5E0,8E0,2E0,2E0,2.5E1,7E0,7E0,6E0,5E0,2.1E1,1.2E1,1.3E1,1.4E2,1E0,5.7E1,3.6E1,9E0,5E0,1.17E2,5.7E1,7E0,3E0,1.4E1,1.7E1,1.9E1,6E0,1E1,1.5E1,1.038E3,7E0,1E0,1E0,2E0,3E0,6E0,1E0,5E0,4E0,1.4E1,1.2E1,3E1,3.5E1,4E0,1E0,4E0,4E0,1E0,1E0,4E0,2.1E1,4E0,3E0,2E0,5E0,1E0,5E0,2E0,3E0,1.7E1,4E0,4E0,8E0,1.2E1,1E0],"tree_param":{"num_deleted":"0","num_feature":"5","num_nodes":"113","size_leaf_vector":"1"}},{"base_weights":[5.210821E-2,1.250655E0,-1.203448E-1,4.3802557E0,1.1875868E-1,-2.1669252E-1,2.6982877E0,1.4344668E0,9.403233E0,-6.976927E0,7.131145E-1,-1.9667694E-1,-4.593055E0,1.5510074E0,5.701548E0,4.274803E0,-1.7803504E0,1.5588272E1,4.755477E0,-9.556626E0,-2.3745058E0,4.175596E0,1.5132654E-2,-3.262112E0,-1.2851553E-1,4.344166E0,5.6825435E-1,2.5031066E0,2.676982E0,-1.0779738E0,7.0281897E0,6.254589E-1,-5.1665206E0,8.388274E-1,2.1518347E1,-1.8658854E0,6.078147E0,-4.361724E-1,-1.0506456E1,-1.2441142E0,7.803847E-1,1.15504E0,1.0827467E1,4.715972E0,-5.9286493E-1,-4.417206E0,-1.636755E-1,5.6978356E-2,-1.2630521E0,5.2570524E0,1.3852388E-1,3.543091E-2,1.6055565E0,-1.5216599E0,5.500499E0,8.3276826E-1,-8.475737E-1,7.890226E-1,3.3151739E0,-1.2888321E0,6.1181486E-1,3.0697548E-1,-1.8590858E0,1.8111511E0,7.022145E0,6.37408E-1,3.5936205E0,-3.6051242E0,-1.3459797E0,3.4339488E-1,7.778263E-3,-5.6804234E-1,2.4227204E0,4.6917728E-1,4.0963984E0,1.7812785E0,3.2556212E-1,-1.3352256E0,2.0556636E-1,-1.9125901E0,-4.570564E-1,1.8047308E0,-4.5560977E-1,7.650872E-1,-9.54793E-3,-5.819497E-1,7.983588E-2,9.316544E-1,1.9896636E0,1.4596424E-1,-1.8217072E0,4.728287E-1,-1.622239E0,4.2727032E-1,1.8490521E0],"categories":[],"categories_nodes":[],"categories_segments":[],"categories_sizes":[],"default_left":[0,0,0,0,0,0,0,0,0,0,0,0,0,0,0,0,0,0,0,0,0,0,0,0,0,0,0,0,0,0,0,0,0,0,0,0,0,0,0,0,0,0,0,0,0,0,0,0,0,0,0,0,0,0,0,0,0,0,0,0,0,0,0,0,0,0,0,0,0,0,0,0,0,0,0,0,0,0,0,0,0,0,0,0,0,0,0,0,0,0,0,0,0,0,0],"id":8,"left_children":[1,3,5,7,9,11,13,15,17,19,21,23,-1,25,27,29,31,33,35,37,39,41,43,45,47,49,51,-1,53,55,57,59,61,-1,63,-1,65,-1,67,-1,69,71,73,75,77,79,81,83,85,87,-1,89,-1,91,93,-1,-1,-1,-1,-1,-1,-1,-1,-1,-1,-1,-1,-1,-1,-1,-1,-1,-1,-1,-1,-1,-1,-1,-1,-1,-1,-1,-1,-1,-1,-1,-1,-1,-1,-1,-1,-1,-1,-1,-1],"loss_changes":[3.7137112E2,8.000586E2,4.2721933E2,8.743092E2,7.092748E2,4.5618845E2,1.7032706E2,3.6372595E2,5.5829456E2,1.3165497E2,3.7453293E2,3.1696732E2,0E0,1.04585815E2,8.954263E1,3.1707968E2,1.5801456E2,6.225598E2,2.4103378E2,4.629425E1,3.678934E1,5.0989496E2,3.7434882E2,1.17383514E2,3.1301053E2,3.301468E1,7.627481E1,0E0,1.0320937E2,6.1712624E1,2.1860919E2,9.226604E1,5.736615E1,0E0,3.4132324E1,0E0,2.7780893E2,0E0,9.740356E0,0E0,7.947887E-1,4.1615005E2,1.881637E2,6.008786E1,5.750123E2,1.2627365E2,9.286908E1,2.832749E2,2.1681302E2,3.073227E0,0E0,8.010355E1,0E0,5.6671753E1,4.7346954E0,0E0,0E0,0E0,0E0,0E0,0E0,0E0,0E0,0E0,0E0,0E0,0E0,0E0,0E0,0E0,0E0,0E0,0E0,0E0,0E0,0E0,0E0,0E0,0E0,0E0,0E0,0E0,0E0,0E0,0E0,0E0,0E0,0E0,0E0,0E0,0E0,0E0,0E0,0E0,0E0],"parents":[2147483647,0,0,1,1,2,2,3,3,4,4,5,5,6,6,7,7,8,8,9,9,10,10,11,11,13,13,14,14,15,15,16,16,17,17,18,18,19,19,20,20,21,21,22,22,23,23,24,24,25,25,26,26,28,28,29,29,30,30,31,31,32,32,34,34,36,36,38,38,40,40,41,41,42,42,43,43,44,44,45,45,46,46,47,47,48,48,49,49,51,51,53,53,54,54],"right_children":[2,4,6,8,10,12,14,16,18,20,22,24,-1,26,28,30,32,34,36,38,40,42,44,46,48,50,52,-1,54,56,58,60,62,-1,64,-1,66,-1,68,-1,70,72,74,76,78,80,82,84,86,88,-1,90,-1,92,94,-1,-1,-1,-1,-1,-1,-1,-1,-1,-1,-1,-1,-1,-1,-1,-1,-1,-1,-1,-1,-1,-1,-1,-1,-1,-1,-1,-1,-1,-1,-1,-1,-1,-1,-1,-1,-1,-1,-1,-1],"split_conditions":[1.2261158E1,-1.7349999E0,2.6765001E1,-4.235E0,2.115E0,1.9215E1,5E-1,-6.185E0,1.9534187E2,1.4408847E2,2.565E0,-3.385E0,-4.593055E0,8.66021E1,1.4458382E1,-9.985001E0,1.1165805E1,5.27217E1,2.152676E2,2.15E-1,1E-1,1.0714999E1,1.0014999E1,3E-1,2.4248611E1,2E-1,2.3068108E1,2.5031066E0,1.7815E1,-5.685E0,1.0685391E1,-5.6349998E0,-1.635E0,8.388274E-1,7.42159E0,-1.8658854E0,3.7150002E0,-4.361724E-1,1.2000002E0,-1.2441142E0,1.415E0,5E-1,9.605718E1,1.0483357E1,7.3650002E0,-9.185E0,-1.2835E1,-6.935E0,2.9024128E1,1.6179985E1,1.3852388E-1,1.8161278E1,1.6055565E0,1.6965E1,1.5111424E1,8.3276826E-1,-8.475737E-1,7.890226E-1,3.3151739E0,-1.2888321E0,6.1181486E-1,3.0697548E-1,-1.8590858E0,1.8111511E0,7.022145E0,6.37408E-1,3.5936205E0,-3.6051242E0,-1.3459797E0,3.4339488E-1,7.778263E-3,-5.6804234E-1,2.4227204E0,4.6917728E-1,4.0963984E0,1.7812785E0,3.2556212E-1,-1.3352256E0,2.0556636E-1,-1.9125901E0,-4.570564E-1,1.8047308E0,-4.5560977E-1,7.650872E-1,-9.54793E-3,-5.819497E-1,7.983588E-2,9.316544E-1,1.9896636E0,1.4596424E-1,-1.8217072E0,4.728287E-1,-1.622239E0,4.2727032E-1,1.8490521E0],"split_indices":[3,1,0,1,0,1,2,1,4,4,1,0,0,4,3,1,3,4,4,0,2,0,0,2,3,2,3,0,1,0,3,1,0,0,3,0,0,0,2,0,0,2,4,3,1,1,1,1,3,3,0,3,0,1,3,0,0,0,0,0,0,0,0,0,0,0,0,0,0,0,0,0,0,0,0,0,0,0,0,0,0,0,0,0,0,0,0,0,0,0,0,0,0,0,0],"split_type":[0,0,0,0,0,0,0,0,0,0,0,0,0,0,0,0,0,0,0,0,0,0,0,0,0,0,0,0,0,0,0,0,0,0,0,0,0,0,0,0,0,0,0,0,0,0,0,0,0,0,0,0,0,0,0,0,0,0,0,0,0,0,0,0,0,0,0,0,0,0,0,0,0,0,0,0,0,0,0,0,0,0,0,0,0,0,0,0,0,0,0,0,0,0,0],"sum_hessian":[1.795E3,2.25E2,1.57E3,5.9E1,1.66E2,1.519E3,5.1E1,3.8E1,2.1E1,1.2E1,1.54E2,1.518E3,1E0,3.8E1,1.3E1,2E1,1.8E1,8E0,1.3E1,7E0,5E0,2.5E1,1.29E2,3.2E1,1.486E3,9E0,2.9E1,6E0,7E0,7E0,1.3E1,1.1E1,7E0,3E0,5E0,1E0,1.2E1,1E0,6E0,3E0,2E0,1.8E1,7E0,1.4E1,1.15E2,2.3E1,9E0,1.278E3,2.08E2,7E0,2E0,2.7E1,2E0,3E0,4E0,2E0,5E0,7E0,6E0,2E0,9E0,1E0,6E0,1E0,4E0,8E0,4E0,4E0,2E0,1E0,1E0,1.3E1,5E0,2E0,5E0,1E1,4E0,2.8E1,8.7E1,1.3E1,1E1,1E0,8E0,4.3E1,1.235E3,1.44E2,6.4E1,4E0,3E0,2.6E1,1E0,2E0,1E0,1E0,3E0],"tree_param":{"num_deleted":"0","num_feature":"5","num_nodes":"95","size_leaf_vector":"1"}},{"base_weights":[4.5537308E-2,2.8291008E-1,-6.209128E-1,2.1885954E-1,4.0665007E0,3.2726774E-1,-1.3376709E0,8.2827127E-1,-1.7869224E-1,7.267628E0,-2.443926E0,9.159066E-2,6.9468093E0,-3.5895648E0,-6.0255975E-1,1.4268358E0,-7.852182E-1,-1.7701826E0,1.7880745E-1,1.1799952E1,1.8268504E0,-1.2081642E0,1.2958635E0,-5.4825788E0,2.9433855E-1,-6.9470835E-1,1.28516245E1,-4.0899515E0,1.5566752E0,6.7727337E0,-1.3966317E0,1.2084218E0,2.1437225E1,1.2914134E1,-1.938354E0,6.964034E-1,-4.902837E0,1.9885409E0,-5.1911724E-1,-1.0042595E0,1.4442097E1,-1.1503941E0,2.151717E0,3.7786847E-1,-2.044859E0,1.0425657E1,7.8361765E-2,-8.490593E-1,8.5676396E-1,6.6937923E-1,4.6943974E0,9.9626374E-1,-4.38737E0,1.22251215E1,-1.2496428E0,-3.729371E0,-7.8824836E-1,2.422038E-1,2.0277314E0,7.6952662E0,1.3194357E0,7.373259E0,8.214779E-1,-1.3387727E0,-5.9498187E-2,2.4948677E-2,3.0371053E0,7.3546946E-1,-1.7117717E0,3.7206197E-1,3.231919E0,-5.242493E-1,3.260972E-1,2.4239774E0,6.069506E0,2.7601922E-1,-1.0582621E0,1.3198844E-1,4.0822706E0,-2.7275792E-1,3.8920817E-1,-2.3731713E0,-1.1118932E0,4.4591084E0,-1.9354744E-1,6.9826907E-1,-7.8126335E-1,5.0512207E-1,-1.5018002E0,6.6074944E-1,-3.9837673E-1],"categories":[],"categories_nodes":[],"categories_segments":[],"categories_sizes":[],"default_left":[0,0,0,0,0,0,0,0,0,0,0,0,0,0,0,0,0,0,0,0,0,0,0,0,0,0,0,0,0,0,0,0,0,0,0,0,0,0,0,0,0,0,0,0,0,0,0,0,0,0,0,0,0,0,0,0,0,0,0,0,0,0,0,0,0,0,0,0,0,0,0,0,0,0,0,0,0,0,0,0,0,0,0,0,0,0,0,0,0,0,0],"id":9,"left_children":[1,3,5,7,9,11,13,15,17,19,21,23,25,27,29,31,33,35,37,39,41,-1,-1,43,45,47,49,51,-1,53,55,57,59,61,63,65,67,69,71,-1,73,75,-1,-1,-1,77,79,-1,-1,-1,-1,-1,81,83,85,87,89,-1,-1,-1,-1,-1,-1,-1,-1,-1,-1,-1,-1,-1,-1,-1,-1,-1,-1,-1,-1,-1,-1,-1,-1,-1,-1,-1,-1,-1,-1,-1,-1,-1,-1],"loss_changes":[2.8429767E2,3.2021182E2,3.2121655E2,3.1607166E2,4.7625708E2,3.1761884E2,4.4313757E2,4.9849576E2,4.497928E2,3.4833374E2,1.030639E2,2.2538365E2,3.2478036E2,3.111364E2,1.2041877E3,1.6174207E3,2.236642E3,1.1238236E3,8.1696747E2,3.6852026E2,1.3557089E2,0E0,0E0,7.152547E1,4.1930392E2,3.841168E1,8.387891E1,1.5342944E2,0E0,8.9009924E2,2.5961224E2,8.249325E2,1.7437244E2,1.2382382E3,5.701024E2,4.7321616E2,3.9197815E2,1.1699159E3,9.23249E2,0E0,9.4369995E1,3.277625E1,0E0,0E0,0E0,1.21107574E2,2.2870305E2,0E0,0E0,0E0,0E0,0E0,1.1705115E2,4.1709924E2,4.96716E1,2.710293E2,2.418009E2,0E0,0E0,0E0,0E0,0E0,0E0,0E0,0E0,0E0,0E0,0E0,0E0,0E0,0E0,0E0,0E0,0E0,0E0,0E0,0E0,0E0,0E0,0E0,0E0,0E0,0E0,0E0,0E0,0E0,0E0,0E0,0E0,0E0,0E0],"parents":[2147483647,0,0,1,1,2,2,3,3,4,4,5,5,6,6,7,7,8,8,9,9,10,10,11,11,12,12,13,13,14,14,15,15,16,16,17,17,18,18,19,19,20,20,23,23,24,24,25,25,26,26,27,27,29,29,30,30,31,31,32,32,33,33,34,34,35,35,36,36,37,37,38,38,40,40,41,41,45,45,46,46,52,52,53,53,54,54,55,55,56,56],"right_children":[2,4,6,8,10,12,14,16,18,20,22,24,26,28,30,32,34,36,38,40,42,-1,-1,44,46,48,50,52,-1,54,56,58,60,62,64,66,68,70,72,-1,74,76,-1,-1,-1,78,80,-1,-1,-1,-1,-1,82,84,86,88,90,-1,-1,-1,-1,-1,-1,-1,-1,-1,-1,-1,-1,-1,-1,-1,-1,-1,-1,-1,-1,-1,-1,-1,-1,-1,-1,-1,-1,-1,-1,-1,-1,-1,-1],"split_conditions":[2.7218826E2,2.6936902E2,-2.3500001E-1,1E-1,1.98E1,8.714999E0,2.115E0,1.0565E1,-1.0350001E0,5.3650002E0,7.0000005E-1,2.736651E2,-1.2349999E0,6.9000006E0,3.065E0,1.0464999E1,1.8815E1,2.415E0,8.514999E0,-3.35E-1,1.3014999E1,-1.2081642E0,1.2958635E0,-5.685E0,2.7529785E2,1.0615E1,1.6179985E1,2.015E0,1.5566752E0,3.0254428E2,1.2365E1,2.1715E1,1.8165E1,1.4033781E2,1.3264999E1,2.165E0,1.3202726E1,4.8650002E0,1.0915E1,-1.0042595E0,1.0214999E1,2.7102734E2,2.151717E0,3.7786847E-1,-2.044859E0,2.15E-1,3.2149185E2,-8.490593E-1,8.5676396E-1,6.6937923E-1,4.6943974E0,9.9626374E-1,1.5277749E1,2.1434364E1,3.0624265E2,1.4512064E1,6.265E0,2.422038E-1,2.0277314E0,7.6952662E0,1.3194357E0,7.373259E0,8.214779E-1,-1.3387727E0,-5.9498187E-2,2.4948677E-2,3.0371053E0,7.3546946E-1,-1.7117717E0,3.7206197E-1,3.231919E0,-5.242493E-1,3.260972E-1,2.4239774E0,6.069506E0,2.7601922E-1,-1.0582621E0,1.3198844E-1,4.0822706E0,-2.7275792E-1,3.8920817E-1,-2.3731713E0,-1.1118932E0,4.4591084E0,-1.9354744E-1,6.9826907E-1,-7.8126335E-1,5.0512207E-1,-1.5018002E0,6.6074944E-1,-3.9837673E-1],"split_indices":[4,4,1,2,3,0,1,1,1,1,2,4,1,2,1,1,0,0,0,0,1,0,0,0,4,0,3,0,0,4,0,0,0,4,1,0,3,1,1,0,0,4,0,0,0,0,4,0,0,0,0,0,3,3,4,3,1,0,0,0,0,0,0,0,0,0,0,0,0,0,0,0,0,0,0,0,0,0,0,0,0,0,0,0,0,0,0,0,0,0,0],"split_type":[0,0,0,0,0,0,0,0,0,0,0,0,0,0,0,0,0,0,0,0,0,0,0,0,0,0,0,0,0,0,0,0,0,0,0,0,0,0,0,0,0,0,0,0,0,0,0,0,0,0,0,0,0,0,0,0,0,0,0,0,0,0,0,0,0,0,0,0,0,0,0,0,0,0,0,0,0,0,0,0,0,0,0,0,0,0,0,0,0,0,0],"sum_hessian":[1.795E3,1.324E3,4.71E2,1.303E3,2.1E1,2.03E2,2.68E2,5.14E2,7.89E2,1.4E1,7E0,1.97E2,6E0,6.5E1,2.03E2,3.75E2,1.39E2,1.44E2,6.45E2,7E0,7E0,6E0,1E0,6E0,1.91E2,3E0,3E0,6.2E1,3E0,1.9E1,1.84E2,3.72E2,3E0,1E1,1.29E2,8.1E1,6.3E1,1.79E2,4.66E2,1E0,6E0,5E0,2E0,1E0,5E0,3E0,1.88E2,2E0,1E0,1E0,2E0,2E0,6E1,1.1E1,8E0,3.7E1,1.47E2,3.48E2,2.4E1,2E0,1E0,4E0,6E0,5.2E1,7.7E1,7.7E1,4E0,6E0,5.7E1,1.66E2,1.3E1,2.64E2,2.02E2,4E0,2E0,3E0,2E0,1E0,2E0,1.04E2,8.4E1,8E0,5.2E1,9E0,2E0,2E0,6E0,7E0,3E1,2.2E1,1.25E2],"tree_param":{"num_deleted":"0","num_feature":"5","num_nodes":"91","size_leaf_vector":"1"}},{"base_weights":[5.5857405E-2,2.699958E0,1.2455384E-2,3.218881E0,-2.870334E0,-1.03158E0,1.0078427E-1,2.1522994E0,2.2190492E0,-7.890701E-2,-1.2127433E0,-1.4294655E0,8.240416E-1,2.6704166E0,3.4501616E-2,-1.0854484E0,3.4491923E0,-3.1533034E0,-5.6017584E-1,6.5193353E0,-3.4074433E0,4.899757E0,-4.730514E0,-1.470307E0,1.3211495E-1,2.041872E0,-1.182422E0,-7.9497814E-1,4.4154415E0,3.053786E-1,-4.085798E0,8.785412E-1,-1.8448675E0,5.0603414E0,5.3018427E-1,-5.011734E0,2.257289E0,8.8000554E-1,1.1526009E1,-8.964459E0,-1.6353287E0,6.768273E0,-2.4950664E0,6.0026536E0,-8.611249E-3,9.2990494E-1,-1.697342E-1,6.7650604E-1,-1.491746E0,1.7123705E0,6.9227016E-1,-9.5664334E-1,1.1215478E0,-3.871995E-1,-1.4641125E0,3.5878174E-2,2.1329875E0,-1.3458683E0,6.390667E-2,-7.985027E-1,2.0211527E0,5.630459E-1,-1.7425759E0,2.4518585E-2,1.3175955E0,1.6277292E0,-1.123726E0,6.6456304E0,1.6567901E0,-3.4061399E0,-2.6946604E-1,1.1255836E0,-9.475596E-1,1.1313801E-1,3.6094124E0,-1.9447491E0,-5.1594004E-2,8.974026E-2,2.9372268E0,-5.9929824E-1,2.4289833E-2],"categories":[],"categories_nodes":[],"categories_segments":[],"categories_sizes":[],"default_left":[0,0,0,0,0,0,0,0,0,0,0,0,0,0,0,0,0,0,0,0,0,0,0,0,0,0,0,0,0,0,0,0,0,0,0,0,0,0,0,0,0,0,0,0,0,0,0,0,0,0,0,0,0,0,0,0,0,0,0,0,0,0,0,0,0,0,0,0,0,0,0,0,0,0,0,0,0,0,0,0,0],"id":10,"left_children":[1,3,5,7,9,11,13,-1,15,-1,-1,17,19,21,23,25,27,29,31,33,35,37,39,41,43,45,-1,47,49,51,53,55,57,-1,59,61,63,65,67,69,71,73,75,77,79,-1,-1,-1,-1,-1,-1,-1,-1,-1,-1,-1,-1,-1,-1,-1,-1,-1,-1,-1,-1,-1,-1,-1,-1,-1,-1,-1,-1,-1,-1,-1,-1,-1,-1,-1,-1],"loss_changes":[2.060741E2,9.306526E1,1.6314624E2,9.085901E1,8.105162E0,1.0306679E2,2.7770316E2,0E0,9.723904E1,0E0,0E0,1.6906424E2,6.24703E2,6.9964526E2,2.3389526E2,7.056832E1,7.322594E1,1.2380539E2,1.4394048E2,6.7282104E2,1.4763104E2,8.422053E2,1.1638861E2,8.358159E2,1.2351289E3,1.2787355E1,0E0,6.2178627E1,2.4969421E1,1.1988492E2,6.03295E1,1.7413441E2,2.2381642E2,0E0,1.7642694E2,7.6771576E1,1.821769E1,4.6190274E2,6.431709E2,6.689374E1,6.929203E1,3.6547232E2,8.047789E2,7.5326404E2,2.6047366E2,0E0,0E0,0E0,0E0,0E0,0E0,0E0,0E0,0E0,0E0,0E0,0E0,0E0,0E0,0E0,0E0,0E0,0E0,0E0,0E0,0E0,0E0,0E0,0E0,0E0,0E0,0E0,0E0,0E0,0E0,0E0,0E0,0E0,0E0,0E0,0E0],"parents":[2147483647,0,0,1,1,2,2,3,3,4,4,5,5,6,6,8,8,11,11,12,12,13,13,14,14,15,15,16,16,17,17,18,18,19,19,20,20,21,21,22,22,23,23,24,24,25,25,27,27,28,28,29,29,30,30,31,31,32,32,34,34,35,35,36,36,37,37,38,38,39,39,40,40,41,41,42,42,43,43,44,44],"right_children":[2,4,6,8,10,12,14,-1,16,-1,-1,18,20,22,24,26,28,30,32,34,36,38,40,42,44,46,-1,48,50,52,54,56,58,-1,60,62,64,66,68,70,72,74,76,78,80,-1,-1,-1,-1,-1,-1,-1,-1,-1,-1,-1,-1,-1,-1,-1,-1,-1,-1,-1,-1,-1,-1,-1,-1,-1,-1,-1,-1,-1,-1,-1,-1,-1,-1,-1,-1],"split_conditions":[8.669949E0,2.660146E2,5.022708E1,-2.835E0,-3.685E0,2.6E0,6.47989E1,2.1522994E0,6.15E-1,-7.890701E-2,-1.2127433E0,1.6998474E1,2.644823E1,1.8751125E1,9.605718E1,8.66021E1,5.469161E1,1.2620554E1,9.115E0,1.9171478E1,2.2963936E1,1.7015001E1,2.1868332E1,4.15E-1,1.10346886E2,2.865E0,-1.182422E0,9.315E0,1.5175465E2,1E-1,3.1250758E0,1.665E0,8.665E0,5.0603414E0,1.5400001E1,-7.1349998E0,1.0115E1,9.115E0,8.915E0,1.8165E1,2.3068108E1,-5.035E0,1.1915E1,1.3708391E1,1.3484451E2,9.2990494E-1,-1.697342E-1,6.7650604E-1,-1.491746E0,1.7123705E0,6.9227016E-1,-9.5664334E-1,1.1215478E0,-3.871995E-1,-1.4641125E0,3.5878174E-2,2.1329875E0,-1.3458683E0,6.390667E-2,-7.985027E-1,2.0211527E0,5.630459E-1,-1.7425759E0,2.4518585E-2,1.3175955E0,1.6277292E0,-1.123726E0,6.6456304E0,1.6567901E0,-3.4061399E0,-2.6946604E-1,1.1255836E0,-9.475596E-1,1.1313801E-1,3.6094124E0,-1.9447491E0,-5.1594004E-2,8.974026E-2,2.9372268E0,-5.9929824E-1,2.4289833E-2],"split_indices":[3,4,4,1,0,2,4,0,1,0,0,4,4,3,4,4,4,3,0,3,3,0,3,0,4,0,0,0,4,2,4,1,1,0,2,1,0,0,1,0,3,1,0,3,4,0,0,0,0,0,0,0,0,0,0,0,0,0,0,0,0,0,0,0,0,0,0,0,0,0,0,0,0,0,0,0,0,0,0,0,0],"split_type":[0,0,0,0,0,0,0,0,0,0,0,0,0,0,0,0,0,0,0,0,0,0,0,0,0,0,0,0,0,0,0,0,0,0,0,0,0,0,0,0,0,0,0,0,0,0,0,0,0,0,0,0,0,0,0,0,0,0,0,0,0,0,0,0,0,0,0,0,0,0,0,0,0,0,0,0,0,0,0,0,0],"sum_hessian":[1.795E3,2.8E1,1.767E3,2.6E1,2E0,1.37E2,1.63E3,4E0,2.2E1,1E0,1E0,1.13E2,2.4E1,4E1,1.59E3,6E0,1.6E1,3.7E1,7.6E1,1E1,1.4E1,3.1E1,9E0,9.6E1,1.494E3,3E0,3E0,3E0,1.3E1,8E0,2.9E1,3.6E1,4E1,3E0,7E0,1.1E1,3E0,2E1,1.1E1,3E0,6E0,1E1,8.6E1,3.4E1,1.46E3,2E0,1E0,2E0,1E0,7E0,6E0,4E0,4E0,7E0,2.2E1,3.3E1,3E0,1.7E1,2.3E1,5E0,2E0,1E0,1E1,2E0,1E0,1E1,1E1,3E0,8E0,2E0,1E0,1E0,5E0,5E0,5E0,3.1E1,5.5E1,1.4E1,2E1,6.2E1,1.398E3],"tree_param":{"num_deleted":"0","num_feature":"5","num_nodes":"81","size_leaf_vector":"1"}},{"base_weights":[4.8655294E-2,2.1335252E-1,-4.640149E-1,6.919706E-1,-1.0952086E-1,7.4547523E-1,-9.1896707E-1,1.2858902E0,-6.0286045E-1,-2.609339E0,1.22152925E-1,-1.0796489E0,3.3222418E0,-1.9762021E0,-3.734678E-1,7.797731E-1,8.069015E0,3.0018134E0,-1.605616E0,-4.1757984E0,5.017641E-1,9.070247E-1,-5.2484936E-1,-2.5192297E-1,-5.571615E0,3.6040537E0,2.305316E0,-3.8496583E0,-1.0252346E0,6.45796E0,-5.706285E-1,1.0864425E0,-9.786298E0,1.5592888E1,-6.543114E-1,-2.1403713E0,3.7631283E0,-4.146627E0,-2.6080343E-1,-6.618485E0,-1.4453516E0,2.027645E0,-5.7021127E0,3.6736956E-1,2.5807405E0,-2.1481683E0,2.149166E-2,-4.017688E0,1.0633849E0,-2.251869E0,-1.7488321E0,-4.2502858E-2,4.4592543E0,-7.8608484E0,-2.2214525E0,-4.2960826E-1,-3.7412324E0,1.1337295E1,-6.601418E-1,4.5169443E-1,-1.264161E0,-1.2034729E-1,7.9982215E-1,-1.0038724E0,-3.6204865E0,-3.0530956E0,5.507409E0,1.495506E0,-6.398484E-1,1.371232E0,-1.9933671E0,-2.0030196E0,2.1330398E-1,1.9872764E0,-2.2312178E-1,-8.6609626E-1,-2.7232883E0,9.603861E-1,-1.3983419E0,1.6371766E0,-1.1396781E0,-2.6140294E0,-2.3702697E-1,4.414341E-1,-3.8608608E-1,5.402935E-1,3.2034154E0,-3.071885E0,-3.2082373E-1,3.1069024E0,-4.47364E-2,4.7643474E-1,-1.3491848E0,4.5973697E-1,-9.2684823E-1,8.653496E-1,-1.0884869E0,-9.953833E-1,5.776787E-1,1.6448666E0,-1.3601438E0,-9.0493923E-1,-3.630582E0,-3.1748387E-1,-1.2279056E0,-6.6744494E-1,4.1383743E-1,8.2713205E-1,-1.353756E0,1.4069254E0,4.691989E0,9.4399804E-1,-5.528962E-1,-6.27169E-1,3.767476E-1],"categories":[],"categories_nodes":[],"categories_segments":[],"categories_sizes":[],"default_left":[0,0,0,0,0,0,0,0,0,0,0,0,0,0,0,0,0,0,0,0,0,0,0,0,0,0,0,0,0,0,0,0,0,0,0,0,0,0,0,0,0,0,0,0,0,0,0,0,0,0,0,0,0,0,0,0,0,0,0,0,0,0,0,0,0,0,0,0,0,0,0,0,0,0,0,0,0,0,0,0,0,0,0,0,0,0,0,0,0,0,0,0,0,0,0,0,0,0,0,0,0,0,0,0,0,0,0,0,0,0,0,0,0,0,0],"id":11,"left_children":[1,3,5,7,9,11,13,15,17,19,21,23,25,27,29,31,33,35,37,39,41,43,45,47,49,-1,51,53,55,57,59,61,63,65,67,-1,69,71,73,75,77,79,81,83,85,87,89,91,93,-1,95,97,99,101,103,105,107,109,-1,111,113,-1,-1,-1,-1,-1,-1,-1,-1,-1,-1,-1,-1,-1,-1,-1,-1,-1,-1,-1,-1,-1,-1,-1,-1,-1,-1,-1,-1,-1,-1,-1,-1,-1,-1,-1,-1,-1,-1,-1,-1,-1,-1,-1,-1,-1,-1,-1,-1,-1,-1,-1,-1,-1,-1],"loss_changes":[1.5174489E2,2.1024072E2,2.4114877E2,4.222012E2,4.711614E2,5.6793713E2,1.8265918E2,1.2845369E3,6.3014667E2,3.3836102E2,3.7879736E2,2.6258267E2,4.1422394E2,1.8846558E2,2.8787866E2,1.1479742E3,1.7166659E3,3.2009357E2,4.6365546E2,2.9723688E2,2.3875491E2,3.034402E2,3.627824E2,3.064139E2,6.822455E1,0E0,2.3281415E2,2.1765503E2,1.1648629E2,2.7843176E2,1.4662793E2,8.047215E2,1.06578125E2,1.1844326E3,1.1902419E2,0E0,3.3297644E2,5.8239325E2,3.041804E2,1.9402368E2,3.586016E2,4.2038913E2,6.7073944E1,4.6947784E2,4.9851508E2,8.8810547E2,5.42865E2,5.0158417E1,9.434241E1,0E0,5.400653E1,1.54656E2,2.4579297E2,1.6894977E2,5.4446228E1,2.0117569E2,7.759862E1,4.1061096E1,0E0,5.2526263E2,2.587756E2,0E0,0E0,0E0,0E0,0E0,0E0,0E0,0E0,0E0,0E0,0E0,0E0,0E0,0E0,0E0,0E0,0E0,0E0,0E0,0E0,0E0,0E0,0E0,0E0,0E0,0E0,0E0,0E0,0E0,0E0,0E0,0E0,0E0,0E0,0E0,0E0,0E0,0E0,0E0,0E0,0E0,0E0,0E0,0E0,0E0,0E0,0E0,0E0,0E0,0E0,0E0,0E0,0E0,0E0],"parents":[2147483647,0,0,1,1,2,2,3,3,4,4,5,5,6,6,7,7,8,8,9,9,10,10,11,11,12,12,13,13,14,14,15,15,16,16,17,17,18,18,19,19,20,20,21,21,22,22,23,23,24,24,26,26,27,27,28,28,29,29,30,30,31,31,32,32,33,33,34,34,36,36,37,37,38,38,39,39,40,40,41,41,42,42,43,43,44,44,45,45,46,46,47,47,48,48,50,50,51,51,52,52,53,53,54,54,55,55,56,56,57,57,59,59,60,60],"right_children":[2,4,6,8,10,12,14,16,18,20,22,24,26,28,30,32,34,36,38,40,42,44,46,48,50,-1,52,54,56,58,60,62,64,66,68,-1,70,72,74,76,78,80,82,84,86,88,90,92,94,-1,96,98,100,102,104,106,108,110,-1,112,114,-1,-1,-1,-1,-1,-1,-1,-1,-1,-1,-1,-1,-1,-1,-1,-1,-1,-1,-1,-1,-1,-1,-1,-1,-1,-1,-1,-1,-1,-1,-1,-1,-1,-1,-1,-1,-1,-1,-1,-1,-1,-1,-1,-1,-1,-1,-1,-1,-1,-1,-1,-1,-1,-1],"split_conditions":[2.760494E2,1E-1,-3.0349998E0,1.9765001E1,2E-1,3.15E-1,7.765E0,9.915E0,9.964999E0,1.8089775E1,1.8228018E2,-4.685E0,5.15E-1,2.9915E2,8.065E0,9.165E0,2.1064362E2,1.9108318E1,1.2565E1,2.0191493E2,8.214999E0,1.1065E1,6.65E-1,3.0053165E2,-3.635E0,3.6040537E0,-3.835E0,1.6203999E1,6.965E0,3.315E0,3.0624265E2,8.514999E0,1.5188415E1,1.5865E1,1.5365E1,-2.1403713E0,1.9652176E1,2.3415E1,1.0587918E1,1.2979984E1,2.2551726E2,2.3890446E2,1.4514999E1,8.514999E0,1.747423E2,1.9436745E2,8.15E-1,2.8021536E2,6E-1,-2.251869E0,2.788873E2,3.0856525E2,2.3E0,2.8797598E2,3.15E-1,-1.0350001E0,9.585739E0,5.65E-1,-6.601418E-1,7.515E0,3.4715088E2,-1.2034729E-1,7.9982215E-1,-1.0038724E0,-3.6204865E0,-3.0530956E0,5.507409E0,1.495506E0,-6.398484E-1,1.371232E0,-1.9933671E0,-2.0030196E0,2.1330398E-1,1.9872764E0,-2.2312178E-1,-8.6609626E-1,-2.7232883E0,9.603861E-1,-1.3983419E0,1.6371766E0,-1.1396781E0,-2.6140294E0,-2.3702697E-1,4.414341E-1,-3.8608608E-1,5.402935E-1,3.2034154E0,-3.071885E0,-3.2082373E-1,3.1069024E0,-4.47364E-2,4.7643474E-1,-1.3491848E0,4.5973697E-1,-9.2684823E-1,8.653496E-1,-1.0884869E0,-9.953833E-1,5.776787E-1,1.6448666E0,-1.3601438E0,-9.0493923E-1,-3.630582E0,-3.1748387E-1,-1.2279056E0,-6.6744494E-1,4.1383743E-1,8.2713205E-1,-1.353756E0,1.4069254E0,4.691989E0,9.4399804E-1,-5.528962E-1,-6.27169E-1,3.767476E-1],"split_indices":[4,2,1,0,2,0,0,1,1,3,4,1,0,4,0,1,4,4,1,4,1,1,1,4,1,0,1,3,0,1,4,0,3,0,0,0,3,0,3,3,4,4,0,0,4,4,1,4,2,0,4,4,2,4,1,1,3,1,0,1,4,0,0,0,0,0,0,0,0,0,0,0,0,0,0,0,0,0,0,0,0,0,0,0,0,0,0,0,0,0,0,0,0,0,0,0,0,0,0,0,0,0,0,0,0,0,0,0,0,0,0,0,0,0,0],"split_type":[0,0,0,0,0,0,0,0,0,0,0,0,0,0,0,0,0,0,0,0,0,0,0,0,0,0,0,0,0,0,0,0,0,0,0,0,0,0,0,0,0,0,0,0,0,0,0,0,0,0,0,0,0,0,0,0,0,0,0,0,0,0,0,0,0,0,0,0,0,0,0,0,0,0,0,0,0,0,0,0,0,0,0,0,0,0,0,0,0,0,0,0,0,0,0,0,0,0,0,0,0,0,0,0,0,0,0,0,0,0,0,0,0,0,0],"sum_hessian":[1.795E3,1.359E3,4.36E2,5.47E2,8.12E2,1.19E2,3.17E2,3.75E2,1.72E2,6.8E1,7.44E2,7E1,4.9E1,1.07E2,2.1E2,3.5E2,2.5E1,3.7E1,1.35E2,4.5E1,2.3E1,3.36E2,4.08E2,6E1,1E1,4E0,4.5E1,3.5E1,7.2E1,5E0,2.05E2,3.41E2,9E0,1.3E1,1.2E1,2E0,3.5E1,4.6E1,8.9E1,2.3E1,2.2E1,1.9E1,4E0,2.55E2,8.1E1,1.02E2,3.06E2,1.5E1,4.5E1,6E0,4E0,2.2E1,2.3E1,9E0,2.6E1,6E1,1.2E1,3E0,2E0,8.3E1,1.22E2,1.76E2,1.65E2,3E0,6E0,1E0,1.2E1,2E0,1E1,3.3E1,2E0,3E1,1.6E1,5E0,8.4E1,1E1,1.3E1,9E0,1.3E1,1.2E1,7E0,2E0,2E0,1.53E2,1.02E2,7.5E1,6E0,1.1E1,9.1E1,4E0,3.02E2,1E0,1.4E1,4.1E1,4E0,1E0,3E0,8E0,1.4E1,2.1E1,2E0,5E0,4E0,1.7E1,9E0,3E1,3E1,1E0,1.1E1,2E0,1E0,3.8E1,4.5E1,9.2E1,3E1],"tree_param":{"num_deleted":"0","num_feature":"5","num_nodes":"115","size_leaf_vector":"1"}},{"base_weights":[2.9626181E-2,-6.9958605E-3,1.986343E0,1.9454691E-1,-4.6175566E-1,1.3687716E-1,3.9428458E0,1.1196088E-1,6.8380113E0,-4.0068E0,-2.8258178E-1,-9.112843E-1,3.044354E0,1.9844676E0,2.796559E0,-1.4090595E0,2.6700854E-1,-4.8164496E-1,1.0546004E1,-6.2759E0,-2.1963692E0,6.265495E0,-3.9780793E-1,2.1222734E0,-1.9315522E0,2.3761655E-1,3.4094148E0,5.688614E0,-2.9388788E-1,-9.3774515E-1,-5.2585344E0,5.5916286E0,1.3265057E-1,1.2106688E0,-3.7491393E0,1.485129E1,3.2704606E0,-8.678638E0,-1.6568855E0,3.5280285E0,-3.7887707E0,1.120768E1,7.021141E-2,1.7264172E0,-5.5349225E-1,1.4583206E-1,7.5168806E-1,-1.1272645E-1,-5.0863156E0,1.1536223E0,3.152155E-1,2.2048337E0,-1.4320679E-1,-1.1707047E0,2.1607342E0,-3.376305E-1,1.6705812E0,-5.3947594E-2,-2.0794373E0,9.37792E-1,5.696296E0,-8.148861E-1,8.4166065E-2,-1.3073537E0,-2.8845292E-1,9.283894E-1,4.9751086E0,-1.9822854E0,3.6175156E0,-3.0836575E0,1.384017E-1,4.9921533E-1,-8.709398E-1,-3.0158186E-1,1.6122661E0,-1.6513621E0,4.343535E-1,-1.225071E0,4.8154154E0,-1.1820002E0,6.1732936E-1,7.61034E-1,-7.8393954E-1,-1.5414639E0,-1.24009E-1,-2.4893828E-1,4.0769538E-1,-2.02862E0,-8.859444E-3,-3.127041E-2,7.903725E-1],"categories":[],"categories_nodes":[],"categories_segments":[],"categories_sizes":[],"default_left":[0,0,0,0,0,0,0,0,0,0,0,0,0,0,0,0,0,0,0,0,0,0,0,0,0,0,0,0,0,0,0,0,0,0,0,0,0,0,0,0,0,0,0,0,0,0,0,0,0,0,0,0,0,0,0,0,0,0,0,0,0,0,0,0,0,0,0,0,0,0,0,0,0,0,0,0,0,0,0,0,0,0,0,0,0,0,0,0,0,0,0],"id":12,"left_children":[1,3,5,7,9,11,13,15,17,19,21,23,25,27,-1,29,31,33,35,37,39,41,43,45,47,-1,49,51,53,55,57,59,61,-1,63,65,67,69,71,73,75,77,79,81,83,-1,-1,85,87,-1,-1,-1,-1,-1,89,-1,-1,-1,-1,-1,-1,-1,-1,-1,-1,-1,-1,-1,-1,-1,-1,-1,-1,-1,-1,-1,-1,-1,-1,-1,-1,-1,-1,-1,-1,-1,-1,-1,-1,-1,-1],"loss_changes":[1.287134E2,1.617667E2,1.18870316E2,6.702424E2,3.43135E2,5.762936E1,1.5004749E2,2.854955E2,4.1219788E2,9.3025085E1,3.9257394E2,4.7429863E1,1.4106903E0,1.11383514E2,0E0,1.9827194E2,7.8477313E2,1.0368959E2,2.6466235E2,1.0770169E2,1.5921552E2,2.7477725E2,1.6928625E2,1.2909164E0,6.254426E1,0E0,7.305908E-2,5.4711487E1,8.814862E1,1.2960588E2,1.00708984E2,8.3245465E2,4.524668E2,0E0,2.5972824E0,7.08833E1,5.1371625E2,1.0712378E2,2.5524494E1,3.887993E1,1.24772415E2,4.3587842E2,4.796014E1,1.2971024E2,3.030408E2,0E0,0E0,9.570211E0,3.3695946E1,0E0,0E0,0E0,0E0,0E0,6.71402E0,0E0,0E0,0E0,0E0,0E0,0E0,0E0,0E0,0E0,0E0,0E0,0E0,0E0,0E0,0E0,0E0,0E0,0E0,0E0,0E0,0E0,0E0,0E0,0E0,0E0,0E0,0E0,0E0,0E0,0E0,0E0,0E0,0E0,0E0,0E0,0E0],"parents":[2147483647,0,0,1,1,2,2,3,3,4,4,5,5,6,6,7,7,8,8,9,9,10,10,11,11,12,12,13,13,15,15,16,16,17,17,18,18,19,19,20,20,21,21,22,22,23,23,24,24,26,26,27,27,28,28,29,29,30,30,31,31,32,32,34,34,35,35,36,36,37,37,38,38,39,39,40,40,41,41,42,42,43,43,44,44,47,47,48,48,54,54],"right_children":[2,4,6,8,10,12,14,16,18,20,22,24,26,28,-1,30,32,34,36,38,40,42,44,46,48,-1,50,52,54,56,58,60,62,-1,64,66,68,70,72,74,76,78,80,82,84,-1,-1,86,88,-1,-1,-1,-1,-1,90,-1,-1,-1,-1,-1,-1,-1,-1,-1,-1,-1,-1,-1,-1,-1,-1,-1,-1,-1,-1,-1,-1,-1,-1,-1,-1,-1,-1,-1,-1,-1,-1,-1,-1,-1,-1],"split_conditions":[2.8165E1,8.665E0,1.7415E1,8.514999E0,9.065E0,2.3423631E2,1.624394E1,5.469161E1,1.5014999E1,1.3608762E1,1.3165E1,1.5307991E2,1.4464999E1,1.2979984E1,2.796559E0,4.7629574E1,6.840926E1,2.270454E2,1.9765001E1,1.3484451E2,1.4917212E1,3.0000002E0,1.0685391E1,2.8515001E1,1.5514999E1,2.3761655E-1,1.5915E1,2.9465E1,1.337825E1,1.8699997E1,1.224E1,6.1150002E0,9.605718E1,1.2106688E0,1.4615E1,1.337825E1,2.1315E1,1.2000002E0,9.6932955E0,8.764999E0,2.5762997E2,7.5141365E1,7.5999985E0,1.4165E1,1.1525623E1,1.4583206E-1,7.5168806E-1,1.5115E1,2.9465E1,1.1536223E0,3.152155E-1,2.2048337E0,-1.4320679E-1,-1.1707047E0,4.62653E1,-3.376305E-1,1.6705812E0,-5.3947594E-2,-2.0794373E0,9.37792E-1,5.696296E0,-8.148861E-1,8.4166065E-2,-1.3073537E0,-2.8845292E-1,9.283894E-1,4.9751086E0,-1.9822854E0,3.6175156E0,-3.0836575E0,1.384017E-1,4.9921533E-1,-8.709398E-1,-3.0158186E-1,1.6122661E0,-1.6513621E0,4.343535E-1,-1.225071E0,4.8154154E0,-1.1820002E0,6.1732936E-1,7.61034E-1,-7.8393954E-1,-1.5414639E0,-1.24009E-1,-2.4893828E-1,4.0769538E-1,-2.02862E0,-8.859444E-3,-3.127041E-2,7.903725E-1],"split_indices":[0,1,1,1,1,4,3,4,0,3,0,4,1,3,0,4,4,4,0,4,3,2,3,0,1,0,1,0,3,2,3,1,4,0,0,3,0,2,3,1,4,4,2,1,3,0,0,1,0,0,0,0,0,0,4,0,0,0,0,0,0,0,0,0,0,0,0,0,0,0,0,0,0,0,0,0,0,0,0,0,0,0,0,0,0,0,0,0,0,0,0],"split_type":[0,0,0,0,0,0,0,0,0,0,0,0,0,0,0,0,0,0,0,0,0,0,0,0,0,0,0,0,0,0,0,0,0,0,0,0,0,0,0,0,0,0,0,0,0,0,0,0,0,0,0,0,0,0,0,0,0,0,0,0,0,0,0,0,0,0,0,0,0,0,0,0,0,0,0,0,0,0,0,0,0,0,0,0,0,0,0,0,0,0,0],"sum_hessian":[1.795E3,1.763E3,3.2E1,1.222E3,5.41E2,1.7E1,1.5E1,1.208E3,1.4E1,2.5E1,5.16E2,1.3E1,4E0,1.2E1,3E0,1.11E2,1.097E3,5E0,9E0,1E1,1.5E1,8E0,5.08E2,3E0,1E1,1E0,3E0,4E0,8E0,1E2,1.1E1,2.6E1,1.071E3,2E0,3E0,5E0,4E0,6E0,4E0,3E0,1.2E1,4E0,4E0,3.4E1,4.74E2,1E0,2E0,7E0,3E0,2E0,1E0,3E0,1E0,3E0,5E0,9.8E1,2E0,3E0,8E0,2.3E1,3E0,5.2E1,1.019E3,2E0,1E0,1E0,4E0,2E0,2E0,5E0,1E0,1E0,3E0,1E0,2E0,9E0,3E0,1E0,3E0,1E0,3E0,2.9E1,5E0,1.3E1,4.61E2,5E0,2E0,2E0,1E0,1E0,4E0],"tree_param":{"num_deleted":"0","num_feature":"5","num_nodes":"91","size_leaf_vector":"1"}},{"base_weights":[2.9392026E-2,1.52334E0,-1.3382322E-2,3.1372364E0,-8.707344E-2,-3.7299829E0,5.8602234E-3,2.2018123E0,3.838112E0,-3.0863283E0,2.3181353E0,-3.5114362E0,2.2064508E-1,-1.0460142E0,7.204056E-2,5.2493997E0,8.9431643E-1,8.6479E-1,-4.5683837E0,5.3752823E0,-1.0287783E0,2.5239322E0,-1.1075146E0,8.4142905E-1,-2.0727215E0,2.7163303E0,2.433612E-2,-1.4865647E-1,6.289473E0,-3.2604198E0,2.7430935E0,-6.435897E0,-1.4136913E0,1.9656967E0,1.2294413E0,1.1227788E0,-2.2450597E0,-8.553077E-1,1.3741285E0,-3.838368E-1,7.2359424E0,-3.3978274E0,1.4755417E-1,5.085319E0,1.6625278E-1,3.7792447E-1,-2.2836049E-1,2.2679756E0,7.497166E-1,2.1853925E-1,-1.2611668E0,1.2071536E0,-3.3263512E-2,-2.1423054E0,-4.3654433E-1,-1.1726512E0,4.6580544E-1,5.7149506E-1,-1.824646E-2,2.558135E-1,-8.7104213E-1,2.2471884E-1,-1.1628506E0,-1.7292272E-1,3.3858664E0,-5.8010924E-1,-2.0691032E0,-5.4772747E-1,9.0132385E-1,-8.5758823E-1,1.9582077E0,-7.551693E-1,1.0778087E0,2.3240535E0,9.3291104E-2,-1.0286248E-1,3.594458E-1],"categories":[],"categories_nodes":[],"categories_segments":[],"categories_sizes":[],"default_left":[0,0,0,0,0,0,0,0,0,0,0,0,0,0,0,0,0,0,0,0,0,0,0,0,0,0,0,0,0,0,0,0,0,0,0,0,0,0,0,0,0,0,0,0,0,0,0,0,0,0,0,0,0,0,0,0,0,0,0,0,0,0,0,0,0,0,0,0,0,0,0,0,0,0,0,0,0],"id":13,"left_children":[1,3,5,7,9,11,13,15,-1,17,19,-1,21,23,25,27,29,-1,31,33,35,37,-1,39,41,43,45,-1,47,49,51,53,55,-1,57,-1,59,-1,-1,61,63,65,67,69,71,73,75,-1,-1,-1,-1,-1,-1,-1,-1,-1,-1,-1,-1,-1,-1,-1,-1,-1,-1,-1,-1,-1,-1,-1,-1,-1,-1,-1,-1,-1,-1],"loss_changes":[1.1478954E2,1.3022519E2,1.2496179E2,1.9765303E2,1.9471422E2,2.8613196E2,1.2113306E2,9.093835E1,0E0,1.1932499E2,1.5901006E2,0E0,7.239667E1,2.0134279E2,2.0643222E2,4.494258E1,1.472049E2,0E0,4.9815918E1,3.098288E1,5.4829018E1,6.8326805E1,0E0,2.9267163E2,1.9762207E2,1.7434662E2,1.4385138E2,0E0,1.00004425E1,2.5642727E1,4.7964157E1,1.0680954E1,4.3076897E1,0E0,2.7307453E0,0E0,1.6753136E1,0E0,0E0,1.2951025E2,1.9635861E2,2.0184018E2,1.5205966E2,1.9049161E2,1.4696568E2,3.2864868E2,1.5380241E2,0E0,0E0,0E0,0E0,0E0,0E0,0E0,0E0,0E0,0E0,0E0,0E0,0E0,0E0,0E0,0E0,0E0,0E0,0E0,0E0,0E0,0E0,0E0,0E0,0E0,0E0,0E0,0E0,0E0,0E0],"parents":[2147483647,0,0,1,1,2,2,3,3,4,4,5,5,6,6,7,7,9,9,10,10,12,12,13,13,14,14,15,15,16,16,18,18,19,19,20,20,21,21,23,23,24,24,25,25,26,26,28,28,29,29,30,30,31,31,32,32,34,34,36,36,39,39,40,40,41,41,42,42,43,43,44,44,45,45,46,46],"right_children":[2,4,6,8,10,12,14,16,-1,18,20,-1,22,24,26,28,30,-1,32,34,36,38,-1,40,42,44,46,-1,48,50,52,54,56,-1,58,-1,60,-1,-1,62,64,66,68,70,72,74,76,-1,-1,-1,-1,-1,-1,-1,-1,-1,-1,-1,-1,-1,-1,-1,-1,-1,-1,-1,-1,-1,-1,-1,-1,-1,-1,-1,-1,-1,-1],"split_conditions":[9.360001E0,4.8650002E0,9.585739E0,1.1365E1,1.0915E1,4.065E0,-5.85E-1,-2.835E0,3.838112E0,1.0014999E1,2.2765001E1,-3.5114362E0,1.5665E1,1.3797913E1,-6.935E0,-1.0435E1,2.115E0,8.6479E-1,9.283539E1,1.3014999E1,7.9022964E1,7.5141365E1,-1.1075146E0,1.332E1,1.7651016E1,1E-1,2.0500949E2,-1.4865647E-1,1E-1,-1.35E-1,1.5175465E2,1.0615E1,1.5365E1,1.9656967E0,2.1515001E1,1.1227788E0,1.1565E1,-8.553077E-1,1.3741285E0,3.276903E2,-3.385E0,-1.7850001E0,-1.635E0,-1.35E-1,1.2000002E0,-2.3500001E-1,1.3464999E1,2.2679756E0,7.497166E-1,2.1853925E-1,-1.2611668E0,1.2071536E0,-3.3263512E-2,-2.1423054E0,-4.3654433E-1,-1.1726512E0,4.6580544E-1,5.7149506E-1,-1.824646E-2,2.558135E-1,-8.7104213E-1,2.2471884E-1,-1.1628506E0,-1.7292272E-1,3.3858664E0,-5.8010924E-1,-2.0691032E0,-5.4772747E-1,9.0132385E-1,-8.5758823E-1,1.9582077E0,-7.551693E-1,1.0778087E0,2.3240535E0,9.3291104E-2,-1.0286248E-1,3.594458E-1],"split_indices":[3,1,3,0,1,1,0,1,0,0,0,0,0,3,1,1,0,0,4,1,4,4,0,3,3,2,4,0,2,0,4,1,0,0,0,0,1,0,0,4,0,0,0,0,2,0,1,0,0,0,0,0,0,0,0,0,0,0,0,0,0,0,0,0,0,0,0,0,0,0,0,0,0,0,0,0,0],"split_type":[0,0,0,0,0,0,0,0,0,0,0,0,0,0,0,0,0,0,0,0,0,0,0,0,0,0,0,0,0,0,0,0,0,0,0,0,0,0,0,0,0,0,0,0,0,0,0,0,0,0,0,0,0,0,0,0,0,0,0,0,0,0,0,0,0,0,0,0,0,0,0,0,0,0,0,0,0],"sum_hessian":[1.795E3,4.9E1,1.746E3,2.4E1,2.5E1,8E0,1.738E3,2.3E1,1E0,1.1E1,1.4E1,2E0,6E0,1.02E2,1.636E3,6E0,1.7E1,2E0,9E0,7E0,7E0,4E0,2E0,3.6E1,6.6E1,2.8E1,1.608E3,1E0,5E0,5E0,1.2E1,5E0,4E0,5E0,2E0,1E0,6E0,1E0,3E0,3.1E1,5E0,4.1E1,2.5E1,1.4E1,1.4E1,6.7E2,9.38E2,3E0,2E0,1E0,4E0,8E0,4E0,4E0,1E0,2E0,2E0,1E0,1E0,1E0,5E0,2.4E1,7E0,2E0,3E0,3E1,1.1E1,1.5E1,1E1,2E0,1.2E1,8E0,6E0,5E0,6.65E2,8.69E2,6.9E1],"tree_param":{"num_deleted":"0","num_feature":"5","num_nodes":"77","size_leaf_vector":"1"}},{"base_weights":[2.470624E-2,1.3643132E-1,-4.077277E-1,7.2700955E-2,6.1349854E0,-7.369833E-1,2.1056285E0,3.0076167E-1,-4.328261E-1,-5.668758E-1,8.2985935E0,3.5061285E0,-9.522167E-1,7.3617415E0,8.791137E-1,-3.733728E-1,7.28226E-1,8.414822E0,-5.12821E-1,9.8851385E0,-1.3730096E0,2.6498985E-1,3.1750908E0,-3.1862612E0,-5.238728E-1,-2.3294576E-1,9.932128E0,-2.3400698E0,1.3499588E0,-1.585256E-1,-4.435818E0,1.0595008E0,-1.7809355E0,4.0694647E0,-1.0553038E0,-2.9178605E0,-1.2231641E-1,1.111403E0,1.3036364E1,1.1296316E0,-1.9559145E0,-5.406304E0,-1.2488595E0,-1.1715902E0,1.0559586E0,-2.9856464E-1,1.9373904E-1,5.849442E-1,4.03075E0,-1.9185396E0,1.7658477E0,-1.3705693E-1,1.4080043E0,-1.6289674E0,2.018624E0,3.565898E-1,-1.7245165E0,-6.469819E-1,1.4870352E0,-6.28981E-1,-2.4289842E0,-1.4279536E0,1.2107298E-3,6.5953314E-1,-3.224579E-1,4.655498E0,2.0024464E0,-1.3317151E0,4.910952E-1,1.6037991E0,-2.0054712E0,1.8511285E0,-7.1579736E-1,4.3552595E-1,-5.229487E-1,8.447418E-1,-4.9387807E-1,-4.338424E-2,1.2586222E0],"categories":[],"categories_nodes":[],"categories_segments":[],"categories_sizes":[],"default_left":[0,0,0,0,0,0,0,0,0,0,0,0,0,0,0,0,0,0,0,0,0,0,0,0,0,0,0,0,0,0,0,0,0,0,0,0,0,0,0,0,0,0,0,0,0,0,0,0,0,0,0,0,0,0,0,0,0,0,0,0,0,0,0,0,0,0,0,0,0,0,0,0,0,0,0,0,0,0,0],"id":14,"left_children":[1,3,5,7,9,11,13,15,17,-1,19,21,23,25,27,29,31,33,35,37,-1,39,-1,41,43,45,47,-1,49,51,53,55,57,-1,-1,59,61,63,65,-1,67,69,71,73,75,-1,-1,-1,-1,-1,77,-1,-1,-1,-1,-1,-1,-1,-1,-1,-1,-1,-1,-1,-1,-1,-1,-1,-1,-1,-1,-1,-1,-1,-1,-1,-1,-1,-1],"loss_changes":[8.6827065E1,5.454642E2,3.0691284E2,1.6315146E2,2.761114E2,3.0197437E2,2.7073633E2,2.8123618E2,3.1573257E2,0E0,2.9036804E2,3.642224E2,2.9689587E2,1.5848386E2,1.5764856E2,3.300899E2,4.9812637E2,2.9352924E2,4.1006433E2,2.8963953E2,0E0,1.0065483E2,0E0,2.0830405E2,2.7036093E2,2.652223E0,1.4160864E2,0E0,1.24031235E2,5.246784E2,2.4740576E2,4.7100537E2,1.8787132E2,0E0,0E0,2.4246301E2,2.2092683E2,1.1869246E1,2.2730713E1,0E0,7.8639885E1,3.5193896E2,2.5095035E2,2.8292395E2,3.7080847E2,0E0,0E0,0E0,0E0,0E0,1.5842044E2,0E0,0E0,0E0,0E0,0E0,0E0,0E0,0E0,0E0,0E0,0E0,0E0,0E0,0E0,0E0,0E0,0E0,0E0,0E0,0E0,0E0,0E0,0E0,0E0,0E0,0E0,0E0,0E0],"parents":[2147483647,0,0,1,1,2,2,3,3,4,4,5,5,6,6,7,7,8,8,10,10,11,11,12,12,13,13,14,14,15,15,16,16,17,17,18,18,19,19,21,21,23,23,24,24,25,25,26,26,28,28,29,29,30,30,31,31,32,32,35,35,36,36,37,37,38,38,40,40,41,41,42,42,43,43,44,44,50,50],"right_children":[2,4,6,8,10,12,14,16,18,-1,20,22,24,26,28,30,32,34,36,38,-1,40,-1,42,44,46,48,-1,50,52,54,56,58,-1,-1,60,62,64,66,-1,68,70,72,74,76,-1,-1,-1,-1,-1,78,-1,-1,-1,-1,-1,-1,-1,-1,-1,-1,-1,-1,-1,-1,-1,-1,-1,-1,-1,-1,-1,-1,-1,-1,-1,-1,-1,-1],"split_conditions":[2.5E0,2.3999999E0,1.3365E1,8.665E0,-6.85E-1,1.2261158E1,2.0015001E1,4.715E0,1.3165E1,-5.668758E-1,2.5867966E2,1.097262E1,1.5188415E1,4.7629574E1,2.7E0,4.415E0,3.1399936E2,9.565E0,9.714999E0,1.3896187E1,-1.3730096E0,8.669949E0,3.1750908E0,4.4E0,8.014999E0,1.6415E1,1.0948973E1,-2.3400698E0,6.627162E1,1.6E0,3.3659018E2,2.2E0,3.1614477E1,4.0694647E0,-1.0553038E0,9.615E0,1.5014999E1,9.615E0,2.0418695E1,1.1296316E0,4.6E0,1.0340668E2,5.4E0,2.9650002E0,7.1E0,-2.9856464E-1,1.9373904E-1,5.849442E-1,4.03075E0,-1.9185396E0,1.5764999E1,-1.3705693E-1,1.4080043E0,-1.6289674E0,2.018624E0,3.565898E-1,-1.7245165E0,-6.469819E-1,1.4870352E0,-6.28981E-1,-2.4289842E0,-1.4279536E0,1.2107298E-3,6.5953314E-1,-3.224579E-1,4.655498E0,2.0024464E0,-1.3317151E0,4.910952E-1,1.6037991E0,-2.0054712E0,1.8511285E0,-7.1579736E-1,4.3552595E-1,-5.229487E-1,8.447418E-1,-4.9387807E-1,-4.338424E-2,1.2586222E0],"split_indices":[2,2,1,1,1,3,0,0,0,0,4,3,3,4,2,0,4,1,1,3,0,3,0,2,1,0,3,0,4,2,4,2,3,0,0,1,0,1,3,0,2,4,2,0,2,0,0,0,0,0,1,0,0,0,0,0,0,0,0,0,0,0,0,0,0,0,0,0,0,0,0,0,0,0,0,0,0,0,0],"split_type":[0,0,0,0,0,0,0,0,0,0,0,0,0,0,0,0,0,0,0,0,0,0,0,0,0,0,0,0,0,0,0,0,0,0,0,0,0,0,0,0,0,0,0,0,0,0,0,0,0,0,0,0,0,0,0,0,0,0,0,0,0,0,0,0,0,0,0,0,0,0,0,0,0,0,0,0,0,0,0],"sum_hessian":[1.795E3,1.427E3,3.68E2,1.413E3,1.4E1,3.26E2,4.2E1,9.74E2,4.39E2,3E0,1.1E1,1.5E1,3.11E2,7E0,3.5E1,3.78E2,5.96E2,3E0,4.36E2,1E1,1E0,1.1E1,4E0,4.9E1,2.62E2,2E0,5E0,1E0,3.4E1,3.6E2,1.8E1,5.27E2,6.9E1,2E0,1E0,6E1,3.76E2,3E0,7E0,4E0,7E0,2.2E1,2.7E1,1.86E2,7.6E1,1E0,1E0,2E0,3E0,1E0,3.3E1,3.4E2,2E1,1.7E1,1E0,5.18E2,9E0,6.6E1,3E0,5.3E1,7E0,9E0,3.67E2,2E0,1E0,4E0,3E0,4E0,3E0,2E0,2E1,3E0,2.4E1,3.3E1,1.53E2,4.6E1,3E1,1.9E1,1.4E1],"tree_param":{"num_deleted":"0","num_feature":"5","num_nodes":"79","size_leaf_vector":"1"}},{"base_weights":[2.3221878E-2,-5.2499205E-1,1.2525034E-1,-1.7053412E-1,-3.2888656E0,5.8245935E0,6.821143E-2,-4.6339914E-1,6.2613754E0,4.10682E0,-4.492064E0,-4.299412E0,1.3051642E1,9.131513E-1,-3.257739E-2,7.5231366E-2,-2.4715369E0,1.0448131E1,3.3853257E0,2.4982176E0,-4.4480744E-1,-6.3582163E0,-4.9716902E-1,9.718907E-1,-2.3888874E0,7.59347E-1,1.4050308E1,2.4522846E0,-9.54751E-1,-4.5538917E-1,2.9576004E-1,-6.856027E-1,2.069207E0,4.2185054E0,-3.290422E0,5.1646274E-1,3.834944E0,1.1276375E0,2.0316782E0,-6.6730847E0,-1.0358792E-1,3.325925E0,-1.8686832E0,4.4852777E0,1.1618998E0,5.635149E-1,4.70472E0,-2.7818651E0,5.482636E-2,3.7609506E0,-6.262218E-1,2.8122618E0,-1.877475E-2,-3.6522543E-1,8.2119167E-1,1.5578882E0,-4.12326E-1,3.4951603E-1,2.0650818E0,-2.374083E0,-4.8339513E-1,6.5875256E-1,-2.017542E-1,-6.789199E-1,-2.2212653E0,1.3351576E0,1.6150875E-1,-9.715751E-1,-3.630985E-1,7.5612444E-1,-4.739819E-1,3.9751086E-2,2.4235272E0,3.656493E-2,-1.5838495E0,5.182961E-1,-8.4876007E-1,-3.1739715E-2,4.4203124E0,-3.3089716E0,-1.0836774E-1,-1.775572E0,1.262683E0,-2.1768663E0,1.3878106E-2],"categories":[],"categories_nodes":[],"categories_segments":[],"categories_sizes":[],"default_left":[0,0,0,0,0,0,0,0,0,0,0,0,0,0,0,0,0,0,0,0,0,0,0,0,0,0,0,0,0,0,0,0,0,0,0,0,0,0,0,0,0,0,0,0,0,0,0,0,0,0,0,0,0,0,0,0,0,0,0,0,0,0,0,0,0,0,0,0,0,0,0,0,0,0,0,0,0,0,0,0,0,0,0,0,0],"id":15,"left_children":[1,3,5,7,9,11,13,15,17,19,21,23,25,27,29,31,33,35,37,-1,-1,39,41,-1,-1,-1,43,45,47,49,51,53,55,57,59,-1,-1,61,-1,63,-1,65,67,-1,-1,69,71,73,75,77,79,81,83,-1,-1,-1,-1,-1,-1,-1,-1,-1,-1,-1,-1,-1,-1,-1,-1,-1,-1,-1,-1,-1,-1,-1,-1,-1,-1,-1,-1,-1,-1,-1,-1],"loss_changes":[1.0052217E2,2.7570807E2,4.9210535E2,4.757055E2,3.031994E2,1.1536146E3,1.27855644E2,2.608622E2,9.708414E1,1.303016E2,2.0558112E2,2.1913461E2,5.8994507E1,4.6233334E2,1.8643774E2,2.9118182E2,2.932778E2,5.9500122E1,5.353647E1,0E0,0E0,3.366815E1,5.8649384E1,0E0,0E0,0E0,1.5421753E1,3.7173004E2,1.3480927E2,4.2516443E2,5.984475E2,2.5636176E2,5.772605E2,4.0806763E1,3.443383E2,0E0,0E0,1.3014311E1,0E0,4.1281372E1,0E0,7.0086823E0,3.2952938E0,0E0,0E0,2.0951385E2,6.159417E2,1.892084E2,2.3646283E2,9.7748303E2,1.5536836E3,1.0492233E3,3.1710873E2,0E0,0E0,0E0,0E0,0E0,0E0,0E0,0E0,0E0,0E0,0E0,0E0,0E0,0E0,0E0,0E0,0E0,0E0,0E0,0E0,0E0,0E0,0E0,0E0,0E0,0E0,0E0,0E0,0E0,0E0,0E0,0E0],"parents":[2147483647,0,0,1,1,2,2,3,3,4,4,5,5,6,6,7,7,8,8,9,9,10,10,11,11,12,12,13,13,14,14,15,15,16,16,17,17,18,18,21,21,22,22,26,26,27,27,28,28,29,29,30,30,31,31,32,32,33,33,34,34,37,37,39,39,41,41,42,42,45,45,46,46,47,47,48,48,49,49,50,50,51,51,52,52],"right_children":[2,4,6,8,10,12,14,16,18,20,22,24,26,28,30,32,34,36,38,-1,-1,40,42,-1,-1,-1,44,46,48,50,52,54,56,58,60,-1,-1,62,-1,64,-1,66,68,-1,-1,70,72,74,76,78,80,82,84,-1,-1,-1,-1,-1,-1,-1,-1,-1,-1,-1,-1,-1,-1,-1,-1,-1,-1,-1,-1,-1,-1,-1,-1,-1,-1,-1,-1,-1,-1,-1,-1],"split_conditions":[9.605718E1,6.5E0,1.0340668E2,3.4999998E0,1.4453668E1,1.3246826E1,1.2261158E1,7.9022964E1,4.7999997E0,5.265E0,1.3900001E1,2.865E0,2.565E0,1.4915E1,2.4650002E0,5.7574085E1,2.15E-1,7.9932976E0,5.7574085E1,2.4982176E0,-4.4480744E-1,2.3762726E1,1.4693999E1,9.718907E-1,-2.3888874E0,7.59347E-1,9.299999E0,1.1165805E1,2.0365E1,1.2800398E2,9.165E0,1.1464999E1,8.065E0,-5.035E0,8.714999E0,5.1646274E-1,3.834944E0,4.7629574E1,2.0316782E0,1.3202726E1,-1.0358792E-1,1.5464999E1,3.065E0,4.4852777E0,1.1618998E0,9.885262E0,2.365E0,1.0948973E1,1.4014999E1,-1.35E-1,1.4408847E2,1.4336861E1,1.081073E2,-3.6522543E-1,8.2119167E-1,1.5578882E0,-4.12326E-1,3.4951603E-1,2.0650818E0,-2.374083E0,-4.8339513E-1,6.5875256E-1,-2.017542E-1,-6.789199E-1,-2.2212653E0,1.3351576E0,1.6150875E-1,-9.715751E-1,-3.630985E-1,7.5612444E-1,-4.739819E-1,3.9751086E-2,2.4235272E0,3.656493E-2,-1.5838495E0,5.182961E-1,-8.4876007E-1,-3.1739715E-2,4.4203124E0,-3.3089716E0,-1.0836774E-1,-1.775572E0,1.262683E0,-2.1768663E0,1.3878106E-2],"split_indices":[4,2,4,2,4,3,3,4,2,0,2,1,0,0,1,4,0,3,4,0,0,3,3,0,0,0,2,3,0,4,0,1,1,1,0,0,0,4,0,3,0,0,0,0,0,3,0,3,1,1,4,3,4,0,0,0,0,0,0,0,0,0,0,0,0,0,0,0,0,0,0,0,0,0,0,0,0,0,0,0,0,0,0,0,0],"split_type":[0,0,0,0,0,0,0,0,0,0,0,0,0,0,0,0,0,0,0,0,0,0,0,0,0,0,0,0,0,0,0,0,0,0,0,0,0,0,0,0,0,0,0,0,0,0,0,0,0,0,0,0,0,0,0,0,0,0,0,0,0,0,0,0,0,0,0,0,0,0,0,0,0,0,0,0,0,0,0,0,0,0,0,0,0],"sum_hessian":[1.795E3,2.81E2,1.514E3,2.5E2,3.1E1,1.4E1,1.5E3,2.4E2,1E1,4E0,2.7E1,6E0,8E0,1.59E2,1.341E3,1.9E2,5E1,3E0,7E0,2E0,2E0,1.8E1,9E0,2E0,4E0,1E0,7E0,8.7E1,7.2E1,5.86E2,7.55E2,1.38E2,5.2E1,5E0,4.5E1,1E0,2E0,5E0,2E0,1.7E1,1E0,2E0,7E0,6E0,1E0,4.8E1,3.9E1,2.5E1,4.7E1,2.2E1,5.64E2,8.3E1,6.72E2,1.2E2,1.8E1,2.7E1,2.5E1,3E0,2E0,1.1E1,3.4E1,3E0,2E0,3E0,1.4E1,1E0,1E0,1E0,6E0,2.5E1,2.3E1,1.7E1,2.2E1,1.2E1,1.3E1,3E1,1.7E1,1.7E1,5E0,1.3E1,5.51E2,1.1E1,7.2E1,5E0,6.67E2],"tree_param":{"num_deleted":"0","num_feature":"5","num_nodes":"85","size_leaf_vector":"1"}},{"base_weights":[2.2582244E-2,-5.3891423E-3,1.5170957E0,4.5896333E-1,-1.0900391E-1,8.629852E-2,3.0319242E0,1.6203418E-1,5.77556E0,-3.1871831E0,-4.1394174E-2,-6.6819817E-1,2.1816297E0,1.5009186E0,2.1749134E0,1.2931311E0,-2.3645344E-1,-1.8730702E0,-4.4483643E0,5.197399E0,-7.1172945E-2,1.8773222E0,-1.5330967E0,1.4579374E-1,2.4840474E0,4.473171E0,-3.171016E-1,2.9828959E0,-2.0006777E-1,-7.0080786E0,1.5759824E-1,-3.5547643E0,2.2590015E0,8.64339E0,-3.4270484E0,-4.3641186E0,-4.3485045E-2,1.07700355E-1,6.791287E-1,-1.0703063E-1,-4.0019546E0,8.5245043E-1,2.117529E-1,1.7016945E0,-4.851036E-2,-8.943863E-1,1.5118726E0,1.2358449E0,2.4685765E-2,-2.12752E-1,3.3300867E0,-2.4272013E0,-7.648733E-1,-5.5344887E-2,6.030323E-1,-2.1702585E0,-3.5949624E-1,-5.164925E-1,8.915361E-1,3.8999712E0,9.6454716E-1,-1.6978174E0,1.5564567E-1,-1.805376E0,2.8483745E-1,-2.688013E-1,3.1127777E-2,-2.2487661E-1,3.641287E-1,-1.5849234E0,-2.378769E-2,-1.6393375E-1,6.0984766E-1],"categories":[],"categories_nodes":[],"categories_segments":[],"categories_sizes":[],"default_left":[0,0,0,0,0,0,0,0,0,0,0,0,0,0,0,0,0,0,0,0,0,0,0,0,0,0,0,0,0,0,0,0,0,0,0,0,0,0,0,0,0,0,0,0,0,0,0,0,0,0,0,0,0,0,0,0,0,0,0,0,0,0,0,0,0,0,0,0,0,0,0,0,0],"id":16,"left_children":[1,3,5,7,9,11,13,15,-1,17,19,21,23,25,-1,27,29,31,-1,33,35,37,39,-1,41,43,45,47,49,51,53,55,57,59,61,63,65,-1,-1,67,69,-1,-1,-1,-1,-1,71,-1,-1,-1,-1,-1,-1,-1,-1,-1,-1,-1,-1,-1,-1,-1,-1,-1,-1,-1,-1,-1,-1,-1,-1,-1,-1],"loss_changes":[7.508747E1,8.492272E1,7.126295E1,1.7936921E3,3.0017786E2,2.9914326E1,9.2438065E1,1.436373E2,0E0,4.464392E2,2.2080475E2,3.3700752E1,1.356781E0,7.166546E1,0E0,2.100186E2,6.308398E2,2.0954776E2,0E0,2.6737943E2,1.6693109E2,1.5342655E0,3.8299965E1,0E0,5.3685E-1,2.8706589E1,4.8361874E1,1.2823602E2,2.6676038E2,4.2119873E1,1.4232155E2,1.7340887E2,3.0652454E1,1.00092316E2,2.9361782E1,8.480217E1,1.7558194E2,0E0,0E0,7.6993113E0,1.9682747E1,0E0,0E0,0E0,0E0,0E0,7.544551E0,0E0,0E0,0E0,0E0,0E0,0E0,0E0,0E0,0E0,0E0,0E0,0E0,0E0,0E0,0E0,0E0,0E0,0E0,0E0,0E0,0E0,0E0,0E0,0E0,0E0,0E0],"parents":[2147483647,0,0,1,1,2,2,3,3,4,4,5,5,6,6,7,7,9,9,10,10,11,11,12,12,13,13,15,15,16,16,17,17,19,19,20,20,21,21,22,22,24,24,25,25,26,26,27,27,28,28,29,29,30,30,31,31,32,32,33,33,34,34,35,35,36,36,39,39,40,40,46,46],"right_children":[2,4,6,8,10,12,14,16,-1,18,20,22,24,26,-1,28,30,32,-1,34,36,38,40,-1,42,44,46,48,50,52,54,56,58,60,62,64,66,-1,-1,68,70,-1,-1,-1,-1,-1,72,-1,-1,-1,-1,-1,-1,-1,-1,-1,-1,-1,-1,-1,-1,-1,-1,-1,-1,-1,-1,-1,-1,-1,-1,-1,-1],"split_conditions":[2.8165E1,-2.385E0,1.7415E1,8.865E0,-2.0349998E0,2.3423631E2,1.624394E1,1.6475424E2,5.77556E0,1.1165E1,-1.9849999E0,1.5307991E2,1.4464999E1,1.2979984E1,2.1749134E0,1.5277749E1,1.9862555E2,6.1150002E0,-4.4483643E0,1.9534187E2,-1.885E0,2.8515001E1,1.5514999E1,1.4579374E-1,1.5915E1,2.9465E1,1.337825E1,1.115E0,6.965E0,4.915E0,3.3659018E2,1.7057314E1,1.1592894E1,1.2096214E1,1.315E0,2.736651E2,9.605718E1,1.07700355E-1,6.791287E-1,1.5115E1,2.9465E1,8.5245043E-1,2.117529E-1,1.7016945E0,-4.851036E-2,-8.943863E-1,4.62653E1,1.2358449E0,2.4685765E-2,-2.12752E-1,3.3300867E0,-2.4272013E0,-7.648733E-1,-5.5344887E-2,6.030323E-1,-2.1702585E0,-3.5949624E-1,-5.164925E-1,8.915361E-1,3.8999712E0,9.6454716E-1,-1.6978174E0,1.5564567E-1,-1.805376E0,2.8483745E-1,-2.688013E-1,3.1127777E-2,-2.2487661E-1,3.641287E-1,-1.5849234E0,-2.378769E-2,-1.6393375E-1,6.0984766E-1],"split_indices":[0,1,1,0,1,4,3,4,0,0,1,4,1,3,0,3,4,0,0,4,1,0,1,0,1,0,3,0,0,0,4,3,3,3,0,4,4,0,0,1,0,0,0,0,0,0,4,0,0,0,0,0,0,0,0,0,0,0,0,0,0,0,0,0,0,0,0,0,0,0,0,0,0],"split_type":[0,0,0,0,0,0,0,0,0,0,0,0,0,0,0,0,0,0,0,0,0,0,0,0,0,0,0,0,0,0,0,0,0,0,0,0,0,0,0,0,0,0,0,0,0,0,0,0,0,0,0,0,0,0,0,0,0,0,0,0,0,0,0,0,0,0,0,0,0,0,0,0,0],"sum_hessian":[1.795E3,1.763E3,3.2E1,3.21E2,1.442E3,1.7E1,1.5E1,3.17E2,4E0,3E1,1.412E3,1.3E1,4E0,1.2E1,3E0,8.2E1,2.35E2,2.8E1,2E0,7E0,1.405E3,3E0,1E1,1E0,3E0,4E0,8E0,3.8E1,4.4E1,1.2E1,2.23E2,2E1,8E0,5E0,2E0,8E0,1.397E3,1E0,2E0,7E0,3E0,2E0,1E0,3E0,1E0,3E0,5E0,2.7E1,1.1E1,4.3E1,1E0,9E0,3E0,1.89E2,3.4E1,7E0,1.3E1,1E0,7E0,2E0,3E0,1E0,1E0,6E0,2E0,2.05E2,1.192E3,5E0,2E0,2E0,1E0,1E0,4E0],"tree_param":{"num_deleted":"0","num_feature":"5","num_nodes":"73","size_leaf_vector":"1"}},{"base_weights":[1.9358225E-2,8.516054E-2,-4.7007942E-1,5.515097E-2,2.692929E0,-6.506666E-1,3.2609067E0,-5.249386E-2,6.62472E-1,3.4588144E0,-2.5571194E-1,1.5961517E0,-9.733851E-1,5.4496045E0,-1.3845406E0,3.2695036E-2,-2.8776717E0,-1.976075E0,1.056319E0,2.00462E0,2.4489243E0,-4.2412803E-1,8.401106E0,-3.0991354E0,-6.712339E-1,2.0853136E0,1.1306692E0,-2.552749E0,3.180127E-1,-3.705004E0,6.469036E-2,1.547158E0,-3.893952E0,1.3803747E0,-2.836838E0,9.486155E0,8.424304E-1,8.0498356E-1,1.47547E0,6.7325866E-1,-1.2211252E0,2.942103E-1,2.906714E0,-3.909946E0,1.5269992E0,1.9369231E0,-1.1528212E0,5.35199E-1,-2.6397802E-2,-2.055768E-1,-9.431603E-1,-4.199138E-2,-1.5073186E0,7.783833E-2,-1.4635132E-1,-8.272019E-2,8.08812E-1,-1.6664526E0,-6.8806386E-1,8.2947606E-1,-1.0390346E0,-6.201925E-1,-1.9080124E0,7.393429E-1,4.003735E0,9.02757E-3,5.620465E-1,6.0064834E-1,-3.5760856E-1,-8.864238E-2,2.4259486E0,-8.866175E-1,-2.0252035E0,2.0225527E-2,8.858613E-1,1.1884737E0,-4.4886556E-1,-4.0820202E-1,6.872806E-1],"categories":[],"categories_nodes":[],"categories_segments":[],"categories_sizes":[],"default_left":[0,0,0,0,0,0,0,0,0,0,0,0,0,0,0,0,0,0,0,0,0,0,0,0,0,0,0,0,0,0,0,0,0,0,0,0,0,0,0,0,0,0,0,0,0,0,0,0,0,0,0,0,0,0,0,0,0,0,0,0,0,0,0,0,0,0,0,0,0,0,0,0,0,0,0,0,0,0,0],"id":17,"left_children":[1,3,5,7,9,11,13,15,17,19,-1,21,23,25,27,29,31,33,35,-1,37,39,41,43,45,-1,47,49,-1,51,53,55,57,59,61,63,65,67,-1,69,-1,-1,-1,71,73,75,77,-1,-1,-1,-1,-1,-1,-1,-1,-1,-1,-1,-1,-1,-1,-1,-1,-1,-1,-1,-1,-1,-1,-1,-1,-1,-1,-1,-1,-1,-1,-1,-1],"loss_changes":[5.7882244E1,1.2381218E2,1.4563438E2,1.0247735E2,5.18235E1,1.4947198E2,1.0922E2,3.2067154E2,2.4733478E2,3.2463074E1,0E0,3.6100882E2,1.1289111E2,3.7533035E1,1.412915E1,1.549877E2,1.814024E2,9.347824E1,3.6343604E2,0E0,4.8813072E1,8.6769615E1,4.784021E1,8.849072E1,2.0068964E2,0E0,2.545534E0,1.1573753E0,0E0,5.103711E1,1.3830592E2,1.749769E1,7.231888E1,5.652161E1,5.463205E1,1.026149E2,1.6913239E2,2.3903635E1,0E0,1.2447399E2,0E0,0E0,0E0,3.157013E1,8.125622E0,1.7970062E2,9.903339E1,0E0,0E0,0E0,0E0,0E0,0E0,0E0,0E0,0E0,0E0,0E0,0E0,0E0,0E0,0E0,0E0,0E0,0E0,0E0,0E0,0E0,0E0,0E0,0E0,0E0,0E0,0E0,0E0,0E0,0E0,0E0,0E0],"parents":[2147483647,0,0,1,1,2,2,3,3,4,4,5,5,6,6,7,7,8,8,9,9,11,11,12,12,13,13,14,14,15,15,16,16,17,17,18,18,20,20,21,21,22,22,23,23,24,24,26,26,27,27,29,29,30,30,31,31,32,32,33,33,34,34,35,35,36,36,37,37,39,39,43,43,44,44,45,45,46,46],"right_children":[2,4,6,8,10,12,14,16,18,20,-1,22,24,26,28,30,32,34,36,-1,38,40,42,44,46,-1,48,50,-1,52,54,56,58,60,62,64,66,68,-1,70,-1,-1,-1,72,74,76,78,-1,-1,-1,-1,-1,-1,-1,-1,-1,-1,-1,-1,-1,-1,-1,-1,-1,-1,-1,-1,-1,-1,-1,-1,-1,-1,-1,-1,-1,-1,-1,-1],"split_conditions":[2.4248611E1,1.44E1,1.3365E1,2.109305E1,2.2771244E1,3.065E0,2.3844862E2,2.0674158E1,8.952481E1,5.65E-1,-2.5571194E-1,-9.35E-1,4.915E0,2.7315E1,2.5282152E1,7.5946145E0,9.15E-1,2.1322214E1,1.081073E2,2.00462E0,1.8633232E2,3.2887317E2,1E-1,6.3E0,6.215E0,2.0853136E0,2.8515001E1,2.0365E1,3.180127E-1,1.3004922E1,1.0565E1,2.0746122E1,2.0898611E1,1.8E0,8.1320404E1,2.1288757E1,2.5420792E2,1.98E1,1.47547E0,3.2487103E2,-1.2211252E0,2.942103E-1,2.906714E0,3.3000002E0,3.565E0,6.15E-1,3.2487103E2,5.35199E-1,-2.6397802E-2,-2.055768E-1,-9.431603E-1,-4.199138E-2,-1.5073186E0,7.783833E-2,-1.4635132E-1,-8.272019E-2,8.08812E-1,-1.6664526E0,-6.8806386E-1,8.2947606E-1,-1.0390346E0,-6.201925E-1,-1.9080124E0,7.393429E-1,4.003735E0,9.02757E-3,5.620465E-1,6.0064834E-1,-3.5760856E-1,-8.864238E-2,2.4259486E0,-8.866175E-1,-2.0252035E0,2.0225527E-2,8.858613E-1,1.1884737E0,-4.4886556E-1,-4.0820202E-1,6.872806E-1],"split_indices":[3,2,1,3,3,0,4,3,4,1,0,1,0,0,3,4,0,3,4,0,4,4,2,2,0,0,0,0,0,3,1,3,3,2,4,3,4,3,0,4,0,0,0,2,0,1,4,0,0,0,0,0,0,0,0,0,0,0,0,0,0,0,0,0,0,0,0,0,0,0,0,0,0,0,0,0,0,0,0],"split_type":[0,0,0,0,0,0,0,0,0,0,0,0,0,0,0,0,0,0,0,0,0,0,0,0,0,0,0,0,0,0,0,0,0,0,0,0,0,0,0,0,0,0,0,0,0,0,0,0,0,0,0,0,0,0,0,0,0,0,0,0,0,0,0,0,0,0,0,0,0,0,0,0,0,0,0,0,0,0,0],"sum_hessian":[1.795E3,1.583E3,2.12E2,1.566E3,1.7E1,2.03E2,9E0,1.331E3,2.35E2,1.4E1,3E0,2.5E1,1.78E2,6E0,3E0,1.293E3,3.8E1,3E1,2.05E2,2E0,1.2E1,2E1,5E0,2.1E1,1.57E2,4E0,2E0,2E0,1E0,1E1,1.283E3,7E0,3.1E1,6E0,2.4E1,4E0,2.01E2,8E0,4E0,1.6E1,4E0,1E0,4E0,1.8E1,3E0,2.4E1,1.33E2,1E0,1E0,1E0,1E0,3E0,7E0,9.49E2,3.34E2,3E0,4E0,1.4E1,1.7E1,5E0,1E0,2.1E1,3E0,2E0,2E0,1.13E2,8.8E1,5E0,3E0,1.5E1,1E0,1.5E1,3E0,2E0,1E0,1.5E1,9E0,1.26E2,7E0],"tree_param":{"num_deleted":"0","num_feature":"5","num_nodes":"79","size_leaf_vector":"1"}},{"base_weights":[1.7944066E-2,2.8508374E-1,-1.1265275E-1,-4.3272844E-1,8.51944E-1,-1.3070292E0,-3.7970785E-2,2.414037E0,-1.00532E0,3.6634283E0,2.763256E-1,-6.2849708E0,2.5537127E-1,2.3033106E0,-1.1442102E-1,1.0170295E0,5.66713E0,-2.108326E0,9.237194E-1,-8.826436E-1,6.41629E0,-5.199859E0,8.447435E-1,-7.5681925E0,2.1369874E0,5.256354E0,-2.1202354E0,5.281214E0,-2.7534816E0,-5.242143E0,-7.6853715E-2,-3.4518287E-1,3.6489968E0,7.5360556E0,-4.2196655E-1,-6.861482E-1,-4.2039437E0,4.2615743E0,-4.9789885E-1,5.9671897E-1,-6.03182E0,2.4718769E0,1.2156346E1,-6.934217E0,6.0726633E0,3.4505334E-2,2.92772E0,-6.4347476E-1,-8.189738E0,3.571633E0,3.1328397E0,-9.535832E0,-4.318164E-1,-1.291063E0,1.141339E1,-5.9681664E0,1.3137983E0,-3.519424E0,9.9770087E-1,2.580392E0,-1.1864827E-1,-7.608727E-1,1.3453113E-1,1.7789816E0,-8.22361E-2,3.0119706E-2,2.5053253E0,1.0383964E0,-8.6105084E-1,-1.7149988E0,2.1270944E-2,1.0416046E0,-1.5073704E0,-5.002697E-1,1.7728925E0,-5.634799E-1,1.0477043E0,5.275268E-1,-1.172655E0,-2.8889291E0,-1.2698098E-1,6.1275496E0,1.9329946E-1,6.39025E0,7.906136E-1,-2.7400389E0,8.429286E-1,4.347825E0,-4.6948472E-1,1.9768652E-1,-9.3915707E-1,2.342755E0,4.703714E-1,-2.6855855E0,-7.23292E-1,2.807905E0,5.2958056E-3,-3.4072344E0,2.0907898E-1,5.3315973E-1,-1.2784827E0,2.2207901E0,-1.1310197E0,5.139021E0,1.4648683E0,-1.0029889E-1,-2.0175717E0,-5.7676077E-1,1.266505E0,-4.3398932E-1,1.6162543E0,2.0097223E-1,1.5641865E0,-2.3686986E-2,-7.361593E-1],"categories":[],"categories_nodes":[],"categories_segments":[],"categories_sizes":[],"default_left":[0,0,0,0,0,0,0,0,0,0,0,0,0,0,0,0,0,0,0,0,0,0,0,0,0,0,0,0,0,0,0,0,0,0,0,0,0,0,0,0,0,0,0,0,0,0,0,0,0,0,0,0,0,0,0,0,0,0,0,0,0,0,0,0,0,0,0,0,0,0,0,0,0,0,0,0,0,0,0,0,0,0,0,0,0,0,0,0,0,0,0,0,0,0,0,0,0,0,0,0,0,0,0,0,0,0,0,0,0,0,0,0,0,0,0],"id":18,"left_children":[1,3,5,7,9,11,13,15,17,19,21,23,25,27,29,31,33,35,37,39,41,43,45,47,-1,49,51,53,55,57,59,61,63,65,67,69,71,73,75,77,79,81,83,85,87,89,91,-1,93,-1,95,97,99,101,103,105,107,-1,109,111,113,-1,-1,-1,-1,-1,-1,-1,-1,-1,-1,-1,-1,-1,-1,-1,-1,-1,-1,-1,-1,-1,-1,-1,-1,-1,-1,-1,-1,-1,-1,-1,-1,-1,-1,-1,-1,-1,-1,-1,-1,-1,-1,-1,-1,-1,-1,-1,-1,-1,-1,-1,-1,-1,-1],"loss_changes":[6.2690228E1,2.4043922E2,1.07612816E2,4.2786572E2,5.330406E2,5.538102E2,2.0377689E2,1.9419858E2,4.657953E2,7.064868E2,8.604019E2,3.4640863E2,6.6456494E2,5.566527E2,2.1188055E2,1.1598912E2,1.5112079E2,4.1138293E2,3.8173425E2,1.7118427E2,7.623915E2,5.5042426E2,4.218258E2,3.636676E1,0E0,2.1685199E2,4.7166638E2,9.416895E2,1.908913E2,3.356407E2,1.2191509E2,3.939245E1,1.0005792E2,5.9764282E1,4.796288E1,3.2030737E2,3.7019342E2,2.4437354E2,3.205159E2,1.0108785E2,9.682024E1,7.086693E2,1.1627651E3,5.185393E2,2.7991785E2,3.597915E2,