{"learner":{"attributes":{"scikit_learn":"{\"_estimator_type\": \"regressor\"}"},"feature_names":["temperature_2m_max","temperature_2m_min","precipitation_sum","wind_speed_10m_max","wind_direction_10m_dominant"],"feature_types":["float","float","float","float","float"],"gradient_booster":{"model":{"gbtree_model_param":{"num_parallel_tree":"1","num_trees":"100"},"iteration_indptr":[0,1,2,3,4,5,6,7,8,9,10,11,12,13,14,15,16,17,18,19,20,21,22,23,24,25,26,27,28,29,30,31,32,33,34,35,36,37,38,39,40,41,42,43,44,45,46,47,48,49,50,51,52,53,54,55,56,57,58,59,60,61,62,63,64,65,66,67,68,69,70,71,72,73,74,75,76,77,78,79,80,81,82,83,84,85,86,87,88,89,90,91,92,93,94,95,96,97,98,99,100],"tree_info":[0,0,0,0,0,0,0,0,0,0,0,0,0,0,0,0,0,0,0,0,0,0,0,0,0,0,0,0,0,0,0,0,0,0,0,0,0,0,0,0,0,0,0,0,0,0,0,0,0,0,0,0,0,0,0,0,0,0,0,0,0,0,0,0,0,0,0,0,0,0,0,0,0,0,0,0,0,0,0,0,0,0,0,0,0,0,0,0,0,0,0,0,0,0,0,0,0,0,0,0],"trees":[{"base_weights":[-3.653379E-7,2.232595E0,-4.3348203E0,1.5640405E0,1.6253325E1,2.3873646E0,-6.664858E0,5.3542333E0,-2.9607704E-1,2.0033527E1,3.6845384E0,7.304047E0,-3.753121E-1,-7.0358953E0,4.1845384E0,7.860705E0,3.2952064E-1,6.863865E-1,-4.6158047E0,5.941812E0,2.3210901E1,-1.6309233E-1,1.5825436E0,3.4781795E0,3.173628E0,-3.0233245E0,5.298628E0,-3.4055936E0,-8.349958E0,5.825436E-1,1.6369077E0,3.1723545E0,1.496214E1,4.7413816E0,-5.4651837E0,-4.923791E0,1.8792758E0,2.1090099E-1,-5.7377715E0,2.3869078E0,2.8690767E-1,7.42818E0,2.0869079E0,1.177556E0,-3.1309235E-1,-4.519327E0,3.1369078E0,3.8053615E0,-1.6698258E0,-7.637191E-2,-4.5116973E0,-9.119701E0,-4.509619E0,1.4747505E0,-9.9791163E-1,5.3577085E0,1.2781795E0,-1.4609478E0,2.4219837E0,-2.089942E0,-5.009478E-1,-8.870482E-1,-2.2735662E0,1.0602227E0,-4.562825E-1,-1.1718206E0,3.7369077E0,-8.2327527E-1,-2.0747302E0,-6.835662E-1,-2.1224442E0,-1.2130923E0,-1.9638492E-2,-5.7182056E-1,1.0825436E0,-1.2182055E-1,-1.7307982E0,-1.3092328E-2,-2.78263E0,-1.5241705E0,4.3690768E-1],"categories":[],"categories_nodes":[],"categories_segments":[],"categories_sizes":[],"default_left":[0,0,0,0,0,0,0,0,0,0,0,0,0,0,0,0,0,0,0,0,0,0,0,0,0,0,0,0,0,0,0,0,0,0,0,0,0,0,0,0,0,0,0,0,0,0,0,0,0,0,0,0,0,0,0,0,0,0,0,0,0,0,0,0,0,0,0,0,0,0,0,0,0,0,0,0,0,0,0,0,0],"id":0,"left_children":[1,3,5,7,9,11,13,15,17,19,21,23,25,27,29,31,33,35,37,39,41,-1,-1,-1,43,45,47,49,51,-1,-1,53,55,57,59,61,63,65,67,-1,-1,-1,-1,-1,-1,69,-1,-1,71,73,75,77,79,-1,-1,-1,-1,-1,-1,-1,-1,-1,-1,-1,-1,-1,-1,-1,-1,-1,-1,-1,-1,-1,-1,-1,-1,-1,-1,-1,-1],"loss_changes":[3.9001929E3,2.467962E3,2.1617344E3,1.7993873E3,4.9633643E2,4.9173666E2,4.4004688E2,1.0553308E3,7.331319E2,2.6505664E2,2.9769272E1,1.9355237E2,3.766114E2,4.438379E2,8.141632E-1,1.8169998E3,7.6730994E2,9.5287036E2,1.7450299E2,2.2521156E1,4.08374E0,0E0,0E0,0E0,2.9452682E1,3.9007162E2,4.3292792E2,1.02764465E2,1.7171094E2,0E0,0E0,4.1291605E2,6.0593604E2,5.837157E2,6.244034E1,1.08137146E2,6.6369666E2,4.0155463E2,7.270654E1,0E0,0E0,0E0,0E0,0E0,0E0,7.549991E1,0E0,0E0,1.8777618E1,6.081527E1,1.0608783E2,8.2987305E1,5.5086914E1,0E0,0E0,0E0,0E0,0E0,0E0,0E0,0E0,0E0,0E0,0E0,0E0,0E0,0E0,0E0,0E0,0E0,0E0,0E0,0E0,0E0,0E0,0E0,0E0,0E0,0E0,0E0,0E0],"parents":[2147483647,0,0,1,1,2,2,3,3,4,4,5,5,6,6,7,7,8,8,9,9,10,10,11,11,12,12,13,13,14,14,15,15,16,16,17,17,18,18,19,19,20,20,24,24,25,25,26,26,27,27,28,28,31,31,32,32,33,33,34,34,35,35,36,36,37,37,38,38,45,45,48,48,49,49,50,50,51,51,52,52],"right_children":[2,4,6,8,10,12,14,16,18,20,22,24,26,28,30,32,34,36,38,40,42,-1,-1,-1,44,46,48,50,52,-1,-1,54,56,58,60,62,64,66,68,-1,-1,-1,-1,-1,-1,70,-1,-1,72,74,76,78,80,-1,-1,-1,-1,-1,-1,-1,-1,-1,-1,-1,-1,-1,-1,-1,-1,-1,-1,-1,-1,-1,-1,-1,-1,-1,-1,-1,-1],"split_conditions":[2.4526807E2,1.4721499E1,1.2984975E1,1E-1,1.65715E1,-8.785E-1,1.4971499E1,6.4214997E0,2.34E1,2.1171501E1,2.1771502E1,8.891344E0,1.7771502E1,3.5215E0,2.3021502E1,1.08215E1,1.50038395E1,5.424262E1,3.4715002E0,2.05715E1,2.4071175E2,-1.6309233E-1,1.5825436E0,3.4781795E0,3.2389236E2,1.2904882E1,3E-1,2.679878E2,1.2471499E1,5.825436E-1,1.6369077E0,9.215E-1,2.0073004E2,1.1440978E1,1.21215E1,3.279954E1,2.0235973E2,1.2214999E0,2.436591E1,2.3869078E0,2.8690767E-1,7.42818E0,2.0869079E0,1.177556E0,-3.1309235E-1,1.5715001E0,3.1369078E0,3.8053615E0,1.9021502E1,2.0617662E1,1.4440443E1,-5.2285004E0,2.5271502E1,1.4747505E0,-9.9791163E-1,5.3577085E0,1.2781795E0,-1.4609478E0,2.4219837E0,-2.089942E0,-5.009478E-1,-8.870482E-1,-2.2735662E0,1.0602227E0,-4.562825E-1,-1.1718206E0,3.7369077E0,-8.2327527E-1,-2.0747302E0,-6.835662E-1,-2.1224442E0,-1.2130923E0,-1.9638492E-2,-5.7182056E-1,1.0825436E0,-1.2182055E-1,-1.7307982E0,-1.3092328E-2,-2.78263E0,-1.5241705E0,4.3690768E-1],"split_indices":[4,1,3,2,1,0,1,1,3,0,0,3,0,0,0,0,3,4,0,0,4,0,0,0,4,3,2,4,1,0,0,1,4,3,1,4,4,0,3,0,0,0,0,0,0,1,0,0,0,3,3,1,0,0,0,0,0,0,0,0,0,0,0,0,0,0,0,0,0,0,0,0,0,0,0,0,0,0,0,0,0],"split_type":[0,0,0,0,0,0,0,0,0,0,0,0,0,0,0,0,0,0,0,0,0,0,0,0,0,0,0,0,0,0,0,0,0,0,0,0,0,0,0,0,0,0,0,0,0,0,0,0,0,0,0,0,0,0,0,0,0,0,0,0,0,0,0,0,0,0,0,0,0,0,0,0,0,0,0,0,0,0,0,0,0],"sum_hessian":[4.01E2,2.65E2,1.36E2,2.54E2,1.1E1,3.5E1,1.01E2,8.3E1,1.71E2,8E0,3E0,1.2E1,2.3E1,9.8E1,3E0,5.5E1,2.8E1,1.4E2,3.1E1,2E0,6E0,1E0,2E0,5E0,7E0,1.6E1,7E0,2.7E1,7.1E1,2E0,1E0,3.4E1,2.1E1,1.6E1,1.2E1,2.4E1,1.16E2,6E0,2.5E1,1E0,1E0,5E0,1E0,6E0,1E0,1.5E1,1E0,3E0,4E0,7E0,2E1,5.8E1,1.3E1,2.7E1,7E0,1.6E1,5E0,4E0,1.2E1,8E0,4E0,1.5E1,9E0,7.8E1,3.8E1,5E0,1E0,8E0,1.7E1,9E0,6E0,1E0,3E0,5E0,2E0,5E0,1.5E1,1E0,5.7E1,1.2E1,1E0],"tree_param":{"num_deleted":"0","num_feature":"5","num_nodes":"81","size_leaf_vector":"1"}},{"base_weights":[5.0851386E-2,-5.2106994E-1,8.696268E0,1.1710068E0,-3.3415005E0,1.2140259E1,3.209348E0,-2.2623277E0,2.4271126E0,4.6609917E0,-4.540741E0,-7.220574E-1,1.3351256E1,6.643653E-1,2.2490928E0,7.279754E-1,-4.1978545E0,3.428885E0,-2.304576E0,2.4360328E0,1.4070786E0,-1.5379066E0,-5.800132E0,4.760392E0,3.0924716E0,1.2401911E0,-2.1262245E-1,5.8998113E0,-4.897692E0,-5.265286E0,6.458491E0,5.251169E0,1.0689803E0,5.7782106E0,-3.3769534E0,2.986257E0,-1.0851867E0,-4.1082444E0,2.6771605E0,-4.6316323E0,-7.403856E0,-1.6014662E-1,1.3437531E0,5.019203E-1,-1.3862859E-1,-2.934305E0,2.3575244E0,-2.3368837E-3,-1.9091653E0,-1.85966E0,-6.65427E-1,-8.263899E-1,3.1343231E0,8.318055E-1,3.4142125E0,5.789908E-1,-1.3221178E0,-5.873194E-1,2.7028306E0,-1.1267467E0,1.0278744E0,-3.902817E-3,1.2565696E0,2.870331E-2,-5.712967E-1,-1.4286685E0,6.1711586E-1,2.296451E0,-4.4754827E-1,1.07304156E-1,-1.5138669E0,-1.5531169E0,-2.5453115E0],"categories":[],"categories_nodes":[],"categories_segments":[],"categories_sizes":[],"default_left":[0,0,0,0,0,0,0,0,0,0,0,0,0,0,0,0,0,0,0,0,0,0,0,0,0,0,0,0,0,0,0,0,0,0,0,0,0,0,0,0,0,0,0,0,0,0,0,0,0,0,0,0,0,0,0,0,0,0,0,0,0,0,0,0,0,0,0,0,0,0,0,0,0],"id":1,"left_children":[1,3,5,7,9,11,13,15,17,19,21,-1,23,25,-1,27,29,31,33,-1,35,37,39,-1,41,43,-1,45,47,49,51,53,55,57,59,61,63,65,67,69,71,-1,-1,-1,-1,-1,-1,-1,-1,-1,-1,-1,-1,-1,-1,-1,-1,-1,-1,-1,-1,-1,-1,-1,-1,-1,-1,-1,-1,-1,-1,-1,-1],"loss_changes":[1.9922197E3,1.8078745E3,4.3346033E2,1.0275845E3,1.383926E3,2.9638232E2,1.15050606E2,3.7347592E2,8.326753E2,2.0243204E2,4.6001587E2,0E0,3.123872E2,7.204338E0,0E0,7.853662E2,4.776275E2,6.136465E2,2.8821454E2,0E0,4.653369E1,4.2269592E2,1.2874194E2,0E0,2.2505486E1,5.194393E0,0E0,5.068386E2,9.315439E1,8.866327E1,1.7579358E2,1.1989937E3,3.102533E2,1.1762431E2,8.503885E1,2.5296803E1,5.018642E0,1.065643E2,3.226978E2,1.1143652E2,4.0289062E1,0E0,0E0,0E0,0E0,0E0,0E0,0E0,0E0,0E0,0E0,0E0,0E0,0E0,0E0,0E0,0E0,0E0,0E0,0E0,0E0,0E0,0E0,0E0,0E0,0E0,0E0,0E0,0E0,0E0,0E0,0E0,0E0],"parents":[2147483647,0,0,1,1,2,2,3,3,4,4,5,5,6,6,7,7,8,8,9,9,10,10,12,12,13,13,15,15,16,16,17,17,18,18,20,20,21,21,22,22,24,24,25,25,27,27,28,28,29,29,30,30,31,31,32,32,33,33,34,34,35,35,36,36,37,37,38,38,39,39,40,40],"right_children":[2,4,6,8,10,12,14,16,18,20,22,-1,24,26,-1,28,30,32,34,-1,36,38,40,-1,42,44,-1,46,48,50,52,54,56,58,60,62,64,66,68,70,72,-1,-1,-1,-1,-1,-1,-1,-1,-1,-1,-1,-1,-1,-1,-1,-1,-1,-1,-1,-1,-1,-1,-1,-1,-1,-1,-1,-1,-1,-1,-1,-1],"split_conditions":[1.4471499E1,2.3750967E2,1.8806337E1,8.406854E1,-1.0785E0,3.374857E1,2.1986542E1,-7.85E-2,2.1611998E1,1.0948973E1,1.4440443E1,-7.220574E-1,2.4526807E2,2.5531291E2,2.2490928E0,1.477755E1,2.32215E1,6.5715E0,3.4715002E0,2.4360328E0,1.8E1,3.012697E2,2.8977725E2,4.760392E0,1.99715E1,5.6E0,-2.1262245E-1,-9.8785E0,1.715E-1,6.648543E1,1.3979871E1,1.02715E1,8.200001E0,-2.3785E0,1.23E1,1.1298495E1,-7.4285E0,1.44E1,3.2389236E2,2.3215E0,4.5715E0,-1.6014662E-1,1.3437531E0,5.019203E-1,-1.3862859E-1,-2.934305E0,2.3575244E0,-2.3368837E-3,-1.9091653E0,-1.85966E0,-6.65427E-1,-8.263899E-1,3.1343231E0,8.318055E-1,3.4142125E0,5.789908E-1,-1.3221178E0,-5.873194E-1,2.7028306E0,-1.1267467E0,1.0278744E0,-3.902817E-3,1.2565696E0,2.870331E-2,-5.712967E-1,-1.4286685E0,6.1711586E-1,2.296451E0,-4.4754827E-1,1.07304156E-1,-1.5138669E0,-1.5531169E0,-2.5453115E0],"split_indices":[1,4,3,4,0,4,3,1,3,3,3,0,4,4,0,3,0,1,0,0,3,4,4,0,0,2,0,1,0,4,3,0,2,0,2,3,1,3,4,0,0,0,0,0,0,0,0,0,0,0,0,0,0,0,0,0,0,0,0,0,0,0,0,0,0,0,0,0,0,0,0,0,0],"split_type":[0,0,0,0,0,0,0,0,0,0,0,0,0,0,0,0,0,0,0,0,0,0,0,0,0,0,0,0,0,0,0,0,0,0,0,0,0,0,0,0,0,0,0,0,0,0,0,0,0,0,0,0,0,0,0,0,0,0,0,0,0,0,0,0,0,0,0,0,0,0,0,0,0],"sum_hessian":[4.01E2,3.77E2,2.4E1,2.36E2,1.41E2,1.4E1,1E1,6.3E1,1.73E2,1.8E1,1.23E2,1E0,1.3E1,7E0,3E0,2.5E1,3.8E1,1.43E2,3E1,8E0,1E1,3.7E1,8.6E1,1E1,3E0,5E0,2E0,1.3E1,1.2E1,3.5E1,3E0,8E1,6.3E1,3E0,2.7E1,6E0,4E0,2.3E1,1.4E1,5.2E1,3.4E1,1E0,2E0,4E0,1E0,1E0,1.2E1,3E0,9E0,2.6E1,9E0,1E0,2E0,5.8E1,2.2E1,5.5E1,8E0,1E0,2E0,2.6E1,1E0,2E0,4E0,2E0,2E0,2.1E1,2E0,6E0,8E0,4E0,4.8E1,1.3E1,2.1E1],"tree_param":{"num_deleted":"0","num_feature":"5","num_nodes":"73","size_leaf_vector":"1"}},{"base_weights":[5.8268156E-2,-3.608005E-1,6.3922553E0,8.315784E-1,-2.3483567E0,8.84631E0,2.4647036E0,-1.4806902E0,1.8698485E0,3.6120946E0,-3.2984436E0,-6.137488E-1,9.770451E0,4.8388886E-1,1.7430471E0,-2.026779E0,6.46069E0,6.6102033E0,9.697113E-1,5.4481425E0,-1.5800406E0,1.9201238E0,-3.6299098E0,1.27009535E1,3.7462876E0,9.28682E-1,-5.669937E-1,4.90967E-1,-3.8195987E0,-7.024315E-1,2.7739747E0,1.0793599E1,-2.4910557E0,5.7792096E0,-2.4132141E-1,5.9637446E0,-2.6554298E-1,-4.0070295E0,1.5832359E0,3.1833103E0,-1.3889027E-1,-2.0190127E0,-4.119525E0,4.359387E0,4.1965203E0,3.5964075E-1,1.6049104E0,3.8145927E-1,-1.1783438E-1,-5.2573588E-2,-2.025736E-1,-3.455064E-1,2.6803741E0,-1.5342072E0,-5.6444955E-1,3.816521E0,2.594064E-1,-1.4219713E0,4.5149434E-1,4.2849055E-1,3.2068858E0,-2.200105E0,1.577721E-1,6.7947125E-1,2.1650372E0,-2.3042537E-1,-1.3874235E0,5.051365E-1,1.3772098E0,9.222193E-2,-1.170374E-1,-1.092669E0,2.9048175E-1,-1.27911E0,4.1599694E-1,-4.701874E-1,2.3586216E0,-1.3612461E-1,2.9796296E-1],"categories":[],"categories_nodes":[],"categories_segments":[],"categories_sizes":[],"default_left":[0,0,0,0,0,0,0,0,0,0,0,0,0,0,0,0,0,0,0,0,0,0,0,0,0,0,0,0,0,0,0,0,0,0,0,0,0,0,0,0,0,0,0,0,0,0,0,0,0,0,0,0,0,0,0,0,0,0,0,0,0,0,0,0,0,0,0,0,0,0,0,0,0,0,0,0,0,0,0],"id":2,"left_children":[1,3,5,7,9,11,13,15,17,19,21,-1,23,25,-1,27,29,31,33,35,37,39,41,43,45,47,49,51,53,-1,-1,55,57,59,61,63,-1,65,-1,67,69,71,73,-1,75,77,-1,-1,-1,-1,-1,-1,-1,-1,-1,-1,-1,-1,-1,-1,-1,-1,-1,-1,-1,-1,-1,-1,-1,-1,-1,-1,-1,-1,-1,-1,-1,-1,-1],"loss_changes":[1.0693652E3,8.9778265E2,2.1915704E2,5.7174866E2,8.160527E2,1.709768E2,7.008248E1,3.3401007E2,6.9337305E2,1.9926843E2,2.1973267E2,0E0,1.9957214E2,4.2659597E0,0E0,3.1784576E2,1.4425917E2,1.0168159E3,8.1099457E2,5.426059E1,1.21005264E2,2.124948E1,8.317395E1,7.911279E1,3.0657196E1,3.2178078E0,8.888602E-3,4.2638812E2,9.323572E1,0E0,0E0,3.3359668E2,8.8011795E1,5.8294464E2,6.133004E2,4.8542084E1,0E0,6.451538E0,0E0,2.8222885E0,5.684271E-1,1.4414804E2,7.577136E1,0E0,7.57048E1,1.996683E0,0E0,0E0,0E0,0E0,0E0,0E0,0E0,0E0,0E0,0E0,0E0,0E0,0E0,0E0,0E0,0E0,0E0,0E0,0E0,0E0,0E0,0E0,0E0,0E0,0E0,0E0,0E0,0E0,0E0,0E0,0E0,0E0,0E0],"parents":[2147483647,0,0,1,1,2,2,3,3,4,4,5,5,6,6,7,7,8,8,9,9,10,10,12,12,13,13,15,15,16,16,17,17,18,18,19,19,20,20,21,21,22,22,23,23,24,24,25,25,26,26,27,27,28,28,31,31,32,32,33,33,34,34,35,35,37,37,39,39,40,40,41,41,42,42,44,44,45,45],"right_children":[2,4,6,8,10,12,14,16,18,20,22,-1,24,26,-1,28,30,32,34,36,38,40,42,44,46,48,50,52,54,-1,-1,56,58,60,62,64,-1,66,-1,68,70,72,74,-1,76,78,-1,-1,-1,-1,-1,-1,-1,-1,-1,-1,-1,-1,-1,-1,-1,-1,-1,-1,-1,-1,-1,-1,-1,-1,-1,-1,-1,-1,-1,-1,-1,-1,-1],"split_conditions":[1.4471499E1,2.3750967E2,1.8806337E1,9.933362E1,1.1457958E1,3.374857E1,2.1986542E1,2.32215E1,1.3439697E2,1.6715E0,-2.2784998E0,-6.137488E-1,2.4071175E2,2.5531291E2,1.7430471E0,-7.85E-2,1.3979871E1,1.8228943E1,4.3715E0,3.4084253E2,1.9021502E1,1.8E1,1.4440443E1,1.609969E1,2.0921501E1,5.6E0,1.96215E1,7.0715E0,1.4917212E1,-7.024315E-1,2.7739747E0,1.01715E1,6.799999E0,-6.785E-1,6.3715E0,2.7376514E2,-2.6554298E-1,8.971499E0,1.5832359E0,-2.6285E0,-3.2784998E0,2E-1,1.4599999E1,4.359387E0,2.1171501E1,1.99715E1,1.6049104E0,3.8145927E-1,-1.1783438E-1,-5.2573588E-2,-2.025736E-1,-3.455064E-1,2.6803741E0,-1.5342072E0,-5.6444955E-1,3.816521E0,2.594064E-1,-1.4219713E0,4.5149434E-1,4.2849055E-1,3.2068858E0,-2.200105E0,1.577721E-1,6.7947125E-1,2.1650372E0,-2.3042537E-1,-1.3874235E0,5.051365E-1,1.3772098E0,9.222193E-2,-1.170374E-1,-1.092669E0,2.9048175E-1,-1.27911E0,4.1599694E-1,-4.701874E-1,2.3586216E0,-1.3612461E-1,2.9796296E-1],"split_indices":[1,4,3,4,3,4,3,0,4,1,0,0,4,4,0,1,3,3,0,4,0,3,3,3,0,2,0,0,3,0,0,1,2,1,0,4,0,0,0,0,0,2,2,0,0,0,0,0,0,0,0,0,0,0,0,0,0,0,0,0,0,0,0,0,0,0,0,0,0,0,0,0,0,0,0,0,0,0,0],"split_type":[0,0,0,0,0,0,0,0,0,0,0,0,0,0,0,0,0,0,0,0,0,0,0,0,0,0,0,0,0,0,0,0,0,0,0,0,0,0,0,0,0,0,0,0,0,0,0,0,0,0,0,0,0,0,0,0,0,0,0,0,0,0,0,0,0,0,0,0,0,0,0,0,0,0,0,0,0,0,0],"sum_hessian":[4.01E2,3.77E2,2.4E1,2.36E2,1.41E2,1.4E1,1E1,7.3E1,1.63E2,1.9E1,1.22E2,1E0,1.3E1,7E0,3E0,6.9E1,4E0,2.5E1,1.38E2,1.4E1,5E0,7E0,1.15E2,8E0,5E0,5E0,2E0,2.9E1,4E1,1E0,3E0,1.7E1,8E0,2.7E1,1.11E2,1.3E1,1E0,4E0,1E0,4E0,3E0,2.8E1,8.7E1,6E0,2E0,2E0,3E0,4E0,1E0,1E0,1E0,2.5E1,4E0,2.3E1,1.7E1,1.4E1,3E0,5E0,3E0,1.5E1,1.2E1,1E1,1.01E2,4E0,9E0,1E0,3E0,3E0,1E0,1E0,2E0,1.8E1,1E1,8.5E1,2E0,1E0,1E0,1E0,1E0],"tree_param":{"num_deleted":"0","num_feature":"5","num_nodes":"79","size_leaf_vector":"1"}},{"base_weights":[8.779066E-2,-4.5058113E-1,3.0474195E0,7.445981E-1,-1.3709496E0,3.4852107E0,2.256089E0,2.422322E-1,8.532264E0,5.0110763E-1,-2.977817E0,7.7440935E-1,5.7839985E0,-1.2865117E0,2.210898E0,4.5584893E0,2.6684208E0,4.982793E0,-2.522644E-1,-9.101239E0,-2.7058218E0,3.429253E0,-9.912351E-1,3.195178E0,3.4673083E0,7.919716E-1,-2.9207091E0,6.6805763E0,3.738955E-1,-1.0289607E0,6.5750327E0,2.5879471E0,6.1560783E0,2.4668562E0,-1.2324241E0,-5.220346E-1,-3.2924728E0,-2.0215201E0,-4.5064445E0,-1.1018823E0,6.0009527E0,6.5466995E0,-2.6593459E0,2.2899196E0,2.0159829E0,8.544411E-1,-2.4370302E-1,-1.0751536E0,3.5734504E-1,2.4566438E0,-1.0770615E0,-2.7182245E-1,1.3237615E0,8.8829905E-2,2.5707932E0,1.2709321E0,-8.4817773E-1,2.1290846E0,6.6669357E-1,-7.617866E-2,2.075962E0,-7.8973815E-2,-8.7824655E-1,-7.025781E-1,4.2766923E-1,-3.7300342E-1,-1.6138655E0,3.5283098E-1,-1.3593693E0,2.464188E0,-7.915154E-1,-8.0446476E-1,2.8572447E0,-1.5881621E0,-2.3273033E-1,-1.6749492E-1,1.0700312E0],"categories":[],"categories_nodes":[],"categories_segments":[],"categories_sizes":[],"default_left":[0,0,0,0,0,0,0,0,0,0,0,0,0,0,0,0,0,0,0,0,0,0,0,0,0,0,0,0,0,0,0,0,0,0,0,0,0,0,0,0,0,0,0,0,0,0,0,0,0,0,0,0,0,0,0,0,0,0,0,0,0,0,0,0,0,0,0,0,0,0,0,0,0,0,0,0,0],"id":3,"left_children":[1,3,5,7,9,-1,11,13,15,17,19,21,23,25,27,-1,29,31,33,35,37,39,41,-1,43,45,47,49,51,-1,53,55,57,59,61,-1,-1,63,65,67,69,71,73,-1,75,-1,-1,-1,-1,-1,-1,-1,-1,-1,-1,-1,-1,-1,-1,-1,-1,-1,-1,-1,-1,-1,-1,-1,-1,-1,-1,-1,-1,-1,-1,-1,-1],"loss_changes":[6.419121E2,3.7612262E2,3.9425317E2,5.808596E2,5.820647E2,0E0,2.987003E2,4.2719592E2,3.110747E2,3.0513086E2,1.4858997E2,2.0027461E2,1.5473572E2,2.740453E2,5.0657242E2,0E0,1.654934E2,2.0596252E1,2.1092368E2,3.6071625E1,1.1533917E2,2.047086E2,3.4433676E2,0E0,6.3208145E1,1.21068184E2,1.26971405E2,3.082331E2,2.3661848E2,0E0,4.7550385E1,6.553909E1,1.3837677E1,2.561869E2,9.451286E1,0E0,0E0,8.617374E1,7.023535E1,6.0013237E1,2.3197961E2,1.629227E2,1.0506462E2,0E0,4.590549E1,0E0,0E0,0E0,0E0,0E0,0E0,0E0,0E0,0E0,0E0,0E0,0E0,0E0,0E0,0E0,0E0,0E0,0E0,0E0,0E0,0E0,0E0,0E0,0E0,0E0,0E0,0E0,0E0,0E0,0E0,0E0,0E0],"parents":[2147483647,0,0,1,1,2,2,3,3,4,4,6,6,7,7,8,8,9,9,10,10,11,11,12,12,13,13,14,14,16,16,17,17,18,18,19,19,20,20,21,21,22,22,24,24,25,25,26,26,27,27,28,28,30,30,31,31,32,32,33,33,34,34,37,37,38,38,39,39,40,40,41,41,42,42,44,44],"right_children":[2,4,6,8,10,-1,12,14,16,18,20,22,24,26,28,-1,30,32,34,36,38,40,42,-1,44,46,48,50,52,-1,54,56,58,60,62,-1,-1,64,66,68,70,72,74,-1,76,-1,-1,-1,-1,-1,-1,-1,-1,-1,-1,-1,-1,-1,-1,-1,-1,-1,-1,-1,-1,-1,-1,-1,-1,-1,-1,-1,-1,-1,-1,-1,-1],"split_conditions":[2.02215E1,2.0235973E2,9.2715E0,1.9774475E2,1.7715001E0,3.4852107E0,1.46715E1,9.2715E0,1.9968341E2,1.1212135E1,2.0715E0,1.7156044E2,1.2984975E1,3.0215E0,5.4715E0,4.5584893E0,2.0017825E2,2.7376514E2,2.373376E2,1E-1,2.7376514E2,1.3708391E1,1.2245293E1,3.195178E0,1.7156044E2,1.477755E1,8.5E0,1.37715E1,1.7544057E2,-1.0289607E0,-6.285E-1,8.1715E0,3.1739258E2,2.2382796E2,1.8971008E1,-5.220346E-1,-3.2924728E0,7.2E0,1.3237039E1,1.1966953E1,4.7999997E0,2.0671501E1,2.1488696E2,2.2899196E0,2.23215E1,8.544411E-1,-2.4370302E-1,-1.0751536E0,3.5734504E-1,2.4566438E0,-1.0770615E0,-2.7182245E-1,1.3237615E0,8.8829905E-2,2.5707932E0,1.2709321E0,-8.4817773E-1,2.1290846E0,6.6669357E-1,-7.617866E-2,2.075962E0,-7.8973815E-2,-8.7824655E-1,-7.025781E-1,4.2766923E-1,-3.7300342E-1,-1.6138655E0,3.5283098E-1,-1.3593693E0,2.464188E0,-7.915154E-1,-8.0446476E-1,2.8572447E0,-1.5881621E0,-2.3273033E-1,-1.6749492E-1,1.0700312E0],"split_indices":[0,4,1,4,1,0,1,0,4,3,1,4,3,0,1,0,4,4,4,2,4,3,3,0,4,3,2,0,4,0,0,0,4,4,3,0,0,2,3,3,2,0,4,0,0,0,0,0,0,0,0,0,0,0,0,0,0,0,0,0,0,0,0,0,0,0,0,0,0,0,0,0,0,0,0,0,0],"split_type":[0,0,0,0,0,0,0,0,0,0,0,0,0,0,0,0,0,0,0,0,0,0,0,0,0,0,0,0,0,0,0,0,0,0,0,0,0,0,0,0,0,0,0,0,0,0,0,0,0,0,0,0,0,0,0,0,0,0,0,0,0,0,0,0,0,0,0,0,0,0,0,0,0,0,0,0,0],"sum_hessian":[4.01E2,3.4E2,6.1E1,1.48E2,1.92E2,4E0,5.7E1,1.4E2,8E0,8.9E1,1.03E2,4.1E1,1.6E1,7.9E1,6.1E1,3E0,5E0,1.2E1,7.7E1,3E0,1E2,1.6E1,2.5E1,4E0,1.2E1,3.5E1,4.4E1,1.7E1,4.4E1,2E0,3E0,5E0,7E0,2E1,5.7E1,1E0,2E0,7.4E1,2.6E1,6E0,1E1,4E0,2.1E1,2E0,1E1,1.5E1,2E1,3.8E1,6E0,1.5E1,2E0,3.4E1,1E1,1E0,2E0,4E0,1E0,5E0,2E0,1.3E1,7E0,3.7E1,2E1,6.8E1,6E0,6E0,2E1,4E0,2E0,8E0,2E0,1E0,3E0,8E0,1.3E1,4E0,6E0],"tree_param":{"num_deleted":"0","num_feature":"5","num_nodes":"77","size_leaf_vector":"1"}},{"base_weights":[1.04909405E-1,-1.4691676E-1,3.9083247E0,8.7136275E-1,-9.48359E-1,5.340378E0,1.6002231E0,-1.1807458E0,2.4775827E0,3.9927754E-1,-1.9457899E0,-5.746112E-1,5.9954576E0,6.259455E-2,1.0298575E0,3.5545135E0,-1.728527E0,5.0792403E0,1.8443523E-1,9.855712E-2,2.074592E0,-2.661818E0,6.7215407E-1,3.168729E0,3.7896986E0,6.3551354E-1,-1.5779193E-1,1.7261134E0,-8.311224E-2,-1.0575416E0,-5.0483117E0,6.8270154E0,3.8631395E-1,4.6820655E0,-1.6439133E0,3.4845798E0,-3.313009E-1,-6.0174856E0,-2.1108003E0,6.0292063E0,-2.4869438E-1,-1.774354E-1,5.2995534E0,2.6409447E-1,7.814245E-2,-5.596819E-1,3.3987638E-1,-5.0518245E-1,1.3642541E0,5.608312E-1,-1.7781092E0,1.5966176E0,4.166812E0,-1.398774E0,1.6140062E0,4.9564913E-1,3.1234312E0,1.1899095E0,-9.985042E-1,1.2617373E0,4.0539452E-1,-2.9448605E-1,4.5346883E-1,-3.3257064E-1,-2.042771E0,1.222168E0,-6.933984E-1,-4.3414882E-1,2.7011151E0,1.6806852E0,-2.2399868E-1,1.7871572E-1,-3.7453482E-1,3.770565E-1,1.7092594E0],"categories":[],"categories_nodes":[],"categories_segments":[],"categories_sizes":[],"default_left":[0,0,0,0,0,0,0,0,0,0,0,0,0,0,0,0,0,0,0,0,0,0,0,0,0,0,0,0,0,0,0,0,0,0,0,0,0,0,0,0,0,0,0,0,0,0,0,0,0,0,0,0,0,0,0,0,0,0,0,0,0,0,0,0,0,0,0,0,0,0,0,0,0,0,0],"id":4,"left_children":[1,3,5,7,9,11,13,15,17,19,21,-1,23,25,-1,27,29,31,33,35,-1,37,39,-1,41,43,-1,-1,45,47,49,51,53,55,57,59,61,63,65,67,69,71,73,-1,-1,-1,-1,-1,-1,-1,-1,-1,-1,-1,-1,-1,-1,-1,-1,-1,-1,-1,-1,-1,-1,-1,-1,-1,-1,-1,-1,-1,-1,-1,-1],"loss_changes":[3.856096E2,3.093092E2,7.408731E1,5.5338043E2,2.8574188E2,8.277994E1,3.0782152E1,1.9809158E2,5.5986584E2,1.7763322E2,2.3048074E2,0E0,1.0100253E2,2.6946743E0,0E0,6.447707E1,1.4390549E2,3.5825842E2,4.2708194E2,1.2923924E2,0E0,1.6480542E2,1.3469133E2,0E0,6.682808E1,1.3793993E-1,0E0,0E0,1.07838745E1,2.0778503E2,7.794653E1,2.6619336E2,3.528498E2,2.4319016E2,3.6285675E2,9.702011E0,9.61613E1,4.2977844E1,1.1359317E2,1.0198398E2,7.410939E1,4.0559616E0,5.710251E0,0E0,0E0,0E0,0E0,0E0,0E0,0E0,0E0,0E0,0E0,0E0,0E0,0E0,0E0,0E0,0E0,0E0,0E0,0E0,0E0,0E0,0E0,0E0,0E0,0E0,0E0,0E0,0E0,0E0,0E0,0E0,0E0],"parents":[2147483647,0,0,1,1,2,2,3,3,4,4,5,5,6,6,7,7,8,8,9,9,10,10,12,12,13,13,15,15,16,16,17,17,18,18,19,19,21,21,22,22,24,24,25,25,28,28,29,29,30,30,31,31,32,32,33,33,34,34,35,35,36,36,37,37,38,38,39,39,40,40,41,41,42,42],"right_children":[2,4,6,8,10,12,14,16,18,20,22,-1,24,26,-1,28,30,32,34,36,-1,38,40,-1,42,44,-1,-1,46,48,50,52,54,56,58,60,62,64,66,68,70,72,74,-1,-1,-1,-1,-1,-1,-1,-1,-1,-1,-1,-1,-1,-1,-1,-1,-1,-1,-1,-1,-1,-1,-1,-1,-1,-1,-1,-1,-1,-1,-1,-1],"split_conditions":[1.4471499E1,2.0126968E2,1.8806337E1,9.933362E1,1.7715001E0,3.374857E1,2.1611998E1,9.007196E0,9.000001E-1,1.18715E1,1.25715E1,-5.746112E-1,1.3670013E2,2.0883104E1,1.0298575E0,1E-1,3.6999998E0,1.8636163E2,4.3715E0,1.0948973E1,2.074592E0,2.1172058E2,1.20694E1,3.168729E0,2.1171501E1,1.45215E1,-1.5779193E-1,1.7261134E0,9.000001E-1,2.1E0,-3.285E-1,1.8174815E2,1.9444852E2,3.3215E0,1.3339445E1,9.422101E0,-1.285E-1,1.2599998E1,2.1270314E2,1.55215E1,1.77215E1,2.0921501E1,1.45215E1,2.6409447E-1,7.814245E-2,-5.596819E-1,3.3987638E-1,-5.0518245E-1,1.3642541E0,5.608312E-1,-1.7781092E0,1.5966176E0,4.166812E0,-1.398774E0,1.6140062E0,4.9564913E-1,3.1234312E0,1.1899095E0,-9.985042E-1,1.2617373E0,4.0539452E-1,-2.9448605E-1,4.5346883E-1,-3.3257064E-1,-2.042771E0,1.222168E0,-6.933984E-1,-4.3414882E-1,2.7011151E0,1.6806852E0,-2.2399868E-1,1.7871572E-1,-3.7453482E-1,3.770565E-1,1.7092594E0],"split_indices":[1,4,3,4,1,4,3,3,2,0,1,0,4,3,0,2,2,4,0,3,0,4,3,0,0,1,0,0,2,2,0,4,4,0,3,3,1,3,4,0,0,0,1,0,0,0,0,0,0,0,0,0,0,0,0,0,0,0,0,0,0,0,0,0,0,0,0,0,0,0,0,0,0,0,0],"split_type":[0,0,0,0,0,0,0,0,0,0,0,0,0,0,0,0,0,0,0,0,0,0,0,0,0,0,0,0,0,0,0,0,0,0,0,0,0,0,0,0,0,0,0,0,0,0,0,0,0,0,0,0,0,0,0,0,0,0,0,0,0,0,0,0,0,0,0,0,0,0,0,0,0,0,0],"sum_hessian":[4.01E2,3.77E2,2.4E1,1.66E2,2.11E2,1.4E1,1E1,7.3E1,9.3E1,9E1,1.21E2,1E0,1.3E1,6E0,4E0,7E0,6.6E1,4.3E1,5E1,8.7E1,3E0,9.5E1,2.6E1,3E0,1E1,3E0,3E0,4E0,3E0,5.6E1,1E1,3.1E1,1.2E1,1.4E1,3.6E1,9E0,7.8E1,1.2E1,8.3E1,3E0,2.3E1,3E0,7E0,1E0,2E0,1E0,2E0,5.1E1,5E0,1E0,9E0,2.7E1,4E0,6E0,6E0,1E1,4E0,8E0,2.8E1,6E0,3E0,5.8E1,2E1,2E0,1E1,2E0,8.1E1,1E0,2E0,1E0,2.2E1,2E0,1E0,1E0,6E0],"tree_param":{"num_deleted":"0","num_feature":"5","num_nodes":"75","size_leaf_vector":"1"}},{"base_weights":[1.2919274E-1,-3.121124E-1,1.3487921E0,-1.4832471E-2,-2.3926709E0,2.3806536E0,6.629146E-1,-3.9426374E-1,2.9072826E0,1.1063702E0,-3.0376596E0,3.0676408E0,-4.9550554E-1,6.6332996E-1,-1.3282756E0,-1.9639751E0,3.8163652E0,-1.7795537E0,-2.0676172E0,1.5711572E0,1.083442E1,-5.0013385E0,9.004336E-1,-1.1832656E-1,2.9287765E0,3.106941E0,-1.7482677E0,7.7141104E0,4.109245E-1,6.667606E-1,-2.719374E0,2.755392E0,6.322493E-1,4.548411E0,8.687996E-1,-1.8184502E0,-1.4566828E0,2.2483518E0,-1.1964148E0,1.8583417E-1,-1.2245557E0,6.3522905E-2,1.580827E0,1.9989135E0,-2.9009593E-1,-4.598167E-1,-1.6010119E0,3.2531478E0,1.6134064E-1,2.4382918E0,-1.9360973E-1,3.797108E-1,-3.4919244E-1,-1.3571053E0,-5.280082E-1,-5.1602495E-1,1.0559932E0,-1.735468E-2,-5.375787E-1,1.4709549E0,-1.14770584E-1,-1.3592802E0,3.864173E-2],"categories":[],"categories_nodes":[],"categories_segments":[],"categories_sizes":[],"default_left":[0,0,0,0,0,0,0,0,0,0,0,0,0,0,0,0,0,0,0,0,0,0,0,0,0,0,0,0,0,0,0,0,0,0,0,0,0,0,0,0,0,0,0,0,0,0,0,0,0,0,0,0,0,0,0,0,0,0,0,0,0,0,0],"id":5,"left_children":[1,3,5,7,9,-1,11,13,15,-1,17,19,21,23,25,-1,27,-1,29,31,33,35,37,39,41,43,45,47,49,51,53,-1,55,-1,-1,-1,57,59,61,-1,-1,-1,-1,-1,-1,-1,-1,-1,-1,-1,-1,-1,-1,-1,-1,-1,-1,-1,-1,-1,-1,-1,-1],"loss_changes":[2.1678357E2,1.8304297E2,4.7813147E2,2.8941913E2,1.5631287E2,0E0,2.7451697E2,2.2906406E2,2.828145E2,0E0,8.318964E1,3.549088E2,4.2592456E2,1.9336389E2,2.3455074E2,0E0,3.684892E2,0E0,4.9931206E1,1.9434706E2,1.2783838E2,5.1296875E1,1.4966174E2,2.423117E2,1.7695343E2,1.658035E2,7.9222595E1,2.861455E2,1.3566273E2,8.052272E0,3.0119293E1,0E0,1.8266994E2,0E0,0E0,0E0,2.241107E0,2.2538458E2,9.338206E1,0E0,0E0,0E0,0E0,0E0,0E0,0E0,0E0,0E0,0E0,0E0,0E0,0E0,0E0,0E0,0E0,0E0,0E0,0E0,0E0,0E0,0E0,0E0,0E0],"parents":[2147483647,0,0,1,1,2,2,3,3,4,4,6,6,7,7,8,8,10,10,11,11,12,12,13,13,14,14,16,16,18,18,19,19,20,20,21,21,22,22,23,23,24,24,25,25,26,26,27,27,28,28,29,29,30,30,32,32,36,36,37,37,38,38],"right_children":[2,4,6,8,10,-1,12,14,16,-1,18,20,22,24,26,-1,28,-1,30,32,34,36,38,40,42,44,46,48,50,52,54,-1,56,-1,-1,-1,58,60,62,-1,-1,-1,-1,-1,-1,-1,-1,-1,-1,-1,-1,-1,-1,-1,-1,-1,-1,-1,-1,-1,-1,-1,-1],"split_conditions":[1.7171501E1,1.50215E1,6.4214997E0,1.28715E1,3.0715E0,2.3806536E0,1.7156044E2,4.3715E0,1.1457958E1,1.1063702E0,7.5715E0,1.6269862E2,1.2221499E1,-6.285E-1,-2.9785E0,-1.9639751E0,2.3447594E2,-1.7795537E0,1.0739833E1,9.5715E0,9.000001E-1,2.380428E2,1.6965895E1,3.0715E0,1.23319016E2,1.5870259E2,1.2471499E1,2.05484E1,1.29215E1,1.7243062E2,1.688162E2,2.755392E0,1.36715E1,4.548411E0,8.687996E-1,-1.8184502E0,6.8215E0,2.4393759E2,1.8850252E2,1.8583417E-1,-1.2245557E0,6.3522905E-2,1.580827E0,1.9989135E0,-2.9009593E-1,-4.598167E-1,-1.6010119E0,3.2531478E0,1.6134064E-1,2.4382918E0,-1.9360973E-1,3.797108E-1,-3.4919244E-1,-1.3571053E0,-5.280082E-1,-5.1602495E-1,1.0559932E0,-1.735468E-2,-5.375787E-1,1.4709549E0,-1.14770584E-1,-1.3592802E0,3.864173E-2],"split_indices":[0,0,1,0,1,0,4,0,3,0,1,4,1,1,1,0,4,0,3,1,2,4,3,0,4,4,0,3,0,4,4,0,1,0,0,0,1,4,4,0,0,0,0,0,0,0,0,0,0,0,0,0,0,0,0,0,0,0,0,0,0,0,0],"split_type":[0,0,0,0,0,0,0,0,0,0,0,0,0,0,0,0,0,0,0,0,0,0,0,0,0,0,0,0,0,0,0,0,0,0,0,0,0,0,0,0,0,0,0,0,0,0,0,0,0,0,0,0,0,0,0,0,0,0,0,0,0,0,0],"sum_hessian":[4.01E2,2.95E2,1.06E2,2.59E2,3.6E1,9E0,9.7E1,2.3E2,2.9E1,3E0,3.3E1,3.1E1,6.6E1,1.08E2,1.22E2,2E0,2.7E1,7E0,2.6E1,2.7E1,4E0,1.5E1,5.1E1,8.1E1,2.7E1,1E1,1.12E2,1.2E1,1.5E1,5E0,2.1E1,2E0,2.5E1,2E0,2E0,1.1E1,4E0,3.1E1,2E1,6.9E1,1.2E1,1.3E1,1.4E1,5E0,5E0,1.07E2,5E0,8E0,4E0,1E0,1.4E1,4E0,1E0,6E0,1.5E1,1.4E1,1.1E1,1E0,3E0,1.5E1,1.6E1,5E0,1.5E1],"tree_param":{"num_deleted":"0","num_feature":"5","num_nodes":"63","size_leaf_vector":"1"}},{"base_weights":[1.1574936E-1,-3.266644E-2,2.68078E0,3.7850595E-1,-7.9339844E-1,3.8746607E0,8.606566E-1,-7.223485E-1,8.508369E-1,1.8642851E0,-1.094342E0,-1.1075863E0,4.8812137E0,1.330386E0,-1.7653394E-1,-4.5566425E-1,-2.091265E0,3.893713E0,4.5271844E-1,1.1976013E0,1.1769983E0,-4.9177585E0,-9.5546055E-1,-6.468185E-1,1.484047E-1,2.753553E0,2.1224136E0,7.5970685E-1,5.514168E-1,5.1712036E-2,-1.2919079E-1,-1.3736517E0,9.0590626E-1,5.736426E0,-1.3620211E0,2.4450366E0,-2.523606E-2,1.1987718E0,5.574697E-1,-2.1557653E0,-5.299266E-1,1.6363026E-1,-1.2580509E0,-1.14462666E-1,2.5346277E0,-7.561312E-2,3.2269666E-1,4.3181706E-2,-1.991129E-2,9.3534946E-1,-5.702238E-1,1.87981E0,-2.0856309E-1,8.3284837E-1,3.330517E0,-1.0190934E0,1.5141049E-1,4.5403498E-1,2.4365966E0,2.543106E-1,-5.1897705E-1,-1.3184647E-1,3.569832E-1,-1.1475119E-1,2.072548E0,-6.827895E-2,-5.714614E-1,9.879346E-1,1.2768184E-1],"categories":[],"categories_nodes":[],"categories_segments":[],"categories_sizes":[],"default_left":[0,0,0,0,0,0,0,0,0,0,0,0,0,0,0,0,0,0,0,0,0,0,0,0,0,0,0,0,0,0,0,0,0,0,0,0,0,0,0,0,0,0,0,0,0,0,0,0,0,0,0,0,0,0,0,0,0,0,0,0,0,0,0,0,0,0,0,0,0],"id":6,"left_children":[1,3,5,7,9,11,13,15,17,19,21,23,25,27,29,31,-1,33,35,-1,37,39,41,-1,-1,-1,43,45,-1,47,-1,49,51,53,55,57,59,-1,61,-1,-1,63,65,-1,67,-1,-1,-1,-1,-1,-1,-1,-1,-1,-1,-1,-1,-1,-1,-1,-1,-1,-1,-1,-1,-1,-1,-1,-1],"loss_changes":[1.5312538E2,1.1947405E2,4.447148E1,1.2956657E2,1.0921506E2,7.0600006E1,5.106848E0,1.2180256E2,2.0902518E2,1.5774368E1,5.9552475E1,6.1063833E0,1.1092856E2,6.3163185E-1,2.542601E-1,9.248744E1,0E0,2.0150931E2,1.4765851E2,0E0,1.872913E1,1.5897202E1,4.0163734E1,0E0,0E0,0E0,9.224396E0,1.8694181E0,0E0,4.2224687E-2,0E0,1.1009332E2,2.6182184E2,2.0742029E2,2.450666E1,1.4636499E2,1.8896535E2,0E0,7.4590197E0,0E0,0E0,9.841614E1,6.1552734E1,0E0,9.796097E0,0E0,0E0,0E0,0E0,0E0,0E0,0E0,0E0,0E0,0E0,0E0,0E0,0E0,0E0,0E0,0E0,0E0,0E0,0E0,0E0,0E0,0E0,0E0,0E0],"parents":[2147483647,0,0,1,1,2,2,3,3,4,4,5,5,6,6,7,7,8,8,9,9,10,10,11,11,12,12,13,13,14,14,15,15,17,17,18,18,20,20,21,21,22,22,26,26,27,27,29,29,31,31,32,32,33,33,34,34,35,35,36,36,38,38,41,41,42,42,44,44],"right_children":[2,4,6,8,10,12,14,16,18,20,22,24,26,28,30,32,-1,34,36,-1,38,40,42,-1,-1,-1,44,46,-1,48,-1,50,52,54,56,58,60,-1,62,-1,-1,64,66,-1,68,-1,-1,-1,-1,-1,-1,-1,-1,-1,-1,-1,-1,-1,-1,-1,-1,-1,-1,-1,-1,-1,-1,-1,-1],"split_conditions":[1.45215E1,2.4081145E2,2.4071175E2,9.933362E1,-2.2784998E0,1.1304229E1,2.6458173E2,9.634011E1,1.2474711E2,8.39657E0,2.4278394E2,2.1771502E1,1.4529915E1,2.5531291E2,1.99715E1,8.3215E0,-2.091265E0,1.50215E1,4.3715E0,1.1976013E0,2.4393759E2,3.3715E0,1.2959999E1,-6.468185E-1,1.484047E-1,2.753553E0,1E-1,1E-1,5.514168E-1,1.96215E1,-1.2919079E-1,-3.285E-1,1.16215E1,1.10715E1,1.13215E1,1.3715E0,2.2000003E0,1.1987718E0,1.1298495E1,-2.1557653E0,-5.299266E-1,1.2904882E1,2.679878E2,-1.14462666E-1,1.65715E1,-7.561312E-2,3.2269666E-1,4.3181706E-2,-1.991129E-2,9.3534946E-1,-5.702238E-1,1.87981E0,-2.0856309E-1,8.3284837E-1,3.330517E0,-1.0190934E0,1.5141049E-1,4.5403498E-1,2.4365966E0,2.543106E-1,-5.1897705E-1,-1.3184647E-1,3.569832E-1,-1.1475119E-1,2.072548E0,-6.827895E-2,-5.714614E-1,9.879346E-1,1.2768184E-1],"split_indices":[1,4,4,4,0,3,4,4,4,3,4,0,3,4,0,0,0,0,0,0,4,0,3,0,0,0,2,2,0,0,0,0,0,0,1,1,2,0,3,0,0,3,4,0,1,0,0,0,0,0,0,0,0,0,0,0,0,0,0,0,0,0,0,0,0,0,0,0,0],"split_type":[0,0,0,0,0,0,0,0,0,0,0,0,0,0,0,0,0,0,0,0,0,0,0,0,0,0,0,0,0,0,0,0,0,0,0,0,0,0,0,0,0,0,0,0,0,0,0,0,0,0,0,0,0,0,0,0,0,0,0,0,0,0,0,0,0,0,0,0,0],"sum_hessian":[4.01E2,3.8E2,2.1E1,2.47E2,1.33E2,1.2E1,9E0,7.4E1,1.73E2,1.3E1,1.2E2,2E0,1E1,6E0,3E0,7.2E1,2E0,1.9E1,1.54E2,2E0,1.1E1,3E0,1.17E2,1E0,1E0,3E0,7E0,4E0,2E0,2E0,1E0,4.3E1,2.9E1,1.4E1,5E0,2.9E1,1.25E2,1E0,1E1,1E0,2E0,2.5E1,9.2E1,1E0,6E0,1E0,3E0,1E0,1E0,4E0,3.9E1,6E0,2.3E1,1E1,4E0,2E0,3E0,2.6E1,3E0,8.3E1,4.2E1,4E0,6E0,2.4E1,1E0,3.6E1,5.6E1,4E0,2E0],"tree_param":{"num_deleted":"0","num_feature":"5","num_nodes":"69","size_leaf_vector":"1"}},{"base_weights":[1.08560674E-1,-1.9386435E-1,9.441611E-1,1.5048057E0,-4.2742088E-1,5.6009502E0,4.5934424E-1,3.1973157E0,5.253292E-1,-2.2017623E-1,-2.077786E0,1.999951E0,1.875362E0,2.2913482E0,-4.2249864E-1,1.5814266E0,1.2420719E0,-1.1308383E0,8.759487E-1,-5.306095E-1,1.8981091E0,8.0991215E-1,-2.5316634E0,1.2264433E0,-3.2646534E-1,1.1058229E0,8.47202E0,-3.644579E0,5.7703567E-1,2.4197838E0,-4.5821288E-1,1.8420659E0,-5.642101E-1,1.5701105E-1,-1.0968425E0,-1.5294673E0,2.5799267E0,-1.4861676E0,-1.75598E0,7.3324623E0,3.448329E-1,3.5878663E0,6.4814395E-1,-4.7164793E0,-1.0719982E0,2.9692724E0,-6.3241415E-2,9.4108504E-1,-1.7490692E-1,2.6642677E-1,1.5131853E0,-3.7583303E-1,4.380113E-1,-5.496536E-2,8.9976984E-1,5.7985383E-1,-3.8597065E-1,1.483102E0,1.4944121E-1,-3.2521707E-1,-1.0101297E0,2.7579715E0,5.416366E-1,3.613729E-1,-8.165223E-1,-1.9258544E0,-9.826206E-1,7.096782E-2,-4.1430655E-1,1.6788996E0,-4.579983E-2,1.1103007E0,-2.7654994E-1],"categories":[],"categories_nodes":[],"categories_segments":[],"categories_sizes":[],"default_left":[0,0,0,0,0,0,0,0,0,0,0,0,0,0,0,0,0,0,0,0,0,0,0,0,0,0,0,0,0,0,0,0,0,0,0,0,0,0,0,0,0,0,0,0,0,0,0,0,0,0,0,0,0,0,0,0,0,0,0,0,0,0,0,0,0,0,0,0,0,0,0,0,0],"id":7,"left_children":[1,3,5,7,9,11,13,15,17,19,21,23,-1,25,27,-1,29,-1,31,33,35,-1,37,-1,-1,39,41,43,45,47,-1,49,51,53,55,-1,57,-1,59,61,63,-1,-1,65,67,69,71,-1,-1,-1,-1,-1,-1,-1,-1,-1,-1,-1,-1,-1,-1,-1,-1,-1,-1,-1,-1,-1,-1,-1,-1,-1,-1],"loss_changes":[1.0177104E2,1.18076904E2,2.3900006E2,5.80002E1,8.881218E1,1.0913605E1,1.5929097E2,4.61725E1,3.944195E1,1.5422475E2,6.9718254E1,2.3794868E1,0E0,2.2510645E2,2.1788191E2,0E0,2.978882E1,0E0,3.304064E1,7.960033E1,1.5625972E2,0E0,4.2030884E1,0E0,0E0,1.3014703E2,8.4220184E1,3.9064743E1,7.983588E1,1.4749981E1,0E0,3.8283855E1,1.5767395E1,9.048107E1,6.68656E1,0E0,1.3532036E2,0E0,2.0165924E1,1.4255585E1,7.182668E1,0E0,0E0,5.9697876E0,2.7529426E0,9.107108E1,1.391535E2,0E0,0E0,0E0,0E0,0E0,0E0,0E0,0E0,0E0,0E0,0E0,0E0,0E0,0E0,0E0,0E0,0E0,0E0,0E0,0E0,0E0,0E0,0E0,0E0,0E0,0E0],"parents":[2147483647,0,0,1,1,2,2,3,3,4,4,5,5,6,6,7,7,8,8,9,9,10,10,11,11,13,13,14,14,16,16,18,18,19,19,20,20,22,22,25,25,26,26,27,27,28,28,29,29,31,31,32,32,33,33,34,34,36,36,38,38,39,39,40,40,43,43,44,44,45,45,46,46],"right_children":[2,4,6,8,10,12,14,16,18,20,22,24,-1,26,28,-1,30,-1,32,34,36,-1,38,-1,-1,40,42,44,46,48,-1,50,52,54,56,-1,58,-1,60,62,64,-1,-1,66,68,70,72,-1,-1,-1,-1,-1,-1,-1,-1,-1,-1,-1,-1,-1,-1,-1,-1,-1,-1,-1,-1,-1,-1,-1,-1,-1,-1],"split_conditions":[1.7171501E1,1.0948973E1,6.4214997E0,-2.9785E0,1.50215E1,1.3397612E1,1.7156044E2,2.4071175E2,1.715E-1,1.28715E1,3.0715E0,1.8021502E1,1.875362E0,1.6269862E2,1.2221499E1,1.5814266E0,8.891344E0,-1.1308383E0,5.4715E0,4.3715E0,1.1457958E1,8.0991215E-1,7.5715E0,1.2264433E0,-3.2646534E-1,9.5715E0,9.000001E-1,2.2865732E2,1.2984975E1,-1.3285E0,-4.5821288E-1,3.6715E0,1.6271502E1,3.8715E0,-3.8285E0,-1.5294673E0,2.3447594E2,-1.4861676E0,1.16715E1,2.03715E1,1.3670013E2,3.5878663E0,6.4814395E-1,1.14215E1,6.8215E0,3E-1,1.91215E1,9.4108504E-1,-1.7490692E-1,2.6642677E-1,1.5131853E0,-3.7583303E-1,4.380113E-1,-5.496536E-2,8.9976984E-1,5.7985383E-1,-3.8597065E-1,1.483102E0,1.4944121E-1,-3.2521707E-1,-1.0101297E0,2.7579715E0,5.416366E-1,3.613729E-1,-8.165223E-1,-1.9258544E0,-9.826206E-1,7.096782E-2,-4.1430655E-1,1.6788996E0,-4.579983E-2,1.1103007E0,-2.7654994E-1],"split_indices":[0,3,1,1,0,3,4,4,0,0,1,0,0,4,1,0,3,0,1,0,3,0,1,0,0,1,2,4,3,0,0,1,0,0,1,0,4,0,1,0,4,0,0,1,1,2,0,0,0,0,0,0,0,0,0,0,0,0,0,0,0,0,0,0,0,0,0,0,0,0,0,0,0],"split_type":[0,0,0,0,0,0,0,0,0,0,0,0,0,0,0,0,0,0,0,0,0,0,0,0,0,0,0,0,0,0,0,0,0,0,0,0,0,0,0,0,0,0,0,0,0,0,0,0,0,0,0,0,0,0,0,0,0,0,0,0,0,0,0,0,0,0,0,0,0,0,0,0,0],"sum_hessian":[4.01E2,2.95E2,1.06E2,3.5E1,2.6E2,9E0,9.7E1,1.2E1,2.3E1,2.32E2,2.8E1,2E0,7E0,3.1E1,6.6E1,5E0,7E0,1E0,2.2E1,2.03E2,2.9E1,2E0,2.6E1,1E0,1E0,2.7E1,4E0,1.5E1,5.1E1,5E0,2E0,1.3E1,9E0,9.2E1,1.11E2,2E0,2.7E1,5E0,2.1E1,2E0,2.5E1,2E0,2E0,1E1,5E0,1E1,4.1E1,4E0,1E0,1.1E1,2E0,7E0,2E0,8.3E1,9E0,6E0,1.05E2,1.2E1,1.5E1,1.6E1,5E0,1E0,1E0,2E1,5E0,3E0,7E0,1E0,4E0,5E0,5E0,7E0,3.4E1],"tree_param":{"num_deleted":"0","num_feature":"5","num_nodes":"73","size_leaf_vector":"1"}},{"base_weights":[1.02861725E-1,7.321964E-3,2.407301E0,2.9984766E-1,-5.3476477E-1,4.5684023E0,1.5571697E0,-1.1428832E-1,2.108617E0,-2.254112E0,-2.702016E-1,1.7386849E0,1.3301411E-1,9.2105925E-1,1.0029649E0,3.078228E-1,-2.050629E0,2.3389108E0,1.5436256E0,-2.7601426E0,9.522612E-1,6.346356E-2,-1.5936038E0,-8.276034E-2,3.9534056E-1,1.6066304E-1,3.2677252E0,-2.465929E0,1.9920788E0,2.7731745E0,-1.0183805E0,-1.14617E0,-6.994559E-1,7.439327E-1,-1.2581574E0,4.1023302E-1,-1.8994012E0,4.973505E-1,-6.105147E-2,-8.3643526E-1,1.3593445E0,-1.2979466E0,-4.8692045E-1,-1.9674111E-2,8.099476E-1,1.6499081E0,2.7156177E-1,2.1108846E-1,-7.839275E-1,6.3305855E-2,-5.9512895E-1,8.488163E-2,2.2764323E0,-4.9855304E-1,9.9979514E-1,1.6242008E-1,2.5096894E-3,-6.3535196E-1,3.515315E-2],"categories":[],"categories_nodes":[],"categories_segments":[],"categories_sizes":[],"default_left":[0,0,0,0,0,0,0,0,0,0,0,0,0,0,0,0,0,0,0,0,0,0,0,0,0,0,0,0,0,0,0,0,0,0,0,0,0,0,0,0,0,0,0,0,0,0,0,0,0,0,0,0,0,0,0,0,0,0,0],"id":8,"left_children":[1,3,5,7,9,11,13,15,17,19,21,-1,-1,-1,23,25,27,-1,29,31,-1,33,35,-1,-1,37,39,41,43,45,47,-1,49,51,53,55,57,-1,-1,-1,-1,-1,-1,-1,-1,-1,-1,-1,-1,-1,-1,-1,-1,-1,-1,-1,-1,-1,-1],"loss_changes":[8.848893E1,6.15286E1,2.2281746E1,1.8900827E2,6.1254063E1,1.7679466E1,7.821554E0,1.6900552E2,1.390013E2,5.8205345E1,5.2648346E1,0E0,0E0,0E0,4.7924013E0,7.352335E1,6.703299E1,0E0,1.4142906E2,3.4476105E1,0E0,8.727093E1,1.548563E1,0E0,0E0,8.9208565E1,7.38421E1,4.6296356E1,6.002261E0,1.4781316E2,4.3030243E1,0E0,8.603923E0,1.9978091E2,6.669543E1,2.063182E-1,9.498634E0,0E0,0E0,0E0,0E0,0E0,0E0,0E0,0E0,0E0,0E0,0E0,0E0,0E0,0E0,0E0,0E0,0E0,0E0,0E0,0E0,0E0,0E0],"parents":[2147483647,0,0,1,1,2,2,3,3,4,4,5,5,6,6,7,7,8,8,9,9,10,10,14,14,15,15,16,16,18,18,19,19,21,21,22,22,25,25,26,26,27,27,28,28,29,29,30,30,32,32,33,33,34,34,35,35,36,36],"right_children":[2,4,6,8,10,12,14,16,18,20,22,-1,-1,-1,24,26,28,-1,30,32,-1,34,36,-1,-1,38,40,42,44,46,48,-1,50,52,54,56,58,-1,-1,-1,-1,-1,-1,-1,-1,-1,-1,-1,-1,-1,-1,-1,-1,-1,-1,-1,-1,-1,-1],"split_conditions":[1.47715E1,1.8161278E1,1.2984975E1,1.6267857E1,8.406854E1,2.38715E1,1.7156044E2,1.5273505E1,1.6323528E1,2.02215E1,2.7376514E2,1.7386849E0,1.3301411E-1,9.2105925E-1,1.55715E1,2.5271502E1,1E1,2.3389108E0,6.4214997E0,2.2725668E1,9.522612E-1,8.721499E0,-2.2784998E0,-8.276034E-2,3.9534056E-1,1.9215E0,3.6834583E1,1.5509274E1,9.2715E0,1E-1,1.6965895E1,-1.14617E0,5.953454E1,7.9214997E0,3.175355E1,-7.4285E0,5.799999E0,4.973505E-1,-6.105147E-2,-8.3643526E-1,1.3593445E0,-1.2979466E0,-4.8692045E-1,-1.9674111E-2,8.099476E-1,1.6499081E0,2.7156177E-1,2.1108846E-1,-7.839275E-1,6.3305855E-2,-5.9512895E-1,8.488163E-2,2.2764323E0,-4.9855304E-1,9.9979514E-1,1.6242008E-1,2.5096894E-3,-6.3535196E-1,3.515315E-2],"split_indices":[1,3,3,3,4,0,4,3,3,0,4,0,0,0,1,0,2,0,1,3,0,1,0,0,0,0,4,3,0,2,3,0,4,1,3,1,2,0,0,0,0,0,0,0,0,0,0,0,0,0,0,0,0,0,0,0,0,0,0],"split_type":[0,0,0,0,0,0,0,0,0,0,0,0,0,0,0,0,0,0,0,0,0,0,0,0,0,0,0,0,0,0,0,0,0,0,0,0,0,0,0,0,0,0,0,0,0,0,0,0,0,0,0,0,0,0,0,0,0,0,0],"sum_hessian":[4.01E2,3.86E2,1.5E1,2.51E2,1.35E2,3E0,1.2E1,2.05E2,4.6E1,1.7E1,1.18E2,2E0,1E0,2E0,1E1,1.69E2,3.6E1,3E0,4.3E1,1.6E1,1E0,9.5E1,2.3E1,2E0,8E0,1.62E2,7E0,3.3E1,3E0,2.9E1,1.4E1,1E1,6E0,6.3E1,3.2E1,3E0,2E1,3.1E1,1.31E2,1E0,6E0,9E0,2.4E1,1E0,2E0,1.1E1,1.8E1,7E0,7E0,4E0,2E0,6E1,3E0,3E1,2E0,2E0,1E0,1.8E1,2E0],"tree_param":{"num_deleted":"0","num_feature":"5","num_nodes":"59","size_leaf_vector":"1"}},{"base_weights":[9.304578E-2,-1.5639167E-2,1.3942636E0,5.1427845E-2,-1.8716766E0,-5.9484404E-1,1.5729266E0,-6.266788E-2,1.3085697E0,-2.9476879E0,-5.282827E-1,2.6323137E0,9.1161746E-1,2.380423E-2,-1.8859339E0,1.8171324E0,7.530632E-1,9.813309E-5,-1.0317235E0,-1.8247715E0,3.5526714E-1,6.80138E-1,3.65068E0,4.208711E-1,1.9865471E0,-1.11118875E-1,1.6041509E0,1.0395412E0,-2.703931E0,-6.7253196E-1,1.8642929E0,-1.448473E-1,-6.762999E-1,1.9268182E-1,-1.1891327E-1,-1.0435038E-1,1.0240898E0,4.6177915E-1,1.4548279E0,-3.6865425E-1,7.4148524E-1,1.0293163E0,4.065299E-1,2.852757E-1,-7.487201E-2,-2.644625E-1,1.1899341E0,4.2718002E-1,-1.704526E-2,-1.1463822E0,-2.849128E-1,7.7364224E-1,-5.717443E-1,2.1387704E-1,1.5420511E0,4.2249224E-1,-1.928444E-2,-1.5322767E-1,2.9964639E-2,4.6554896E-1,7.30882E-2,2.0261765E-3,1.6126119E-1],"categories":[],"categories_nodes":[],"categories_segments":[],"categories_sizes":[],"default_left":[0,0,0,0,0,0,0,0,0,0,0,0,0,0,0,0,0,0,0,0,0,0,0,0,0,0,0,0,0,0,0,0,0,0,0,0,0,0,0,0,0,0,0,0,0,0,0,0,0,0,0,0,0,0,0,0,0,0,0,0,0,0,0],"id":9,"left_children":[1,3,5,7,9,-1,11,13,15,17,19,21,23,25,27,-1,29,-1,-1,31,33,35,37,39,41,43,45,47,49,51,53,-1,-1,-1,-1,-1,55,-1,-1,57,59,-1,61,-1,-1,-1,-1,-1,-1,-1,-1,-1,-1,-1,-1,-1,-1,-1,-1,-1,-1,-1,-1],"loss_changes":[5.6873764E1,4.6402405E1,2.182294E1,5.171843E1,1.7234379E1,0E0,1.8617813E1,5.2230904E1,7.457391E1,1.0141502E1,8.666869E0,1.9385368E1,9.714275E0,6.777066E1,3.870631E1,0E0,4.5610374E1,0E0,0E0,6.409006E-1,1.3332136E0,2.1240788E0,1.0252823E1,4.070347E0,1.2299253E1,4.332119E1,1.5029517E2,1.7666306E0,1.9891708E1,5.7042385E1,5.668337E1,0E0,0E0,0E0,0E0,0E0,1.7632136E0,0E0,0E0,3.8392162E-1,4.059733E0,0E0,2.0586395E-1,0E0,0E0,0E0,0E0,0E0,0E0,0E0,0E0,0E0,0E0,0E0,0E0,0E0,0E0,0E0,0E0,0E0,0E0,0E0,0E0],"parents":[2147483647,0,0,1,1,2,2,3,3,4,4,6,6,7,7,8,8,9,9,10,10,11,11,12,12,13,13,14,14,16,16,19,19,20,20,21,21,22,22,23,23,24,24,25,25,26,26,27,27,28,28,29,29,30,30,36,36,39,39,40,40,42,42],"right_children":[2,4,6,8,10,-1,12,14,16,18,20,22,24,26,28,-1,30,-1,-1,32,34,36,38,40,42,44,46,48,50,52,54,-1,-1,-1,-1,-1,56,-1,-1,58,60,-1,62,-1,-1,-1,-1,-1,-1,-1,-1,-1,-1,-1,-1,-1,-1,-1,-1,-1,-1,-1,-1],"split_conditions":[1.42715E1,1.36715E1,3.374857E1,2.02215E1,2.1304646E2,-5.9484404E-1,1.7156044E2,1.91215E1,2.03715E1,6.73347E1,2.03215E1,2.1000001E0,2.3521502E1,1.68715E1,1.19215E1,1.8171324E0,1.21215E1,9.813309E-5,-1.0317235E0,1.7771502E1,1.4221499E1,1.81215E1,1.45215E1,1E-1,1E-1,1.0948973E1,1.4471821E1,1.93215E1,2.2865732E2,9.2715E0,2.5271502E1,-1.448473E-1,-6.762999E-1,1.9268182E-1,-1.1891327E-1,-1.0435038E-1,2.05715E1,4.6177915E-1,1.4548279E0,2.5531291E2,2.180888E2,1.0293163E0,2.46215E1,2.852757E-1,-7.487201E-2,-2.644625E-1,1.1899341E0,4.2718002E-1,-1.704526E-2,-1.1463822E0,-2.849128E-1,7.7364224E-1,-5.717443E-1,2.1387704E-1,1.5420511E0,4.2249224E-1,-1.928444E-2,-1.5322767E-1,2.9964639E-2,4.6554896E-1,7.30882E-2,2.0261765E-3,1.6126119E-1],"split_indices":[1,1,4,0,4,0,4,0,0,4,0,2,0,0,1,0,1,0,0,0,1,0,1,2,2,3,3,0,4,1,0,0,0,0,0,0,0,0,0,4,4,0,0,0,0,0,0,0,0,0,0,0,0,0,0,0,0,0,0,0,0,0,0],"split_type":[0,0,0,0,0,0,0,0,0,0,0,0,0,0,0,0,0,0,0,0,0,0,0,0,0,0,0,0,0,0,0,0,0,0,0,0,0,0,0,0,0,0,0,0,0,0,0,0,0,0,0,0,0,0,0,0,0,0,0,0,0,0,0],"sum_hessian":[4.01E2,3.71E2,3E1,3.59E2,1.2E1,1E0,2.9E1,3.3E2,2.9E1,6E0,6E0,1E1,1.9E1,3.16E2,1.4E1,2E0,2.7E1,1E0,5E0,2E0,4E0,4E0,6E0,1.4E1,5E0,2.92E2,2.4E1,3E0,1.1E1,1.2E1,1.5E1,1E0,1E0,3E0,1E0,1E0,3E0,3E0,3E0,4E0,1E1,2E0,3E0,3.3E1,2.59E2,1.2E1,1.2E1,2E0,1E0,6E0,5E0,3E0,9E0,1.2E1,3E0,2E0,1E0,3E0,1E0,3E0,7E0,1E0,2E0],"tree_param":{"num_deleted":"0","num_feature":"5","num_nodes":"63","size_leaf_vector":"1"}},{"base_weights":[7.841357E-2,-1.05581E0,1.8945889E-1,-9.777178E-2,-2.2472472E0,1.8209229E0,8.014548E-2,1.340453E0,-7.6242524E-1,-1.9074327E0,-1.5493158E0,9.610643E-1,2.1698875E0,3.4327298E-1,-5.0833696E-1,-3.2502556E-1,2.0716496E0,2.7353993E-1,-1.0901368E0,-3.0139754E0,-2.3798984E-1,2.3735108E0,-1.1859212E0,7.670799E-2,2.1293638E0,-3.8781512E0,-3.738409E-1,-1.4870054E-1,2.439022E-3,8.801741E-1,1.5565072E-1,-1.828624E0,7.620239E-2,-9.784103E-1,-2.2944333E-1,-9.8276967E-1,1.5791597E0,8.1495965E-1,4.055994E0,1.627926E-1,-2.2974505E0,4.1146728E-1,-1.0247809E0,4.880103E0,5.8710194E-1,-1.8256571E0,-1.1138525E0,4.5628524E-1,-6.151889E-1,-7.110214E-2,-6.0664195E-1,-1.5574765E-1,2.5338498E-1,2.1779981E-1,-4.1656935E-1,9.665594E-2,6.13966E-1,7.0942044E-1,-3.9779973E-1,5.2204186E-1,1.433666E0,1.0064822E-1,-7.920199E-2,-8.281936E-1,-6.670089E-2,-8.3465E-2,3.2379353E-1,-5.703785E-1,4.6459413E-1,1.3512173E-1,1.7443308E0,1.371566E0,-2.8316587E-1,-1.02170855E-1,-3.9906278E-1,1.0859168E0,1.250163E-3,-2.2068016E-1,5.6599087E-1],"categories":[],"categories_nodes":[],"categories_segments":[],"categories_sizes":[],"default_left":[0,0,0,0,0,0,0,0,0,0,0,0,0,0,0,0,0,0,0,0,0,0,0,0,0,0,0,0,0,0,0,0,0,0,0,0,0,0,0,0,0,0,0,0,0,0,0,0,0,0,0,0,0,0,0,0,0,0,0,0,0,0,0,0,0,0,0,0,0,0,0,0,0,0,0,0,0,0,0],"id":10,"left_children":[1,3,5,7,9,11,13,15,17,-1,19,21,-1,23,25,27,29,-1,31,33,35,37,39,41,43,45,47,-1,-1,-1,-1,49,51,-1,-1,53,55,57,59,61,63,65,67,69,71,-1,73,75,77,-1,-1,-1,-1,-1,-1,-1,-1,-1,-1,-1,-1,-1,-1,-1,-1,-1,-1,-1,-1,-1,-1,-1,-1,-1,-1,-1,-1,-1,-1],"loss_changes":[5.0832024E1,4.0872204E1,6.530517E1,2.1096338E1,3.605487E1,1.00081116E2,5.3596344E1,9.1978855E0,9.2239275E0,0E0,2.8092403E1,6.649734E1,0E0,1.13626785E2,4.704546E1,1.745817E-1,5.1724586E0,0E0,1.1336594E1,1.4006462E0,1.3732338E1,3.0783592E1,1.3866224E1,7.748699E1,1.2864806E2,1.7628967E1,2.1117023E1,0E0,0E0,0E0,0E0,1.9847603E0,3.1833942E0,0E0,0E0,5.861964E0,1.1031318E0,2.9679668E1,1.7287521E0,4.5711684E-1,4.192116E0,7.445714E1,1.1346678E2,4.290802E1,1.3242917E2,0E0,4.88863E-2,3.4310844E1,2.5788975E1,0E0,0E0,0E0,0E0,0E0,0E0,0E0,0E0,0E0,0E0,0E0,0E0,0E0,0E0,0E0,0E0,0E0,0E0,0E0,0E0,0E0,0E0,0E0,0E0,0E0,0E0,0E0,0E0,0E0,0E0],"parents":[2147483647,0,0,1,1,2,2,3,3,4,4,5,5,6,6,7,7,8,8,10,10,11,11,13,13,14,14,15,15,16,16,18,18,19,19,20,20,21,21,22,22,23,23,24,24,25,25,26,26,31,31,32,32,35,35,36,36,37,37,38,38,39,39,40,40,41,41,42,42,43,43,44,44,46,46,47,47,48,48],"right_children":[2,4,6,8,10,12,14,16,18,-1,20,22,-1,24,26,28,30,-1,32,34,36,38,40,42,44,46,48,-1,-1,-1,-1,50,52,-1,-1,54,56,58,60,62,64,66,68,70,72,-1,74,76,78,-1,-1,-1,-1,-1,-1,-1,-1,-1,-1,-1,-1,-1,-1,-1,-1,-1,-1,-1,-1,-1,-1,-1,-1,-1,-1,-1,-1,-1,-1],"split_conditions":[-5.5285E0,-3.285E-1,-3.8285E0,-1.0278501E1,2.4150173E1,-4.1785E0,2.4081145E2,2.7376514E2,8.762791E1,-1.9074327E0,1.2214999E0,1E-1,2.1698875E0,2.245357E2,2.4278394E2,-6.0285E0,1E-1,2.7353993E-1,3.2043222E2,2.2E0,-7.3785E0,1.31041975E1,1.4215E0,2.0126968E2,4.0215E0,3.3715E0,2.5822064E2,-1.4870054E-1,2.439022E-3,8.801741E-1,1.5565072E-1,-4.6785E0,-7.3785E0,-9.784103E-1,-2.2944333E-1,-9.8785E0,1.7715001E0,1.1841756E1,7.715E-1,1.715E-1,3.0788147E2,1.133768E2,3.2999997E0,1.370839E1,1E-1,-1.8256571E0,6.0715E0,3.5215E0,2.9655787E1,-7.110214E-2,-6.0664195E-1,-1.5574765E-1,2.5338498E-1,2.1779981E-1,-4.1656935E-1,9.665594E-2,6.13966E-1,7.0942044E-1,-3.9779973E-1,5.2204186E-1,1.433666E0,1.0064822E-1,-7.920199E-2,-8.281936E-1,-6.670089E-2,-8.3465E-2,3.2379353E-1,-5.703785E-1,4.6459413E-1,1.3512173E-1,1.7443308E0,1.371566E0,-2.8316587E-1,-1.02170855E-1,-3.9906278E-1,1.0859168E0,1.250163E-3,-2.2068016E-1,5.6599087E-1],"split_indices":[1,0,1,1,4,1,4,4,4,0,0,2,0,4,4,0,2,0,4,2,1,3,0,4,1,0,4,0,0,0,0,0,1,0,0,1,0,3,0,0,4,4,2,3,2,0,0,0,3,0,0,0,0,0,0,0,0,0,0,0,0,0,0,0,0,0,0,0,0,0,0,0,0,0,0,0,0,0,0],"split_type":[0,0,0,0,0,0,0,0,0,0,0,0,0,0,0,0,0,0,0,0,0,0,0,0,0,0,0,0,0,0,0,0,0,0,0,0,0,0,0,0,0,0,0,0,0,0,0,0,0,0,0,0,0,0,0,0,0,0,0,0,0,0,0,0,0,0,0,0,0,0,0,0,0,0,0,0,0,0,0],"sum_hessian":[4.01E2,3.5E1,3.66E2,2E1,1.5E1,2.2E1,3.44E2,6E0,1.4E1,1E0,1.4E1,2E1,2E0,2.38E2,1.06E2,2E0,4E0,2E0,1.2E1,6E0,8E0,1.2E1,8E0,2.08E2,3E1,3E0,1.03E2,1E0,1E0,2E0,2E0,7E0,5E0,5E0,1E0,6E0,2E0,7E0,5E0,4E0,4E0,1.6E2,4.8E1,1E1,2E1,1E0,2E0,2.3E1,8E1,1E0,6E0,3E0,2E0,1E0,5E0,1E0,1E0,4E0,3E0,2E0,3E0,3E0,1E0,3E0,1E0,7.9E1,8.1E1,3.6E1,1.2E1,2E0,8E0,5E0,1.5E1,1E0,1E0,2E0,2.1E1,7.7E1,3E0],"tree_param":{"num_deleted":"0","num_feature":"5","num_nodes":"79","size_leaf_vector":"1"}},{"base_weights":[6.42211E-2,-1.7059311E-2,1.0375143E0,4.6536397E-2,-1.2703602E0,-4.9309775E-1,1.1816754E0,-9.354572E-3,2.8264525E0,-2.1496823E0,2.344687E0,1.9718094E0,6.8801796E-1,-7.951903E-1,8.077104E-2,1.5733463E0,-2.981956E-1,-3.4390175E0,-9.080123E-1,1.2658728E0,9.395962E-2,5.2118874E-1,2.72628E0,-3.174385E-1,9.59222E-1,-2.0910797E0,-2.1634509E-1,2.3198862E0,7.092601E-3,-2.6693183E-1,2.2148038E-1,-3.8751783E0,-1.233078E-1,4.8610178E-1,-1.3757737E0,-7.617789E-2,7.7844906E-1,3.1556985E-1,1.1157272E0,-1.8369046E-1,8.323733E-2,1.3157715E0,-8.834114E-2,-1.4373118E0,-1.4391458E-1,3.1961927E-1,-1.9624133E-1,9.165815E-1,-1.2433119E-1,1.06431186E-1,-8.2438454E-2,-3.3107415E-1,-1.2626345E0,4.004488E-2,1.7870092E-1,-9.240925E-2,-6.2987196E-1,3.1396085E-1,-3.8718225E-3,-2.846432E-3,4.030323E-2,6.815163E-1,1.6614951E-1,-1.5810028E-1,2.499447E-1],"categories":[],"categories_nodes":[],"categories_segments":[],"categories_sizes":[],"default_left":[0,0,0,0,0,0,0,0,0,0,0,0,0,0,0,0,0,0,0,0,0,0,0,0,0,0,0,0,0,0,0,0,0,0,0,0,0,0,0,0,0,0,0,0,0,0,0,0,0,0,0,0,0,0,0,0,0,0,0,0,0,0,0,0,0],"id":11,"left_children":[1,3,5,7,9,-1,11,13,15,17,19,21,23,25,27,-1,29,31,33,-1,-1,35,37,39,41,43,45,47,49,-1,-1,51,-1,53,55,-1,57,-1,-1,-1,59,61,63,-1,-1,-1,-1,-1,-1,-1,-1,-1,-1,-1,-1,-1,-1,-1,-1,-1,-1,-1,-1,-1,-1],"loss_changes":[3.1819792E1,2.9709213E1,1.3924419E1,5.518357E1,6.2258556E1,0E0,1.0345028E1,2.4781775E1,5.4452435E1,2.0891266E1,1.3913694E1,1.061805E1,5.758171E0,2.65519E1,5.1785534E1,0E0,3.1094832E0,7.6520386E0,6.5377812E0,0E0,0E0,1.1947004E0,7.724285E0,6.416887E-1,6.092367E0,4.5558468E1,1.5286492E1,2.1374035E1,2.998934E1,0E0,0E0,9.0296173E-1,0E0,3.639543E-2,4.763088E0,0E0,8.6211467E-1,0E0,0E0,0E0,1.5491361E-2,7.482359E0,2.4601734E0,0E0,0E0,0E0,0E0,0E0,0E0,0E0,0E0,0E0,0E0,0E0,0E0,0E0,0E0,0E0,0E0,0E0,0E0,0E0,0E0,0E0,0E0],"parents":[2147483647,0,0,1,1,2,2,3,3,4,4,6,6,7,7,8,8,9,9,10,10,11,11,12,12,13,13,14,14,16,16,17,17,18,18,21,21,22,22,23,23,24,24,25,25,26,26,27,27,28,28,31,31,33,33,34,34,36,36,40,40,41,41,42,42],"right_children":[2,4,6,8,10,-1,12,14,16,18,20,22,24,26,28,-1,30,32,34,-1,-1,36,38,40,42,44,46,48,50,-1,-1,52,-1,54,56,-1,58,-1,-1,-1,60,62,64,-1,-1,-1,-1,-1,-1,-1,-1,-1,-1,-1,-1,-1,-1,-1,-1,-1,-1,-1,-1,-1,-1],"split_conditions":[1.42715E1,1.35215E1,3.374857E1,1.3221499E1,2.42215E1,-4.9309775E-1,1.7156044E2,-5.5285E0,1.6323528E1,1.40215E1,2.5421501E1,2.1000001E0,1.8439297E2,1.9444852E2,-6.285E-1,1.5733463E0,1.0800001E1,4.5E0,1.40715E1,1.2658728E0,9.395962E-2,1.81215E1,1.45215E1,1E-1,1.935314E1,-9.8785E0,-1.0278501E1,3.0084753E2,1.9968341E2,-2.6693183E-1,2.2148038E-1,6.648543E1,-1.233078E-1,2.13215E1,1.50038395E1,-7.617789E-2,2.05715E1,3.1556985E-1,1.1157272E0,-1.8369046E-1,2.1771502E1,2.4071175E2,2.3021502E1,-1.4373118E0,-1.4391458E-1,3.1961927E-1,-1.9624133E-1,9.165815E-1,-1.2433119E-1,1.06431186E-1,-8.2438454E-2,-3.3107415E-1,-1.2626345E0,4.004488E-2,1.7870092E-1,-9.240925E-2,-6.2987196E-1,3.1396085E-1,-3.8718225E-3,-2.846432E-3,4.030323E-2,6.815163E-1,1.6614951E-1,-1.5810028E-1,2.499447E-1],"split_indices":[1,1,4,1,0,0,4,1,3,1,0,2,4,4,0,0,2,2,1,0,0,0,1,2,3,1,1,4,4,0,0,4,0,0,3,0,0,0,0,0,0,4,0,0,0,0,0,0,0,0,0,0,0,0,0,0,0,0,0,0,0,0,0,0,0],"split_type":[0,0,0,0,0,0,0,0,0,0,0,0,0,0,0,0,0,0,0,0,0,0,0,0,0,0,0,0,0,0,0,0,0,0,0,0,0,0,0,0,0,0,0,0,0,0,0,0,0,0,0,0,0,0,0,0,0,0,0,0,0,0,0,0,0],"sum_hessian":[4.01E2,3.71E2,3E1,3.54E2,1.7E1,1E0,2.9E1,3.48E2,6E0,1.4E1,3E0,1E1,1.9E1,3.5E1,3.13E2,3E0,3E0,6E0,8E0,1E0,2E0,4E0,6E0,4E0,1.5E1,1E1,2.5E1,9E0,3.04E2,2E0,1E0,5E0,1E0,2E0,6E0,1E0,3E0,3E0,3E0,2E0,2E0,1.1E1,4E0,3E0,7E0,6E0,1.9E1,7E0,2E0,1.36E2,1.68E2,1E0,4E0,1E0,1E0,3E0,3E0,2E0,1E0,1E0,1E0,4E0,7E0,3E0,1E0],"tree_param":{"num_deleted":"0","num_feature":"5","num_nodes":"65","size_leaf_vector":"1"}},{"base_weights":[4.9907245E-2,-1.5807223E-1,3.2893836E-1,-3.71001E-2,-1.8975977E0,2.4485195E0,1.4023979E-1,-1.8804976E-1,1.7498401E0,-9.488072E-1,-3.6054173E0,-2.2012384E0,3.9167478E0,1.2076552E0,-4.915881E-2,-5.177717E-2,-1.6599545E0,-6.654584E-2,4.3541837E0,2.9283931E-2,-2.1283734E0,-1.6764164E-1,-4.227369E0,1.7263813E-1,-9.9558747E-1,2.323303E0,2.2056885E0,6.002565E-1,2.276674E0,-1.6792405E0,2.4636595E-1,-1.8511242E-1,4.785314E0,-2.302994E0,1.0056723E0,1.4596189E0,-2.1898675E0,2.1006315E0,6.1771715E-1,4.3488553E-1,-4.4904152E-1,-9.017694E-2,-7.530516E-1,-1.4725044E0,-3.2766482E-1,2.1957341E-1,1.1251999E0,-2.3111093E0,1.334813E0,-1.0316783E0,-7.4610364E-1,1.0256859E0,-2.0981142E-1,-2.1389788E-1,6.921791E-2,1.7159226E0,1.571404E-1,-1.0266304E0,-7.215037E-2,-1.6683556E-2,4.1339132E-1,9.271601E-1,5.674393E-2,-9.4229513E-1,2.421896E-1,-3.9867926E-2,4.304322E-1,-5.539248E-2,-1.955683E-1,4.469284E-1,-3.371417E-1,-1.8718015E-1,-7.73076E-1,1.9528478E0,1.0293477E-1,-6.731857E-2,-5.233925E-1,7.306013E-1,7.835619E-2,-9.413956E-2,1.107187E0],"categories":[],"categories_nodes":[],"categories_segments":[],"categories_sizes":[],"default_left":[0,0,0,0,0,0,0,0,0,0,0,0,0,0,0,0,0,0,0,0,0,0,0,0,0,0,0,0,0,0,0,0,0,0,0,0,0,0,0,0,0,0,0,0,0,0,0,0,0,0,0,0,0,0,0,0,0,0,0,0,0,0,0,0,0,0,0,0,0,0,0,0,0,0,0,0,0,0,0,0,0],"id":12,"left_children":[1,3,5,7,9,11,13,15,17,19,21,23,25,27,29,31,33,35,37,39,41,-1,43,-1,-1,-1,45,47,-1,49,51,53,55,57,59,61,63,-1,65,-1,67,-1,-1,-1,-1,69,-1,71,73,-1,75,77,79,-1,-1,-1,-1,-1,-1,-1,-1,-1,-1,-1,-1,-1,-1,-1,-1,-1,-1,-1,-1,-1,-1,-1,-1,-1,-1,-1,-1],"loss_changes":[2.338116E1,4.8539883E1,6.845007E1,5.886221E1,2.0884594E1,1.0419839E2,3.220392E1,4.0230686E1,8.070814E1,1.2753283E1,7.1119537E0,1.432032E1,5.4960068E1,8.8467926E1,6.592892E1,1.20202446E2,3.1455814E1,3.8842297E1,6.493173E1,5.4066133E0,2.7346916E0,0E0,3.178917E0,0E0,0E0,0E0,2.6792984E1,5.227184E1,0E0,3.1916805E1,4.1454147E1,3.9896393E1,1.6914368E1,3.1491081E1,1.6570907E0,1.39196615E1,1.6788979E1,0E0,2.643836E0,0E0,2.0143878E-1,0E0,0E0,0E0,0E0,1.0205922E1,0E0,6.345196E-1,9.526905E1,0E0,7.422694E0,4.570402E1,3.117213E1,0E0,0E0,0E0,0E0,0E0,0E0,0E0,0E0,0E0,0E0,0E0,0E0,0E0,0E0,0E0,0E0,0E0,0E0,0E0,0E0,0E0,0E0,0E0,0E0,0E0,0E0,0E0,0E0],"parents":[2147483647,0,0,1,1,2,2,3,3,4,4,5,5,6,6,7,7,8,8,9,9,10,10,11,11,12,12,13,13,14,14,15,15,16,16,17,17,18,18,19,19,20,20,22,22,26,26,27,27,29,29,30,30,31,31,32,32,33,33,34,34,35,35,36,36,38,38,40,40,45,45,47,47,48,48,50,50,51,51,52,52],"right_children":[2,4,6,8,10,12,14,16,18,20,22,24,26,28,30,32,34,36,38,40,42,-1,44,-1,-1,-1,46,48,-1,50,52,54,56,58,60,62,64,-1,66,-1,68,-1,-1,-1,-1,70,-1,72,74,-1,76,78,80,-1,-1,-1,-1,-1,-1,-1,-1,-1,-1,-1,-1,-1,-1,-1,-1,-1,-1,-1,-1,-1,-1,-1,-1,-1,-1,-1,-1],"split_conditions":[1.28715E1,1.20215E1,4.6714997E0,1.08215E1,2.6000001E0,5.953454E1,1.50215E1,9.971499E0,1.6039202E1,2.4970863E2,1.20715E1,1.34215E1,1.37715E1,1.49215E1,1.58215E1,9.7715E0,6.8215E0,3.4715002E0,2.3750967E2,1.2245293E1,4.0715E0,-1.6764164E-1,1.25715E1,1.7263813E-1,-9.9558747E-1,2.323303E0,1.57715E1,1.7192294E2,2.276674E0,7.5715E0,1.8368784E2,1.963386E2,5.4715E0,1.02715E1,1.5463244E1,1.2371645E1,5.6215E0,2.1006315E0,1.12715E1,4.3488553E-1,1.23215E1,-9.017694E-2,-7.530516E-1,-1.4725044E0,-3.2766482E-1,3.0715E0,1.1251999E0,1.34215E1,1.9899347E2,-1.0316783E0,1.1721499E1,1.18215E1,2.8739187E1,-2.1389788E-1,6.921791E-2,1.7159226E0,1.571404E-1,-1.0266304E0,-7.215037E-2,-1.6683556E-2,4.1339132E-1,9.271601E-1,5.674393E-2,-9.4229513E-1,2.421896E-1,-3.9867926E-2,4.304322E-1,-5.539248E-2,-1.955683E-1,4.469284E-1,-3.371417E-1,-1.8718015E-1,-7.73076E-1,1.9528478E0,1.0293477E-1,-6.731857E-2,-5.233925E-1,7.306013E-1,7.835619E-2,-9.413956E-2,1.107187E0],"split_indices":[0,0,1,0,2,4,0,0,3,4,0,0,0,0,0,0,1,1,4,3,1,0,0,0,0,0,0,4,0,1,4,4,1,0,3,3,1,0,0,0,0,0,0,0,0,1,0,0,4,0,1,1,3,0,0,0,0,0,0,0,0,0,0,0,0,0,0,0,0,0,0,0,0,0,0,0,0,0,0,0,0],"split_type":[0,0,0,0,0,0,0,0,0,0,0,0,0,0,0,0,0,0,0,0,0,0,0,0,0,0,0,0,0,0,0,0,0,0,0,0,0,0,0,0,0,0,0,0,0,0,0,0,0,0,0,0,0,0,0,0,0,0,0,0,0,0,0,0,0,0,0,0,0,0,0,0,0,0,0,0,0,0,0,0,0],"sum_hessian":[4.01E2,2.3E2,1.71E2,2.16E2,1.4E1,1.3E1,1.58E2,2E2,1.6E1,1E1,4E0,3E0,1E1,2.3E1,1.35E2,1.84E2,1.6E1,1E1,6E0,6E0,4E0,1E0,3E0,1E0,2E0,2E0,8E0,2.2E1,1E0,2E1,1.15E2,1.8E2,4E0,1.3E1,3E0,6E0,4E0,3E0,3E0,1E0,5E0,1E0,3E0,2E0,1E0,4E0,4E0,4E0,1.8E1,6E0,1.4E1,4.2E1,7.3E1,7.9E1,1.01E2,3E0,1E0,8E0,5E0,1E0,2E0,2E0,4E0,3E0,1E0,2E0,1E0,3E0,2E0,2E0,2E0,1E0,3E0,2E0,1.6E1,1E1,4E0,1.4E1,2.8E1,7.2E1,1E0],"tree_param":{"num_deleted":"0","num_feature":"5","num_nodes":"81","size_leaf_vector":"1"}},{"base_weights":[5.354535E-2,-6.5899023E-4,9.8983204E-1,1.5668686E-1,-2.918613E-1,-4.3088654E-1,1.1737562E0,9.449304E-2,2.3277838E0,-1.005884E0,1.2506545E-3,1.8778942E0,4.8916164E-1,-1.03510186E-1,8.9670014E-1,2.8210816E-1,-3.0854788E0,1.558715E0,-2.2218068E-1,2.7973797E0,3.9893264E-1,2.3443756E-1,3.5255644E-1,1.2934881E-1,-1.2373656E0,3.4807556E0,-3.5446372E-2,7.8005576E-1,-1.109765E0,-3.8071876E0,-8.8062364E-1,-1.9678975E0,1.1856263E-2,9.980551E-1,2.2504235E-2,1.6614342E-2,1.8285199E-1,7.722473E-2,2.4740297E-1,-3.562026E-2,3.7738493E-1,-6.5945613E-1,-5.7164133E-3,2.7075917E-1,1.901479E0,-5.58584E-1,1.8544233E-1,6.084522E-1,-1.6382042E-1,-6.158849E-1,6.824015E-1,-1.3231622E0,-2.1841985E-1,1.0374105E0,-8.489391E-1,-3.039304E-1,-1.2528961E0,8.422934E-2,-3.6777356E-1,-5.4408077E-2,9.6109435E-2],"categories":[],"categories_nodes":[],"categories_segments":[],"categories_sizes":[],"default_left":[0,0,0,0,0,0,0,0,0,0,0,0,0,0,0,0,0,0,0,0,0,0,0,0,0,0,0,0,0,0,0,0,0,0,0,0,0,0,0,0,0,0,0,0,0,0,0,0,0,0,0,0,0,0,0,0,0,0,0,0,0],"id":13,"left_children":[1,3,5,7,9,-1,11,13,-1,15,17,19,21,23,25,27,29,-1,31,33,35,37,-1,39,41,43,45,47,49,51,53,55,57,-1,-1,-1,-1,59,-1,-1,-1,-1,-1,-1,-1,-1,-1,-1,-1,-1,-1,-1,-1,-1,-1,-1,-1,-1,-1,-1,-1],"loss_changes":[2.0402473E1,1.750295E1,1.1502745E1,1.1652968E2,2.8045929E1,0E0,9.204439E0,3.9326195E1,0E0,1.0533201E2,1.1257259E2,1.2482864E1,1.8214612E0,5.2701714E1,1.1815057E2,1.8192675E1,2.051625E1,0E0,3.8019623E1,8.398914E0,3.2795984E-1,8.6424595E-1,0E0,4.662716E1,3.9757805E1,9.005441E1,4.5320713E1,3.2555546E1,2.7014828E1,1.722461E1,5.2069527E1,1.896349E1,2.7970411E1,0E0,0E0,0E0,0E0,6.239527E-1,0E0,0E0,0E0,0E0,0E0,0E0,0E0,0E0,0E0,0E0,0E0,0E0,0E0,0E0,0E0,0E0,0E0,0E0,0E0,0E0,0E0,0E0,0E0],"parents":[2147483647,0,0,1,1,2,2,3,3,4,4,6,6,7,7,9,9,10,10,11,11,12,12,13,13,14,14,15,15,16,16,18,18,19,19,20,20,21,21,23,23,24,24,25,25,26,26,27,27,28,28,29,29,30,30,31,31,32,32,37,37],"right_children":[2,4,6,8,10,-1,12,14,-1,16,18,20,22,24,26,28,30,-1,32,34,36,38,-1,40,42,44,46,48,50,52,54,56,58,-1,-1,-1,-1,60,-1,-1,-1,-1,-1,-1,-1,-1,-1,-1,-1,-1,-1,-1,-1,-1,-1,-1,-1,-1,-1,-1,-1],"split_conditions":[1.45215E1,1.8161278E1,3.374857E1,1.81041E1,1.215E-1,-4.3088654E-1,1.609969E1,1.6215992E1,2.3277838E0,2.9215E0,5.215E-1,2.4071175E2,2.46215E1,1.5273505E1,1.3439697E2,-2.1785E0,2.496426E2,1.558715E0,2.0715E0,2.38715E1,1.47715E1,2.1986542E1,3.5255644E-1,1.4408997E1,2.106618E2,7.315397E1,1.9444852E2,2.3157824E1,2.3979893E1,2.5233406E1,3.5215E0,1.7715001E0,1.2471499E1,9.980551E-1,2.2504235E-2,1.6614342E-2,1.8285199E-1,2.2682793E2,2.4740297E-1,-3.562026E-2,3.7738493E-1,-6.5945613E-1,-5.7164133E-3,2.7075917E-1,1.901479E0,-5.58584E-1,1.8544233E-1,6.084522E-1,-1.6382042E-1,-6.158849E-1,6.824015E-1,-1.3231622E0,-2.1841985E-1,1.0374105E0,-8.489391E-1,-3.039304E-1,-1.2528961E0,8.422934E-2,-3.6777356E-1,-5.4408077E-2,9.6109435E-2],"split_indices":[1,3,4,3,1,0,3,3,0,0,1,4,0,3,4,1,4,0,1,0,1,3,0,3,4,4,4,3,3,3,0,1,1,0,0,0,0,4,0,0,0,0,0,0,0,0,0,0,0,0,0,0,0,0,0,0,0,0,0,0,0],"split_type":[0,0,0,0,0,0,0,0,0,0,0,0,0,0,0,0,0,0,0,0,0,0,0,0,0,0,0,0,0,0,0,0,0,0,0,0,0,0,0,0,0,0,0,0,0,0,0,0,0,0,0,0,0,0,0,0,0,0,0,0,0],"sum_hessian":[4.01E2,3.8E2,2.1E1,2.47E2,1.33E2,1E0,2E1,2.46E2,1E0,3.8E1,9.5E1,9E0,1.1E1,1.98E2,4.8E1,2.4E1,1.4E1,3E0,9.2E1,5E0,4E0,9E0,2E0,1.65E2,3.3E1,1.2E1,3.6E1,1.8E1,6E0,1E1,4E0,1E1,8.2E1,4E0,1E0,2E0,2E0,8E0,1E0,1.36E2,2.9E1,1.8E1,1.5E1,7E0,5E0,9E0,2.7E1,9E0,9E0,5E0,1E0,8E0,2E0,1E0,3E0,8E0,2E0,6.8E1,1.4E1,4E0,4E0],"tree_param":{"num_deleted":"0","num_feature":"5","num_nodes":"61","size_leaf_vector":"1"}},{"base_weights":[4.7707334E-2,-1.6223566E-1,2.8281337E-1,1.9000785E0,-2.8394622E-1,2.1132867E0,1.6937993E-1,3.2248309E0,4.9313682E-1,-1.6450559E0,-1.08449176E-1,-1.5645988E0,4.43845E0,8.388786E-1,-8.7446876E-2,1.0822402E0,1.9674726E-1,6.153168E-1,-1.0835902E-1,2.8171635E0,-2.2041798E0,-3.612363E-3,-2.0999472E0,-1.5874538E-1,-6.2355405E-1,2.216641E0,3.7848473E-1,-1.3810365E-1,2.7434971E0,-1.9240048E0,1.4875667E-1,2.985716E-1,-1.8444405E-1,6.706467E-2,1.2006589E0,-2.6147398E-1,-2.7949333E0,-2.7522323E0,6.1465107E-2,-1.0780928E0,-7.5415915E-1,3.867119E-1,-3.5471344E-1,1.9466998E-1,-2.1071248E0,4.674933E0,1.2649931E0,4.0736434E-1,-2.2554166E0,1.1604718E0,5.043316E-2,-2.1935292E-1,2.6566392E-1,1.292028E-1,-3.291548E-1,-1.3970759E0,-5.358584E-1,-9.751614E-1,-1.8859735E-1,2.3018527E-1,-5.5649772E-2,-3.3277664E-1,1.5319835E-1,-1.9708043E-1,3.7459373E-2,-1.2924409E-1,5.106E-1,-7.443932E-1,-9.1557175E-2,1.8569783E0,1.7748909E-1,-7.9370536E-2,1.629604E0,-7.388767E-1,6.632352E-2,-5.7571866E-2,3.6334217E-1],"categories":[],"categories_nodes":[],"categories_segments":[],"categories_sizes":[],"default_left":[0,0,0,0,0,0,0,0,0,0,0,0,0,0,0,0,0,0,0,0,0,0,0,0,0,0,0,0,0,0,0,0,0,0,0,0,0,0,0,0,0,0,0,0,0,0,0,0,0,0,0,0,0,0,0,0,0,0,0,0,0,0,0,0,0,0,0,0,0,0,0,0,0,0,0,0,0],"id":14,"left_children":[1,3,5,7,9,11,13,15,17,19,21,23,25,27,29,-1,-1,-1,31,33,35,37,39,-1,-1,-1,41,43,45,47,49,51,-1,-1,-1,53,55,57,59,-1,61,-1,63,65,67,69,71,-1,73,-1,75,-1,-1,-1,-1,-1,-1,-1,-1,-1,-1,-1,-1,-1,-1,-1,-1,-1,-1,-1,-1,-1,-1,-1,-1,-1,-1],"loss_changes":[1.9888147E1,5.4003677E1,3.9093063E1,2.0775906E1,4.807349E1,1.0101291E2,3.1023493E1,3.5321121E0,6.781823E0,6.3593006E1,3.7573227E1,1.560811E0,8.105176E1,9.3417816E1,5.71142E1,0E0,0E0,0E0,1.4201167E0,8.325872E0,2.3370056E1,3.0935362E1,1.5381599E1,0E0,0E0,0E0,3.1277084E0,2.2688295E1,4.2632042E1,1.937743E1,4.2593285E1,3.065235E0,0E0,0E0,0E0,3.9431446E0,2.1733948E1,2.1892796E0,2.9601082E1,0E0,3.2612517E0,0E0,5.16844E-1,2.9017548E1,2.6140194E0,3.964113E1,7.154799E1,0E0,7.7389145E0,0E0,3.2580208E1,0E0,0E0,0E0,0E0,0E0,0E0,0E0,0E0,0E0,0E0,0E0,0E0,0E0,0E0,0E0,0E0,0E0,0E0,0E0,0E0,0E0,0E0,0E0,0E0,0E0,0E0],"parents":[2147483647,0,0,1,1,2,2,3,3,4,4,5,5,6,6,7,7,8,8,9,9,10,10,11,11,12,12,13,13,14,14,18,18,19,19,20,20,21,21,22,22,26,26,27,27,28,28,29,29,30,30,31,31,35,35,36,36,37,37,38,38,40,40,42,42,43,43,44,44,45,45,46,46,48,48,50,50],"right_children":[2,4,6,8,10,12,14,16,18,20,22,24,26,28,30,-1,-1,-1,32,34,36,38,40,-1,-1,-1,42,44,46,48,50,52,-1,-1,-1,54,56,58,60,-1,62,-1,64,66,68,70,72,-1,74,-1,76,-1,-1,-1,-1,-1,-1,-1,-1,-1,-1,-1,-1,-1,-1,-1,-1,-1,-1,-1,-1,-1,-1,-1,-1,-1,-1],"split_conditions":[6E-1,9.422101E0,7E-1,2.1378938E2,5.424262E1,4.9715E0,4.3715E0,1.09215E1,-1.25785E1,-6.285E-1,5E-1,-4.9785004E0,8.2715E0,-6.785E-1,6.3715E0,1.0822402E0,1.9674726E-1,6.153168E-1,8.39657E0,-8.785E-1,1.9032545E1,9.6932955E0,2.245357E2,-1.5874538E-1,-6.2355405E-1,2.216641E0,2.0073004E2,3.0715E0,4.215E-1,8E-1,6.9214997E0,7.771331E0,-1.8444405E-1,6.706467E-2,1.2006589E0,1.2224107E1,4.2215E0,8.971499E0,1.8636163E2,-1.0780928E0,1.30715E1,3.867119E-1,1.4221499E1,1.6215E0,4.1215E0,3.3999999E0,3.8715E0,4.0736434E-1,3.0928587E1,1.1604718E0,1E1,-2.1935292E-1,2.6566392E-1,1.292028E-1,-3.291548E-1,-1.3970759E0,-5.358584E-1,-9.751614E-1,-1.8859735E-1,2.3018527E-1,-5.5649772E-2,-3.3277664E-1,1.5319835E-1,-1.9708043E-1,3.7459373E-2,-1.2924409E-1,5.106E-1,-7.443932E-1,-9.1557175E-2,1.8569783E0,1.7748909E-1,-7.9370536E-2,1.629604E0,-7.388767E-1,6.632352E-2,-5.7571866E-2,3.6334217E-1],"split_indices":[2,3,2,4,4,0,0,0,1,0,2,1,1,1,0,0,0,0,3,0,4,3,4,0,0,0,4,0,1,2,0,3,0,0,0,3,0,0,4,0,1,0,0,0,0,2,0,0,3,0,2,0,0,0,0,0,0,0,0,0,0,0,0,0,0,0,0,0,0,0,0,0,0,0,0,0,0],"split_type":[0,0,0,0,0,0,0,0,0,0,0,0,0,0,0,0,0,0,0,0,0,0,0,0,0,0,0,0,0,0,0,0,0,0,0,0,0,0,0,0,0,0,0,0,0,0,0,0,0,0,0,0,0,0,0,0,0,0,0,0,0,0,0,0,0,0,0,0,0,0,0,0,0,0,0,0,0],"sum_hessian":[4.01E2,2.12E2,1.89E2,1.1E1,2.01E2,1E1,1.79E2,5E0,6E0,2.2E1,1.79E2,4E0,6E0,4.9E1,1.3E2,4E0,1E0,1E0,5E0,2E0,2E1,1.71E2,8E0,2E0,2E0,3E0,3E0,3.3E1,1.6E1,1.4E1,1.16E2,3E0,2E0,1E0,1E0,5E0,1.5E1,3E0,1.68E2,3E0,5E0,1E0,2E0,2.9E1,4E0,6E0,1E1,1E0,1.3E1,2E0,1.14E2,1E0,2E0,3E0,2E0,4E0,1.1E1,2E0,1E0,4.3E1,1.25E2,4E0,1E0,1E0,1E0,2.1E1,8E0,3E0,1E0,4E0,2E0,8E0,2E0,1.2E1,1E0,9.5E1,1.9E1],"tree_param":{"num_deleted":"0","num_feature":"5","num_nodes":"77","size_leaf_vector":"1"}},{"base_weights":[4.492919E-2,1.6929047E-1,-2.669054E-1,-1.7180879E-2,8.78168E-1,-1.4722164E0,-1.3809277E-1,-2.29622E0,3.3540796E-2,1.4826474E0,5.7756925E-1,5.0345135E-1,-1.9550722E0,1.8492875E0,-2.1467541E-1,-9.3905544E-1,-1.1587318E0,9.889467E-1,-8.5457645E-2,1.7078377E0,-1.2919399E-1,-3.6227543E-2,-2.430255E0,-9.473405E-2,8.028711E-1,4.1293702E-1,-4.4612172E-1,-7.5721264E-2,-3.2514137E-1,-2.665365E-1,2.3712647E0,-4.999591E-1,2.5512877E-1,3.104105E0,2.856063E-1,-1.6631166E0,1.718618E-1,-3.7817103E-1,3.6186862E-1,-8.904654E-1,-1.6327325E-1,1.0139179E0,-1.2162548E0,-2.7405748E0,-3.1245595E-1,3.3449866E-2,-1.9815032E-1,1.2386358E0,3.9800116E-1,-3.892198E-1,8.225545E-2,3.3144894E-1,-4.5215447E-2,1.0459723E0,-1.0808859E-1,6.098039E-1,-7.7004963E-1,-6.579907E-1,-1.20549105E-1,1.9243033E-1,-1.332451E-1,1.935611E-2,1.0129975E0,-4.3426117E-1,6.0408212E-2,-1.1174569E0,3.1840324E-2,1.1294572E0,-1.2687272E-1],"categories":[],"categories_nodes":[],"categories_segments":[],"categories_sizes":[],"default_left":[0,0,0,0,0,0,0,0,0,0,0,0,0,0,0,0,0,0,0,0,0,0,0,0,0,0,0,0,0,0,0,0,0,0,0,0,0,0,0,0,0,0,0,0,0,0,0,0,0,0,0,0,0,0,0,0,0,0,0,0,0,0,0,0,0,0,0,0,0],"id":15,"left_children":[1,3,5,7,9,11,13,15,17,-1,19,-1,21,23,25,27,-1,29,31,33,35,37,39,-1,-1,41,43,-1,-1,45,47,49,51,53,55,57,59,-1,-1,-1,-1,61,63,65,67,-1,-1,-1,-1,-1,-1,-1,-1,-1,-1,-1,-1,-1,-1,-1,-1,-1,-1,-1,-1,-1,-1,-1,-1],"loss_changes":[1.5634805E1,3.808447E1,1.7651514E1,2.6548658E1,7.0443375E1,2.001396E1,1.637787E1,7.0010414E0,2.5665169E1,0E0,4.575407E1,0E0,9.029972E0,8.006708E0,1.5000595E1,1.2401128E-1,0E0,4.401896E1,2.8503439E1,4.2801384E1,1.6910492E1,6.0841117E0,6.501396E0,0E0,0E0,2.864835E1,2.2145426E1,0E0,0E0,2.1587048E0,1.6553215E1,5.6533073E1,3.8444706E1,1.5831497E1,6.501858E1,3.1309605E0,9.252029E0,0E0,0E0,0E0,0E0,4.6888912E1,2.9144325E0,1.1603186E1,3.4017532E1,0E0,0E0,0E0,0E0,0E0,0E0,0E0,0E0,0E0,0E0,0E0,0E0,0E0,0E0,0E0,0E0,0E0,0E0,0E0,0E0,0E0,0E0,0E0,0E0],"parents":[2147483647,0,0,1,1,2,2,3,3,4,4,5,5,6,6,7,7,8,8,10,10,12,12,13,13,14,14,15,15,17,17,18,18,19,19,20,20,21,21,22,22,25,25,26,26,29,29,30,30,31,31,32,32,33,33,34,34,35,35,36,36,41,41,42,42,43,43,44,44],"right_children":[2,4,6,8,10,12,14,16,18,-1,20,-1,22,24,26,28,-1,30,32,34,36,38,40,-1,-1,42,44,-1,-1,46,48,50,52,54,56,58,60,-1,-1,-1,-1,62,64,66,68,-1,-1,-1,-1,-1,-1,-1,-1,-1,-1,-1,-1,-1,-1,-1,-1,-1,-1,-1,-1,-1,-1,-1,-1],"split_conditions":[2.567662E2,2.245357E2,2.6122174E2,-9.8785E0,2.2522423E2,2.3215E0,2.6234824E2,1.2214999E0,-2.9785E0,1.4826474E0,4.0215E0,5.0345135E-1,2.5822064E2,2.9215E0,1.272283E1,-6.285E-1,-1.1587318E0,-4.3285003E0,6E-1,2.4071175E2,2.2933517E2,4.1215E0,2.0000002E0,-9.473405E-2,8.028711E-1,2.4715002E0,1.2904882E1,-7.5721264E-2,-3.2514137E-1,3.7150002E-1,-3.8285E0,1.4471821E1,1.477755E1,2.1611998E1,1.8971008E1,1.8921501E1,2.4664584E2,-3.7817103E-1,3.6186862E-1,-8.904654E-1,-1.6327325E-1,-1.8785E0,1.9021502E1,7.5214996E0,1.2959999E1,3.3449866E-2,-1.9815032E-1,1.2386358E0,3.9800116E-1,-3.892198E-1,8.225545E-2,3.3144894E-1,-4.5215447E-2,1.0459723E0,-1.0808859E-1,6.098039E-1,-7.7004963E-1,-6.579907E-1,-1.20549105E-1,1.9243033E-1,-1.332451E-1,1.935611E-2,1.0129975E0,-4.3426117E-1,6.0408212E-2,-1.1174569E0,3.1840324E-2,1.1294572E0,-1.2687272E-1],"split_indices":[4,4,4,1,4,0,4,0,1,0,1,0,4,0,3,0,0,1,2,4,4,0,2,0,0,1,3,0,0,0,1,3,3,3,3,0,4,0,0,0,0,1,0,0,3,0,0,0,0,0,0,0,0,0,0,0,0,0,0,0,0,0,0,0,0,0,0,0,0],"split_type":[0,0,0,0,0,0,0,0,0,0,0,0,0,0,0,0,0,0,0,0,0,0,0,0,0,0,0,0,0,0,0,0,0,0,0,0,0,0,0,0,0,0,0,0,0,0,0,0,0,0,0,0,0,0,0,0,0,0,0,0,0,0,0,0,0,0,0,0,0],"sum_hessian":[4.01E2,2.87E2,1.14E2,2.28E2,5.9E1,1E1,1.04E2,4E0,2.24E2,3E0,5.6E1,1E0,9E0,3E0,1.01E2,3E0,1E0,2.4E1,2E2,2.1E1,3.5E1,2E0,7E0,1E0,2E0,2.7E1,7.4E1,1E0,2E0,1.3E1,1.1E1,9E1,1.1E2,1E1,1.1E1,5E0,3E1,1E0,1E0,5E0,2E0,2E1,7E0,3E0,7.1E1,7E0,6E0,3E0,8E0,4.4E1,4.6E1,3.5E1,7.5E1,9E0,1E0,7E0,4E0,3E0,2E0,1.7E1,1.3E1,1.5E1,5E0,6E0,1E0,2E0,1E0,1E0,7E1],"tree_param":{"num_deleted":"0","num_feature":"5","num_nodes":"69","size_leaf_vector":"1"}},{"base_weights":[3.6797624E-2,-7.90638E-2,3.5696757E-1,-3.2488775E-1,1.7231482E-1,7.5403106E-1,1.3327715E-1,1.17001325E-1,-1.0479174E0,2.601886E-1,-1.3870157E0,8.569616E-1,-2.143524E-1,-2.2479868E-1,1.1818969E0,-2.2167234E0,-6.869752E-1,5.3163044E-2,1.9818574E0,-2.188612E0,-3.826642E-2,2.1088579E0,4.3108773E-1,-2.5137243E0,9.580305E-2,6.4607696E-3,-2.0756817E0,2.4842412E0,1.6722973E-1,-2.575952E0,3.1410313E-1,9.750739E-1,-9.456889E-1,2.6171088E-1,-6.53418E-1,2.509341E0,-9.64524E-1,-2.0452186E-1,-8.8978416E-1,-1.110837E-1,1.436657E-1,-8.876387E-1,1.1013212E0,-3.423294E0,1.4332359E-1,-1.272314E0,3.3075017E-1,-2.547652E-1,1.6874701E-1,-4.4942096E-2,-8.078017E-1,1.9386722E-1,1.2579042E0,-8.765195E-1,3.825857E-1,9.704137E-2,-9.5645523E-1,-5.9534484E-1,-1.4386788E-1,-1.2398306E-1,2.2634365E-1,-1.1339839E0,-4.4184677E-2,1.4103309E0,3.0386403E-1,-3.577193E-1,-7.6316506E-2,-7.4829185E-1,1.160359E-1,8.585846E-1,1.5561183E-1,-1.2490531E0,-3.885723E-1,-6.3938856E-2,1.2843448E-1,-9.197047E-1,4.059515E-2,6.415524E-2,9.438927E-1],"categories":[],"categories_nodes":[],"categories_segments":[],"categories_sizes":[],"default_left":[0,0,0,0,0,0,0,0,0,0,0,0,0,0,0,0,0,0,0,0,0,0,0,0,0,0,0,0,0,0,0,0,0,0,0,0,0,0,0,0,0,0,0,0,0,0,0,0,0,0,0,0,0,0,0,0,0,0,0,0,0,0,0,0,0,0,0,0,0,0,0,0,0,0,0,0,0,0,0],"id":16,"left_children":[1,3,5,7,9,-1,11,13,15,17,19,21,23,25,27,29,31,33,35,37,39,-1,41,43,45,47,49,51,53,55,-1,-1,57,59,61,63,65,-1,-1,-1,-1,67,69,71,73,75,77,-1,-1,-1,-1,-1,-1,-1,-1,-1,-1,-1,-1,-1,-1,-1,-1,-1,-1,-1,-1,-1,-1,-1,-1,-1,-1,-1,-1,-1,-1,-1,-1],"loss_changes":[1.4940553E1,1.8347271E1,5.127984E1,4.8047443E1,2.0503454E1,0E0,2.4837954E1,3.447993E1,2.252383E1,4.979476E1,8.565469E0,8.108914E1,4.8022724E1,3.0831873E1,2.9977825E1,1.7938595E1,4.8911304E1,1.8737856E1,2.5732838E1,3.8347225E0,8.6412525E-1,0E0,2.8377071E1,1.9824799E1,1.9706928E1,3.1403511E1,9.102589E0,2.8697903E1,5.164443E1,2.2332718E1,0E0,0E0,1.9869446E1,3.2907814E1,4.5334267E1,3.787686E1,1.8213177E-1,0E0,0E0,0E0,0E0,2.348811E1,2.0056616E1,4.058571E0,3.9578816E-1,2.3134445E1,1.6442284E1,0E0,0E0,0E0,0E0,0E0,0E0,0E0,0E0,0E0,0E0,0E0,0E0,0E0,0E0,0E0,0E0,0E0,0E0,0E0,0E0,0E0,0E0,0E0,0E0,0E0,0E0,0E0,0E0,0E0,0E0,0E0,0E0],"parents":[2147483647,0,0,1,1,2,2,3,3,4,4,6,6,7,7,8,8,9,9,10,10,11,11,12,12,13,13,14,14,15,15,16,16,17,17,18,18,19,19,20,20,22,22,23,23,24,24,25,25,26,26,27,27,28,28,29,29,32,32,33,33,34,34,35,35,36,36,41,41,42,42,43,43,44,44,45,45,46,46],"right_children":[2,4,6,8,10,-1,12,14,16,18,20,22,24,26,28,30,32,34,36,38,40,-1,42,44,46,48,50,52,54,56,-1,-1,58,60,62,64,66,-1,-1,-1,-1,68,70,72,74,76,78,-1,-1,-1,-1,-1,-1,-1,-1,-1,-1,-1,-1,-1,-1,-1,-1,-1,-1,-1,-1,-1,-1,-1,-1,-1,-1,-1,-1,-1,-1,-1,-1],"split_conditions":[1.7171501E1,6E-1,6.4214997E0,1.7715001E0,1.1721499E1,7.5403106E-1,1.7156044E2,7.7714996E0,1.13098915E2,1.4221499E1,8.899999E0,1.7421501E1,1.18215E1,6.2215E0,1.2474711E2,2.0617662E1,1.23319016E2,5.1215E0,6.7999997E0,1.21215E1,1.55215E1,2.1088579E0,1.3708391E1,2.0665337E2,1.8850252E2,2.2023627E2,2.3564886E2,4.829822E1,1.8802827E2,9.826088E0,3.1410313E-1,9.750739E-1,1.3358861E1,-6.285E-1,1.0977618E2,1.50215E1,1.46715E1,-2.0452186E-1,-8.8978416E-1,-1.110837E-1,1.436657E-1,3E-1,1.4799459E1,1.14215E1,1.7421501E1,2.07215E1,2.6099379E1,-2.547652E-1,1.6874701E-1,-4.4942096E-2,-8.078017E-1,1.9386722E-1,1.2579042E0,-8.765195E-1,3.825857E-1,9.704137E-2,-9.5645523E-1,-5.9534484E-1,-1.4386788E-1,-1.2398306E-1,2.2634365E-1,-1.1339839E0,-4.4184677E-2,1.4103309E0,3.0386403E-1,-3.577193E-1,-7.6316506E-2,-7.4829185E-1,1.160359E-1,8.585846E-1,1.5561183E-1,-1.2490531E0,-3.885723E-1,-6.3938856E-2,1.2843448E-1,-9.197047E-1,4.059515E-2,6.415524E-2,9.438927E-1],"split_indices":[0,2,1,1,1,0,4,0,4,0,2,0,1,0,4,3,4,1,2,1,0,0,3,4,4,4,4,4,4,3,0,0,3,1,4,0,0,0,0,0,0,2,3,1,0,0,3,0,0,0,0,0,0,0,0,0,0,0,0,0,0,0,0,0,0,0,0,0,0,0,0,0,0,0,0,0,0,0,0],"split_type":[0,0,0,0,0,0,0,0,0,0,0,0,0,0,0,0,0,0,0,0,0,0,0,0,0,0,0,0,0,0,0,0,0,0,0,0,0,0,0,0,0,0,0,0,0,0,0,0,0,0,0,0,0,0,0,0,0,0,0,0,0,0,0,0,0,0,0,0,0,0,0,0,0,0,0,0,0,0,0],"sum_hessian":[4.01E2,2.95E2,1.06E2,1.49E2,1.46E2,9E0,9.7E1,9.3E1,5.6E1,1.39E2,7E0,3.1E1,6.6E1,7.1E1,2.2E1,1.2E1,4.4E1,1.25E2,1.4E1,4E0,3E0,1E0,3E1,7E0,5.9E1,6.4E1,7E0,9E0,1.3E1,1.1E1,1E0,2E0,4.2E1,9.7E1,2.8E1,1.2E1,2E0,2E0,2E0,2E0,1E0,1E1,2E1,5E0,2E0,8E0,5.1E1,2.5E1,3.9E1,2E0,5E0,5E0,4E0,3E0,1E1,2E0,9E0,1.2E1,3E1,4.1E1,5.6E1,3E0,2.5E1,4E0,8E0,1E0,1E0,4E0,6E0,4E0,1.6E1,3E0,2E0,1E0,1E0,3E0,5E0,5E1,1E0],"tree_param":{"num_deleted":"0","num_feature":"5","num_nodes":"79","size_leaf_vector":"1"}},{"base_weights":[2.7382351E-2,-4.5626167E-2,4.2848754E-1,1.9339114E-1,-1.8484169E-1,1.8004113E0,2.2114432E-1,8.9994825E-2,9.973441E-1,-1.3110609E0,-6.323229E-2,1.0013527E0,2.1038456E-1,-1.0720277E0,5.3233874E-1,5.024342E-1,-2.7381545E-1,-9.3121104E-2,-2.053399E0,2.8929253E0,-1.5576482E-1,-2.4569108E-1,2.0173974E-1,-1.9438872E0,1.9008936E0,1.4500986E0,2.286902E-1,2.4522772E-1,3.9134147E0,-3.9161402E-1,1.6499658E0,-1.8868215E0,1.7192036E0,-7.473442E-1,-8.3287966E-1,1.2918739E0,-6.260519E-1,1.2575533E0,-2.3256381E-1,3.5522842E-1,-2.6515243E0,1.5609542E-1,6.993067E-1,2.817925E0,-7.5487804E-1,-2.0977516E0,4.332549E-1,4.1312093E-1,-1.8467717E-3,1.4524558E0,1.693654E-1,1.0052874E-1,-2.1391092E-1,6.867831E-1,-4.0195085E-2,-3.2922078E-2,-6.910971E-1,-4.9954435E-1,8.9447355E-1,-3.2781208E-1,-1.1323738E-2,-2.3161119E-1,6.713007E-1,-1.0504924E0,-4.1828778E-2,2.5926077E-1,-9.940796E-2,-9.093246E-1,-5.612698E-2,1.5767838E0,2.3745827E-1,-5.307293E-2,-3.243661E-1,-1.013165E0,6.9176674E-2,3.6487338E-1,4.0214527E-2],"categories":[],"categories_nodes":[],"categories_segments":[],"categories_sizes":[],"default_left":[0,0,0,0,0,0,0,0,0,0,0,0,0,0,0,0,0,0,0,0,0,0,0,0,0,0,0,0,0,0,0,0,0,0,0,0,0,0,0,0,0,0,0,0,0,0,0,0,0,0,0,0,0,0,0,0,0,0,0,0,0,0,0,0,0,0,0,0,0,0,0,0,0,0,0,0,0],"id":17,"left_children":[1,3,5,7,9,11,13,15,-1,17,19,-1,21,23,25,27,29,31,33,35,37,-1,-1,39,41,43,45,47,49,51,53,55,57,59,-1,-1,-1,61,63,65,67,-1,-1,69,71,73,75,-1,-1,-1,-1,-1,-1,-1,-1,-1,-1,-1,-1,-1,-1,-1,-1,-1,-1,-1,-1,-1,-1,-1,-1,-1,-1,-1,-1,-1,-1],"loss_changes":[1.1791758E1,1.1382494E1,1.7238316E1,4.049244E1,2.9500208E1,1.885422E1,2.2704218E1,1.8593687E1,0E0,1.8795376E1,5.4064598E1,0E0,2.928957E0,3.220679E1,1.22088175E1,4.9925243E1,1.5602983E1,3.2500736E1,1.0198517E1,5.121448E1,2.1023872E1,0E0,0E0,1.5584354E1,5.686035E-1,3.5303467E1,1.7565638E1,1.5657435E1,9.699093E0,1.4954521E1,4.868718E0,3.4509468E0,2.6326366E1,1.4291682E0,0E0,0E0,0E0,2.1619898E1,5.492423E1,1.334729E0,5.980671E0,0E0,0E0,3.0422565E1,7.517991E-1,9.715837E0,7.568059E0,0E0,0E0,0E0,0E0,0E0,0E0,0E0,0E0,0E0,0E0,0E0,0E0,0E0,0E0,0E0,0E0,0E0,0E0,0E0,0E0,0E0,0E0,0E0,0E0,0E0,0E0,0E0,0E0,0E0,0E0],"parents":[2147483647,0,0,1,1,2,2,3,3,4,4,5,5,6,6,7,7,9,9,10,10,12,12,13,13,14,14,15,15,16,16,17,17,18,18,19,19,20,20,23,23,24,24,25,25,26,26,27,27,28,28,29,29,30,30,31,31,32,32,33,33,37,37,38,38,39,39,40,40,43,43,44,44,45,45,46,46],"right_children":[2,4,6,8,10,12,14,16,-1,18,20,-1,22,24,26,28,30,32,34,36,38,-1,-1,40,42,44,46,48,50,52,54,56,58,60,-1,-1,-1,62,64,66,68,-1,-1,70,72,74,76,-1,-1,-1,-1,-1,-1,-1,-1,-1,-1,-1,-1,-1,-1,-1,-1,-1,-1,-1,-1,-1,-1,-1,-1,-1,-1,-1,-1,-1,-1],"split_conditions":[2.02215E1,5.215E-1,2.0671501E1,1.715E-1,1.3715E0,9.5715E0,1.21215E1,1.48257065E1,9.973441E-1,1E-1,4.1215E0,1.0013527E0,2.03215E1,2.6771502E1,1.35215E1,2.0000002E0,2.9157776E1,8.215E-1,1.5966006E2,1.9714999E0,1.7715001E0,-2.4569108E-1,2.0173974E-1,9.2715E0,2.72215E1,2.2486932E2,1.35715E1,8.942214E0,-5.285E-1,1E-1,3.4715002E0,5.715E-1,1.1200571E1,1.23319016E2,-8.3287966E-1,1.2918739E0,-6.260519E-1,2.0955629E2,2.0715E0,2.32215E1,1.1971499E1,1.5609542E-1,6.993067E-1,1E-1,2.23715E1,2.25715E1,1.6973175E2,4.1312093E-1,-1.8467717E-3,1.4524558E0,1.693654E-1,1.0052874E-1,-2.1391092E-1,6.867831E-1,-4.0195085E-2,-3.2922078E-2,-6.910971E-1,-4.9954435E-1,8.9447355E-1,-3.2781208E-1,-1.1323738E-2,-2.3161119E-1,6.713007E-1,-1.0504924E0,-4.1828778E-2,2.5926077E-1,-9.940796E-2,-9.093246E-1,-5.612698E-2,1.5767838E0,2.3745827E-1,-5.307293E-2,-3.243661E-1,-1.013165E0,6.9176674E-2,3.6487338E-1,4.0214527E-2],"split_indices":[0,1,0,1,1,1,1,3,0,2,0,0,0,0,1,2,3,1,4,1,1,0,0,1,0,4,1,3,1,2,0,1,3,4,0,0,0,4,1,0,1,0,0,2,0,0,4,0,0,0,0,0,0,0,0,0,0,0,0,0,0,0,0,0,0,0,0,0,0,0,0,0,0,0,0,0,0],"split_type":[0,0,0,0,0,0,0,0,0,0,0,0,0,0,0,0,0,0,0,0,0,0,0,0,0,0,0,0,0,0,0,0,0,0,0,0,0,0,0,0,0,0,0,0,0,0,0,0,0,0,0,0,0,0,0,0,0,0,0,0,0,0,0,0,0,0,0,0,0,0,0,0,0,0,0,0,0],"sum_hessian":[4.01E2,3.4E2,6.1E1,1.25E2,2.15E2,7E0,5.4E1,1.22E2,3E0,2E1,1.95E2,3E0,4E0,1E1,4.4E1,5.7E1,6.5E1,8E0,1.2E1,5E0,1.9E2,1E0,3E0,8E0,2E0,1E1,3.4E1,5.4E1,3E0,6.2E1,3E0,4E0,4E0,5E0,7E0,4E0,1E0,9E0,1.81E2,2E0,6E0,1E0,1E0,6E0,4E0,2E0,3.2E1,9E0,4.5E1,2E0,1E0,1.9E1,4.3E1,2E0,1E0,1E0,3E0,1E0,3E0,3E0,2E0,3E0,6E0,4E0,1.77E2,1E0,1E0,5E0,1E0,2E0,4E0,2E0,2E0,1E0,1E0,8E0,2.4E1],"tree_param":{"num_deleted":"0","num_feature":"5","num_nodes":"77","size_leaf_vector":"1"}},{"base_weights":[2.9070178E-2,-1.222976E-2,5.237317E-1,2.7136624E-1,-8.839253E-2,-1.6577244E-1,6.958436E-1,1.5824886E-1,7.058265E-1,-2.0265913E0,-2.70912E-2,2.0485555E-1,-4.2101845E-1,1.1389042E0,2.6637417E-1,1.3730452E0,-6.845583E-2,-9.268969E-1,-1.1751044E0,2.3390975E0,-6.8948835E-2,-2.0749648E-1,2.4050904E-2,1.508414E0,3.1990775E-1,1.0402775E-1,2.4809055E-1,-2.892431E-1,3.7580974E0,1.7491059E-1,-1.6021703E0,2.4924755E-2,-4.9409834E-1,9.405435E-1,-1.2676364E-1,-1.762209E0,-2.5754014E-2,6.858883E-1,6.478403E-1,1.182169E-1,4.1736983E-2,4.3395615E-1,-1.1518097E-1,1.5514347E-1,-5.416814E-1,1.7104129E0,1.6863593E-1,-5.869752E-2,4.7425476E-1,-1.0357115E0,-3.0502321E-2,-6.891346E-2,1.1832505E-1,-9.728956E-1,3.8794634E-1,3.441402E-1,-2.5023695E-2,1.1938858E-2,3.310053E-1,-6.999264E-2,1.9772989E-1,1.5677547E-1,-8.428361E-2],"categories":[],"categories_nodes":[],"categories_segments":[],"categories_sizes":[],"default_left":[0,0,0,0,0,0,0,0,0,0,0,0,0,0,0,0,0,0,0,0,0,0,0,0,0,0,0,0,0,0,0,0,0,0,0,0,0,0,0,0,0,0,0,0,0,0,0,0,0,0,0,0,0,0,0,0,0,0,0,0,0,0,0],"id":18,"left_children":[1,3,5,7,9,11,13,15,-1,17,19,-1,21,23,25,27,29,31,-1,33,35,-1,-1,37,39,41,-1,43,45,47,49,51,-1,-1,-1,53,55,57,-1,-1,-1,59,61,-1,-1,-1,-1,-1,-1,-1,-1,-1,-1,-1,-1,-1,-1,-1,-1,-1,-1,-1,-1],"loss_changes":[8.219061E0,8.058986E0,3.79418E0,1.822754E1,3.487646E1,1.8037488E0,4.4536495E0,2.1024395E1,0E0,1.5079323E1,2.8487595E1,0E0,8.6928844E-1,3.1489735E0,1.1881192E0,4.8662735E1,2.4541784E1,4.838882E0,0E0,1.23167305E1,2.0580114E1,0E0,0E0,2.8029118E0,1.2202144E-2,9.178617E-1,0E0,1.0715964E1,2.7848518E1,3.0006147E1,2.463496E1,4.6694642E-1,0E0,0E0,0E0,3.5863846E1,1.876066E1,1.3046877E0,0E0,0E0,0E0,9.049253E-1,9.9256885E-1,0E0,0E0,0E0,0E0,0E0,0E0,0E0,0E0,0E0,0E0,0E0,0E0,0E0,0E0,0E0,0E0,0E0,0E0,0E0,0E0],"parents":[2147483647,0,0,1,1,2,2,3,3,4,4,5,5,6,6,7,7,9,9,10,10,12,12,13,13,14,14,15,15,16,16,17,17,19,19,20,20,23,23,24,24,25,25,27,27,28,28,29,29,30,30,31,31,35,35,36,36,37,37,41,41,42,42],"right_children":[2,4,6,8,10,12,14,16,-1,18,20,-1,22,24,26,28,30,32,-1,34,36,-1,-1,38,40,42,-1,44,46,48,50,52,-1,-1,-1,54,56,58,-1,-1,-1,60,62,-1,-1,-1,-1,-1,-1,-1,-1,-1,-1,-1,-1,-1,-1,-1,-1,-1,-1,-1,-1],"split_conditions":[1.42715E1,3.0715E0,1.2783802E1,2.9215E0,3.3715E0,2.15715E1,1.6965895E1,4.0914326E1,7.058265E-1,1.642247E1,3.5215E0,2.0485555E-1,1.2245293E1,2.4071175E2,2.46215E1,-2.1285E0,-7.785E-1,5.715E-1,-1.1751044E0,2.5367801E2,3.6715E0,-2.0749648E-1,2.4050904E-2,1.4471499E1,6E-1,2.05715E1,2.4809055E-1,-3.3285E0,-5.285E-1,1.6215E0,7E-1,1.530741E1,-4.9409834E-1,9.405435E-1,-1.2676364E-1,1.3715E0,4.3715E0,1.5876775E1,6.478403E-1,1.182169E-1,4.1736983E-2,1.81215E1,1.4407468E2,1.5514347E-1,-5.416814E-1,1.7104129E0,1.6863593E-1,-5.869752E-2,4.7425476E-1,-1.0357115E0,-3.0502321E-2,-6.891346E-2,1.1832505E-1,-9.728956E-1,3.8794634E-1,3.441402E-1,-2.5023695E-2,1.1938858E-2,3.310053E-1,-6.999264E-2,1.9772989E-1,1.5677547E-1,-8.428361E-2],"split_indices":[1,0,3,0,0,0,3,4,0,3,0,0,3,4,0,1,1,1,0,4,0,0,0,1,2,0,0,1,1,0,2,3,0,0,0,1,0,3,0,0,0,0,4,0,0,0,0,0,0,0,0,0,0,0,0,0,0,0,0,0,0,0,0],"split_type":[0,0,0,0,0,0,0,0,0,0,0,0,0,0,0,0,0,0,0,0,0,0,0,0,0,0,0,0,0,0,0,0,0,0,0,0,0,0,0,0,0,0,0,0,0,0,0,0,0,0,0,0,0,0,0,0,0,0,0,0,0,0,0],"sum_hessian":[4.01E2,3.71E2,3E1,7.8E1,2.93E2,6E0,2.4E1,7.5E1,3E0,8E0,2.85E2,1E0,5E0,1.1E1,1.3E1,1.1E1,6.4E1,6E0,2E0,4E0,2.81E2,3E0,2E0,7E0,4E0,1.1E1,2E0,7E0,4E0,5.6E1,8E0,3E0,3E0,3E0,1E0,6E0,2.75E2,4E0,3E0,2E0,2E0,4E0,7E0,5E0,2E0,2E0,2E0,4.5E1,1.1E1,3E0,5E0,2E0,1E0,4E0,2E0,1.2E1,2.63E2,2E0,2E0,1E0,3E0,1E0,6E0],"tree_param":{"num_deleted":"0","num_feature":"5","num_nodes":"63","size_leaf_vector":"1"}},{"base_weights":[2.5563864E-2,1.1640339E-1,-2.0215221E-1,1.322742E0,6.8251856E-2,-1.1621795E0,-8.9436054E-2,7.7122116E-1,2.4235371E-1,-1.8064672E0,9.52723E-2,-1.9387462E0,-6.2488396E-2,6.2969947E-1,-1.5292494E-1,-4.5557562E-1,6.1264056E-1,-6.421609E-2,-6.7977613E-1,9.4342685E-1,4.2711746E-2,-2.3371556E0,-1.8854457E-1,5.8492684E-1,-9.048793E-1,-3.0587116E-1,3.303842E-1,-3.5153106E-2,-1.6985594E-1,2.730137E-1,3.33066E-2,1.7658941E-1,2.5951514E0,-3.0700964E-1,1.8883042E-1,-1.9205347E-1,-7.8040665E-1,3.7069333E-1,-2.0508386E-1,-3.223822E-1,-8.481345E-2,-5.711705E-1,2.4669568E-1,2.0714915E0,-9.989771E-2,-5.267178E-2,1.123851E-1,1.0917939E0,2.0578186E-1,1.02801835E-2,-3.186272E-1,1.4257306E0,2.6080204E-2,1.3721888E-1,-2.8563833E-1,1.5986304E-1,-3.1855214E-1,9.343695E-1,1.0137625E-1,-1.3310775E-1,2.5006142E-1],"categories":[],"categories_nodes":[],"categories_segments":[],"categories_sizes":[],"default_left":[0,0,0,0,0,0,0,0,0,0,0,0,0,0,0,0,0,0,0,0,0,0,0,0,0,0,0,0,0,0,0,0,0,0,0,0,0,0,0,0,0,0,0,0,0,0,0,0,0,0,0,0,0,0,0,0,0,0,0,0,0],"id":19,"left_children":[1,3,5,7,9,11,13,-1,15,17,19,21,23,-1,25,27,29,-1,-1,31,33,35,-1,37,39,41,43,-1,-1,-1,-1,45,47,49,51,-1,-1,-1,-1,-1,-1,53,55,57,59,-1,-1,-1,-1,-1,-1,-1,-1,-1,-1,-1,-1,-1,-1,-1,-1],"loss_changes":[8.33915E0,1.6638794E1,1.2340277E1,1.4208485E1,1.4254406E1,1.0126652E1,1.477088E1,0E0,2.0881426E0,2.4415302E0,1.2219061E1,2.1852932E0,3.801548E0,0E0,7.6409254E0,4.594761E-2,6.4488435E-1,0E0,0E0,1.9807388E1,1.3344186E1,5.7637215E-1,0E0,4.1465454E0,1.2994289E-2,1.1575363E1,1.893611E1,0E0,0E0,0E0,0E0,9.026259E-1,7.471279E0,1.9878658E1,8.51496E1,0E0,0E0,0E0,0E0,0E0,0E0,2.1203012E1,1.0302268E1,7.9887333E0,7.108951E0,0E0,0E0,0E0,0E0,0E0,0E0,0E0,0E0,0E0,0E0,0E0,0E0,0E0,0E0,0E0,0E0],"parents":[2147483647,0,0,1,1,2,2,3,3,4,4,5,5,6,6,8,8,9,9,10,10,11,11,12,12,14,14,15,15,16,16,19,19,20,20,21,21,23,23,24,24,25,25,26,26,31,31,32,32,33,33,34,34,41,41,42,42,43,43,44,44],"right_children":[2,4,6,8,10,12,14,-1,16,18,20,22,24,-1,26,28,30,-1,-1,32,34,36,-1,38,40,42,44,-1,-1,-1,-1,46,48,50,52,-1,-1,-1,-1,-1,-1,54,56,58,60,-1,-1,-1,-1,-1,-1,-1,-1,-1,-1,-1,-1,-1,-1,-1,-1],"split_conditions":[2.567662E2,-3.285E-1,2.6171518E2,1E-1,-9.8785E0,2.0617662E1,2.6234824E2,7.7122116E-1,-2.3785E0,-7.85E-2,-3.3285E0,1.37715E1,3.9999998E0,6.2969947E-1,1.46715E1,-2.4285E0,8.762791E1,-6.421609E-2,-6.7977613E-1,-4.1785E0,1.133768E2,-7.3785E0,-1.8854457E-1,1.15715E1,4.1215E0,3.2043222E2,5.8715E0,-3.5153106E-2,-1.6985594E-1,2.730137E-1,3.33066E-2,-6.8785E0,-3.8285E0,8.19437E1,1.1579692E2,-1.9205347E-1,-7.8040665E-1,3.7069333E-1,-2.0508386E-1,-3.223822E-1,-8.481345E-2,1.272283E1,4.6714997E0,3.0716663E2,1.6520823E1,-5.267178E-2,1.123851E-1,1.0917939E0,2.0578186E-1,1.02801835E-2,-3.186272E-1,1.4257306E0,2.6080204E-2,1.3721888E-1,-2.8563833E-1,1.5986304E-1,-3.1855214E-1,9.343695E-1,1.0137625E-1,-1.3310775E-1,2.5006142E-1],"split_indices":[4,0,4,2,1,3,4,0,0,0,1,0,2,0,0,0,4,0,0,1,4,1,0,0,0,4,1,0,0,0,0,1,1,4,4,0,0,0,0,0,0,3,1,4,3,0,0,0,0,0,0,0,0,0,0,0,0,0,0,0,0],"split_type":[0,0,0,0,0,0,0,0,0,0,0,0,0,0,0,0,0,0,0,0,0,0,0,0,0,0,0,0,0,0,0,0,0,0,0,0,0,0,0,0,0,0,0,0,0,0,0,0,0,0,0,0,0,0,0,0,0,0,0,0,0],"sum_hessian":[4.01E2,2.87E2,1.14E2,1E1,2.77E2,1.1E1,1.03E2,4E0,6E0,3E0,2.74E2,6E0,5E0,2E0,1.01E2,2E0,4E0,1E0,2E0,1.5E1,2.59E2,4E0,2E0,3E0,2E0,7.7E1,2.4E1,1E0,1E0,2E0,2E0,1.1E1,4E0,7.6E1,1.83E2,1E0,3E0,2E0,1E0,1E0,1E0,5.2E1,2.5E1,4E0,2E1,4E0,7E0,2E0,2E0,5.3E1,2.3E1,3E0,1.8E2,1.4E1,3.8E1,2.1E1,4E0,2E0,2E0,1.5E1,5E0],"tree_param":{"num_deleted":"0","num_feature":"5","num_nodes":"61","size_leaf_vector":"1"}},{"base_weights":[2.4615804E-2,1.4758283E-2,5.966223E-1,2.2390326E-3,1.2567341E0,1.0350014E-1,-1.8718635E-1,-1.208531E-1,8.084244E-1,6.6378735E-2,1.4576918E0,-9.5752597E-1,-4.1977372E-2,3.532162E-2,-8.970552E-2,-4.745942E-2,5.315904E-1,-4.7861308E-1,-2.1548584E0,-5.9132695E-1,1.1205559E-1,2.6064066E-2,-1.4636776E-1,6.019361E-1,7.901647E-3,-2.2921924E-1,6.132906E-1,8.555985E-2,-1.0338562E0,-5.923746E-1,1.6640967E-1,2.2238658E-1,-9.5077485E-2],"categories":[],"categories_nodes":[],"categories_segments":[],"categories_sizes":[],"default_left":[0,0,0,0,0,0,0,0,0,0,0,0,0,0,0,0,0,0,0,0,0,0,0,0,0,0,0,0,0,0,0,0,0],"id":20,"left_children":[1,3,-1,5,7,9,11,13,-1,15,-1,17,19,-1,-1,21,23,25,27,29,31,-1,-1,-1,-1,-1,-1,-1,-1,-1,-1,-1,-1],"loss_changes":[7.7539344E0,6.2321773E0,0E0,7.6535807E0,8.249626E0,4.5575222E1,1.5508376E1,1.627324E-1,0E0,1.3741568E1,0E0,1.1583849E1,1.0051179E1,0E0,0E0,1.24084215E1,3.7951176E1,1.3804848E1,1.9888353E1,4.23117E1,2.5338299E1,0E0,0E0,0E0,0E0,0E0,0E0,0E0,0E0,0E0,0E0,0E0,0E0],"parents":[2147483647,0,0,1,1,3,3,4,4,5,5,6,6,7,7,9,9,11,11,12,12,15,15,16,16,17,17,18,18,19,19,20,20],"right_children":[2,4,-1,6,8,10,12,14,-1,16,-1,18,20,-1,-1,22,24,26,28,30,32,-1,-1,-1,-1,-1,-1,-1,-1,-1,-1,-1,-1],"split_conditions":[2.72215E1,3.175355E1,5.966223E-1,1.8161278E1,1.4721499E1,1.81041E1,1.9161337E1,5.7714996E0,8.084244E-1,1.6215992E1,1.4576918E0,1.8971008E1,1.4285915E2,3.532162E-2,-8.970552E-2,1.48257065E1,1.3439697E2,1.886139E1,1.4215E0,2.0907913E1,2.1611998E1,2.6064066E-2,-1.4636776E-1,6.019361E-1,7.901647E-3,-2.2921924E-1,6.132906E-1,8.555985E-2,-1.0338562E0,-5.923746E-1,1.6640967E-1,2.2238658E-1,-9.5077485E-2],"split_indices":[0,3,0,3,0,3,3,0,0,3,0,3,4,0,0,3,4,3,0,3,3,0,0,0,0,0,0,0,0,0,0,0,0],"split_type":[0,0,0,0,0,0,0,0,0,0,0,0,0,0,0,0,0,0,0,0,0,0,0,0,0,0,0,0,0,0,0,0,0],"sum_hessian":[4.01E2,4E2,1E0,3.97E2,3E0,2.59E2,1.38E2,2E0,1E0,2.58E2,1E0,2.1E1,1.17E2,1E0,1E0,2.08E2,5E1,1.6E1,5E0,2.5E1,9.2E1,1.6E2,4.8E1,1.2E1,3.8E1,1.5E1,1E0,2E0,3E0,1.1E1,1.4E1,3.7E1,5.5E1],"tree_param":{"num_deleted":"0","num_feature":"5","num_nodes":"33","size_leaf_vector":"1"}},{"base_weights":[2.3288263E-2,-8.690109E-2,1.7113973E-1,-1.56996E-2,-1.658884E0,9.33148E-1,1.0081065E-2,-1.8413772E-1,3.0388045E-1,3.427477E-1,-2.0970917E0,-7.549015E-1,1.2694092E0,-7.381105E-1,1.5963537E-1,-2.4531138E-1,1.065641E0,1.3981077E-1,1.5279835E0,-3.1741467E-1,-3.131383E0,8.193337E-1,1.4240781E0,2.5609246E-1,-9.216171E-1,4.1186807E-1,1.2116927E-2,-7.602507E-2,-9.846427E-1,6.470556E-1,1.9778614E-1,2.3037748E-1,-9.0280885E-1,2.4570897E0,-2.476716E-1,-1.0596828E0,-2.8930566E-1,1.4281884E0,-1.4482136E0,-1.1639853E0,-8.130455E-2,-1.6575015E0,1.2657979E-1,-1.2141312E-1,1.2243915E-1,2.9964867E-1,-3.3118045E-1,-2.6500655E-2,2.0134093E-1,3.3491215E-1,6.1757634E-3,1.2556828E0,1.6392833E-1,-3.3563063E-1,1.246851E-1,8.3261764E-1,5.595094E-2,-7.5743103E-1,-8.362284E-2,-1.1760727E-1,-4.9954665E-1,9.9875554E-2,-1.11493714E-1,-5.764607E-1,-1.0994339E-2,9.506636E-1,1.9524895E-2],"categories":[],"categories_nodes":[],"categories_segments":[],"categories_sizes":[],"default_left":[0,0,0,0,0,0,0,0,0,0,0,0,0,0,0,0,0,0,0,0,0,0,0,0,0,0,0,0,0,0,0,0,0,0,0,0,0,0,0,0,0,0,0,0,0,0,0,0,0,0,0,0,0,0,0,0,0,0,0,0,0,0,0,0,0,0,0],"id":21,"left_children":[1,3,5,7,9,11,13,15,17,-1,19,-1,21,23,25,27,29,31,33,-1,35,37,-1,-1,39,-1,41,43,45,-1,47,49,-1,51,53,-1,-1,55,57,59,61,63,65,-1,-1,-1,-1,-1,-1,-1,-1,-1,-1,-1,-1,-1,-1,-1,-1,-1,-1,-1,-1,-1,-1,-1,-1],"loss_changes":[6.564119E0,2.5829216E1,2.1099815E1,1.2006096E1,1.4671757E1,3.7992107E1,1.6118853E1,1.1423632E1,1.5250915E1,0E0,6.358902E0,0E0,3.993475E1,7.797059E0,2.1460718E1,1.7447357E1,6.202494E0,2.0372797E1,1.5456501E1,0E0,6.863022E-2,3.7964104E1,0E0,0E0,4.385992E0,0E0,2.084961E1,1.846568E1,7.2545643E0,0E0,7.364639E-1,1.261649E1,0E0,1.7528564E1,2.7761343E0,0E0,0E0,3.4611237E1,6.8502483E0,5.924244E0,8.453236E-1,2.9253082E0,1.8877108E1,0E0,0E0,0E0,0E0,0E0,0E0,0E0,0E0,0E0,0E0,0E0,0E0,0E0,0E0,0E0,0E0,0E0,0E0,0E0,0E0,0E0,0E0,0E0,0E0],"parents":[2147483647,0,0,1,1,2,2,3,3,4,4,5,5,6,6,7,7,8,8,10,10,12,12,13,13,14,14,15,15,16,16,17,17,18,18,20,20,21,21,24,24,26,26,27,27,28,28,30,30,31,31,33,33,34,34,37,37,38,38,39,39,40,40,41,41,42,42],"right_children":[2,4,6,8,10,12,14,16,18,-1,20,-1,22,24,26,28,30,32,34,-1,36,38,-1,-1,40,-1,42,44,46,-1,48,50,-1,52,54,-1,-1,56,58,60,62,64,66,-1,-1,-1,-1,-1,-1,-1,-1,-1,-1,-1,-1,-1,-1,-1,-1,-1,-1,-1,-1,-1,-1,-1,-1],"split_conditions":[1.28715E1,1.23215E1,1.50215E1,1.4E0,1.2245293E1,1.1457958E1,1.58215E1,3.4268307E2,1.01215E1,3.427477E-1,2.3E0,-7.549015E-1,1.4721499E1,3.0715E0,8.2715E0,2.930233E2,-5.0785003E0,1.00215E1,2.3750967E2,-3.1741467E-1,1.25715E1,2.4087738E1,1.4240781E0,2.5609246E-1,1.966536E1,4.1186807E-1,9.5215E0,2.2933517E2,-1.0278501E1,6.470556E-1,-2.8499998E-2,1.5137133E1,-9.0280885E-1,2.4E0,1.5000001E0,-1.0596828E0,-2.8930566E-1,2.3447594E2,2.0017825E2,1.1440978E1,1.52715E1,2.5921501E1,9.5715E0,-1.2141312E-1,1.2243915E-1,2.9964867E-1,-3.3118045E-1,-2.6500655E-2,2.0134093E-1,3.3491215E-1,6.1757634E-3,1.2556828E0,1.6392833E-1,-3.3563063E-1,1.246851E-1,8.3261764E-1,5.595094E-2,-7.5743103E-1,-8.362284E-2,-1.1760727E-1,-4.9954665E-1,9.9875554E-2,-1.11493714E-1,-5.764607E-1,-1.0994339E-2,9.506636E-1,1.9524895E-2],"split_indices":[0,0,0,2,3,3,0,4,0,0,2,0,0,1,1,4,1,0,4,0,0,3,0,0,3,0,1,4,1,0,1,3,0,2,2,0,0,4,4,3,0,0,1,0,0,0,0,0,0,0,0,0,0,0,0,0,0,0,0,0,0,0,0,0,0,0,0],"split_type":[0,0,0,0,0,0,0,0,0,0,0,0,0,0,0,0,0,0,0,0,0,0,0,0,0,0,0,0,0,0,0,0,0,0,0,0,0,0,0,0,0,0,0,0,0,0,0,0,0,0,0,0,0,0,0,0,0,0,0,0,0,0,0,0,0,0,0],"sum_hessian":[4.01E2,2.3E2,1.71E2,2.21E2,9E0,2.9E1,1.42E2,1.45E2,7.6E1,1E0,8E0,2E0,2.7E1,2.3E1,1.19E2,1.39E2,6E0,6.8E1,8E0,5E0,3E0,2.5E1,2E0,2E0,2.1E1,1.2E1,1.07E2,1.14E2,2.5E1,2E0,4E0,6.7E1,1E0,5E0,3E0,2E0,1E0,2E1,5E0,1.6E1,5E0,6E0,1.01E2,6.8E1,4.6E1,1E0,2.4E1,3E0,1E0,1.2E1,5.5E1,2E0,3E0,1E0,2E0,9E0,1.1E1,2E0,3E0,7E0,9E0,2E0,3E0,5E0,1E0,1E0,1E2],"tree_param":{"num_deleted":"0","num_feature":"5","num_nodes":"67","size_leaf_vector":"1"}},{"base_weights":[1.9419381E-2,1.108543E-2,5.042001E-1,-3.5248065E-1,4.681574E-2,-6.277189E-1,8.774662E-1,1.0361164E0,1.0353248E-2,3.9878142E-1,-7.4103826E-1,4.7071257E-1,2.8702754E-1,1.6669586E0,-3.0662307E-1,-1.5947905E0,2.4004037E-2,-8.53742E-2,-8.740777E-1,2.4366303E-1,-4.7320604E-2,4.3783092E-1,2.2085507E0,-3.9558822E-1,2.7603483E-1,-6.591681E-1,-5.848761E-2,5.692018E-1,-1.7623859E-2,-1.7915583E-1,1.8764992E-1,-3.6227167E-1,-1.4969997E-1,2.1679211E-2,-6.0911182E-2,2.946545E-1,-2.130394E-2,1.5990953E-1,8.739157E-1,-3.6629964E-2,1.3483392E-1,-1.8167889E-1,3.4730142E-1,-3.787117E-1,2.847187E-3],"categories":[],"categories_nodes":[],"categories_segments":[],"categories_sizes":[],"default_left":[0,0,0,0,0,0,0,0,0,0,0,0,0,0,0,0,0,0,0,0,0,0,0,0,0,0,0,0,0,0,0,0,0,0,0,0,0,0,0,0,0,0,0,0,0],"id":22,"left_children":[1,3,-1,5,7,9,11,13,15,-1,17,-1,19,21,23,25,27,29,31,-1,33,35,37,-1,39,-1,-1,41,43,-1,-1,-1,-1,-1,-1,-1,-1,-1,-1,-1,-1,-1,-1,-1,-1],"loss_changes":[5.546961E0,5.225624E0,0E0,1.2737825E1,1.3191758E1,7.637988E0,2.4079723E0,1.1522867E1,7.794945E0,0E0,2.45502E0,0E0,9.1640323E-1,5.0241985E0,3.3122487E0,2.1015606E0,7.9988256E0,2.5565422E0,2.3994942E0,0E0,8.9157574E-2,1.1777062E0,5.529682E0,0E0,3.3104193E-1,0E0,0E0,1.7984406E1,1.1082213E1,0E0,0E0,0E0,0E0,0E0,0E0,0E0,0E0,0E0,0E0,0E0,0E0,0E0,0E0,0E0,0E0],"parents":[2147483647,0,0,1,1,3,3,4,4,5,5,6,6,7,7,8,8,10,10,12,12,13,13,14,14,15,15,16,16,17,17,18,18,20,20,21,21,22,22,24,24,27,27,28,28],"right_children":[2,4,-1,6,8,10,12,14,16,-1,18,-1,20,22,24,26,28,30,32,-1,34,36,38,-1,40,-1,-1,42,44,-1,-1,-1,-1,-1,-1,-1,-1,-1,-1,-1,-1,-1,-1,-1,-1],"split_conditions":[2.72215E1,-5.5285E0,5.042001E-1,2.3E0,-4.8785E0,7.342588E0,2.8E0,1E-1,-4.5285E0,3.9878142E-1,-1.0278501E1,4.7071257E-1,2.3157824E1,1.2074766E1,1.4512064E1,-3.7849998E-1,1.9714999E0,-1.1278501E1,1E-1,2.4366303E-1,-7.3785E0,1.0948973E1,7.715E-1,-3.9558822E-1,-2.4285E0,-6.591681E-1,-5.848761E-2,1.1480557E1,2.5215E0,-1.7915583E-1,1.8764992E-1,-3.6227167E-1,-1.4969997E-1,2.1679211E-2,-6.0911182E-2,2.946545E-1,-2.130394E-2,1.5990953E-1,8.739157E-1,-3.6629964E-2,1.3483392E-1,-1.8167889E-1,3.4730142E-1,-3.787117E-1,2.847187E-3],"split_indices":[0,1,0,2,1,3,2,2,1,0,1,0,3,3,3,0,0,1,2,0,1,3,0,0,0,0,0,3,0,0,0,0,0,0,0,0,0,0,0,0,0,0,0,0,0],"split_type":[0,0,0,0,0,0,0,0,0,0,0,0,0,0,0,0,0,0,0,0,0,0,0,0,0,0,0,0,0,0,0,0,0,0,0,0,0,0,0,0,0,0,0,0,0],"sum_hessian":[4.01E2,4E2,1E0,3.5E1,3.65E2,2.9E1,6E0,1.2E1,3.53E2,1E0,2.8E1,2E0,4E0,8E0,4E0,2E0,3.51E2,5E0,2.3E1,1E0,3E0,3E0,5E0,1E0,3E0,1E0,1E0,2.4E1,3.27E2,3E0,2E0,1.1E1,1.2E1,2E0,1E0,1E0,2E0,2E0,3E0,1E0,2E0,8E0,1.6E1,6E0,3.21E2],"tree_param":{"num_deleted":"0","num_feature":"5","num_nodes":"45","size_leaf_vector":"1"}},{"base_weights":[1.6470678E-2,-4.1660434E-1,2.696814E-2,1.0591489E-1,-1.1565585E-1,7.422105E-2,1.2376848E0,-1.4131941E0,-5.8403056E-2,6.7302465E-1,2.0849332E-2,-3.0939389E-2,-1.6545804E0,-9.814518E-2,3.8924834E-1,-9.794594E-1,1.1194597E0,-8.8067067E-1,8.13962E-2,-5.844533E-1,-7.202883E-2,-8.586693E-1,1.1325864E-2,6.9042586E-2,-5.5877227E-1,5.325842E-1,-2.1311557E-2,7.073965E-1,-3.8412938E-1,2.1314348E-1,-9.481434E-3,-1.0650456E-1,-4.14271E-1,4.4106975E-1,-1.172367E-2],"categories":[],"categories_nodes":[],"categories_segments":[],"categories_sizes":[],"default_left":[0,0,0,0,0,0,0,0,0,0,0,0,0,0,0,0,0,0,0,0,0,0,0,0,0,0,0,0,0,0,0,0,0,0,0],"id":23,"left_children":[1,-1,3,5,7,9,-1,11,13,15,17,-1,19,21,-1,23,25,27,29,-1,-1,31,33,-1,-1,-1,-1,-1,-1,-1,-1,-1,-1,-1,-1],"loss_changes":[5.9671617E0,0E0,4.51613E0,3.2562935E1,1.0540605E1,8.199476E0,0E0,1.7267485E0,7.563645E0,1.658873E1,1.30081415E1,0E0,1.6086922E0,1.1249199E1,0E0,5.769741E0,1.339892E1,2.2439564E1,1.5874828E1,0E0,0E0,3.9811878E0,8.808221E0,0E0,0E0,0E0,0E0,0E0,0E0,0E0,0E0,0E0,0E0,0E0,0E0],"parents":[2147483647,0,0,2,2,3,3,4,4,5,5,7,7,8,8,9,9,10,10,12,12,13,13,15,15,16,16,17,17,18,18,21,21,22,22],"right_children":[2,-1,4,6,8,10,-1,12,14,16,18,-1,20,22,-1,24,26,28,30,-1,-1,32,34,-1,-1,-1,-1,-1,-1,-1,-1,-1,-1,-1,-1],"split_conditions":[5.8112936E0,-4.1660434E-1,1.8161278E1,1.81041E1,1.835647E1,3.374857E1,1.2376848E0,2.7715E0,2.46215E1,-4.3285003E0,5.953454E1,-3.0939389E-2,1.38215E1,8.406854E1,3.8924834E-1,3.7150002E-1,1.09215E1,-6.285E-1,1.2972607E2,-5.844533E-1,-7.202883E-2,5.8715E0,8.821709E1,6.9042586E-2,-5.5877227E-1,5.325842E-1,-2.1311557E-2,7.073965E-1,-3.8412938E-1,2.1314348E-1,-9.481434E-3,-1.0650456E-1,-4.14271E-1,4.4106975E-1,-1.172367E-2],"split_indices":[4,0,3,3,3,4,0,0,0,1,4,0,0,4,0,0,0,0,4,0,0,0,4,0,0,0,0,0,0,0,0,0,0,0,0],"split_type":[0,0,0,0,0,0,0,0,0,0,0,0,0,0,0,0,0,0,0,0,0,0,0,0,0,0,0,0,0,0,0,0,0,0,0],"sum_hessian":[4.01E2,2E0,3.99E2,2.57E2,1.42E2,2.56E2,1E0,5E0,1.37E2,2E1,2.36E2,1E0,4E0,1.34E2,3E0,4E0,1.6E1,1.4E1,2.22E2,3E0,1E0,1.6E1,1.18E2,2E0,2E0,1E1,6E0,1E0,1.3E1,3.3E1,1.89E2,9E0,7E0,3E0,1.15E2],"tree_param":{"num_deleted":"0","num_feature":"5","num_nodes":"35","size_leaf_vector":"1"}},{"base_weights":[1.3967224E-2,-9.7592336E-1,2.8892605E-2,2.843666E-2,-4.455638E-1,1.8053086E-2,1.0893621E0,-1.5159703E-2,2.79562E-2,8.17931E-2,-2.4972478E-1,-7.0991516E-2,6.855635E-1,3.581087E-1,-5.162642E-2,-1.7755731E0,-4.4101834E-2,3.0428553E-2,-6.2374737E-2,-1.7038332E-1,9.1066676E-1,-1.0736483E0,-1.9384322E-3,-8.660193E-2,-2.1591628E0,-3.3390456E-1,4.368835E-1,2.1421854E-1,-1.5865915E-1,1.7928023E0,2.0695195E-1,-1.5950611E-1,3.1384207E-2,-2.8825474E-1,-7.338955E-1,2.7386013E-1,-1.9348887E-1,4.69254E-1,-7.557931E-2],"categories":[],"categories_nodes":[],"categories_segments":[],"categories_sizes":[],"default_left":[0,0,0,0,0,0,0,0,0,0,0,0,0,0,0,0,0,0,0,0,0,0,0,0,0,0,0,0,0,0,0,0,0,0,0,0,0,0,0],"id":24,"left_children":[1,3,5,7,-1,9,11,-1,-1,13,15,17,-1,19,21,23,25,-1,-1,27,29,-1,31,-1,33,35,37,-1,-1,-1,-1,-1,-1,-1,-1,-1,-1,-1,-1],"loss_changes":[5.967544E0,3.1112924E0,4.543841E0,2.004886E-2,0E0,6.745282E0,5.7126637E0,0E0,0E0,1.1778709E1,2.3766651E1,9.191404E-2,0E0,3.0525507E1,3.784912E1,4.509941E0,9.624455E0,0E0,0E0,1.7498684E1,5.2924263E1,0E0,1.2135069E1,0E0,5.817032E-2,1.7264967E1,2.0583017E1,0E0,0E0,0E0,0E0,0E0,0E0,0E0,0E0,0E0,0E0,0E0,0E0],"parents":[2147483647,0,0,1,1,2,2,3,3,5,5,6,6,9,9,10,10,11,11,13,13,14,14,15,15,16,16,19,19,20,20,22,22,24,24,25,25,26,26],"right_children":[2,4,6,8,-1,10,12,-1,-1,14,16,18,-1,20,22,24,26,-1,-1,28,30,-1,32,-1,34,36,38,-1,-1,-1,-1,-1,-1,-1,-1,-1,-1,-1,-1],"split_conditions":[1.0375786E1,-3.3285E0,3.175355E1,-2.4285E0,-4.455638E-1,3.9999998E0,1.4721499E1,-1.5159703E-2,2.79562E-2,1.8636163E2,4.7E0,5.7714996E0,6.855635E-1,1.4408997E1,1.8850252E2,1.2214999E0,1.963386E2,3.0428553E-2,-6.2374737E-2,-1.6784999E0,1.4480773E1,-1.0736483E0,2.1172058E2,-8.660193E-2,2.7715E0,1.2904882E1,2.2382062E2,2.1421854E-1,-1.5865915E-1,1.7928023E0,2.0695195E-1,-1.5950611E-1,3.1384207E-2,-2.8825474E-1,-7.338955E-1,2.7386013E-1,-1.9348887E-1,4.69254E-1,-7.557931E-2],"split_indices":[4,1,3,0,0,2,0,0,0,4,2,0,0,3,4,0,4,0,0,1,3,0,4,0,0,3,4,0,0,0,0,0,0,0,0,0,0,0,0],"split_type":[0,0,0,0,0,0,0,0,0,0,0,0,0,0,0,0,0,0,0,0,0,0,0,0,0,0,0,0,0,0,0,0,0,0,0,0,0,0,0],"sum_hessian":[4.01E2,5E0,3.96E2,2E0,3E0,3.93E2,3E0,1E0,1E0,3.18E2,7.5E1,2E0,1E0,1.03E2,2.15E2,8E0,6.7E1,1E0,1E0,5.3E1,5E1,2E0,2.13E2,2E0,6E0,4.2E1,2.5E1,1.5E1,3.8E1,1E0,4.9E1,3.5E1,1.78E2,2E0,4E0,8E0,3.4E1,9E0,1.6E1],"tree_param":{"num_deleted":"0","num_feature":"5","num_nodes":"39","size_leaf_vector":"1"}},{"base_weights":[1.08709745E-2,-9.334199E-3,6.1618996E-1,2.8739003E-2,-7.97777E-1,1.0290494E0,-1.7100185E-1,5.2636414E-4,8.0997163E-1,-1.0380745E0,-2.4870259E-1,7.43866E-5,1.470028E0,4.379354E-2,-3.795374E-1,-2.8416193E-1,2.6174178E0,-1.3729677E0,1.1635612E-1,-8.0960944E-2,1.8001239E-1,7.0383054E-1,6.503782E-1,-8.066982E-2,2.780139E-1,-7.6520455E-1,4.8770297E-1,1.9393674E-1,-6.4240354E-1,1.1838553E0,4.161787E-1,-5.3651637E-1,-1.9006062E-2,3.3525696E-1,-4.5277628E-1,2.1715165E-4,8.0788426E-2,2.8047848E-1,3.194966E-1,3.2617906E-1,-4.489579E-2,4.6733946E-1,4.159163E-2,-2.7766937E-1,2.3182298E-1,6.421683E-1,-1.8188885E-1,-3.785334E-1,1.8120646E-1,2.089305E-1,-2.1650076E-2,-1.6239167E-3,-3.0318812E-1,1.004796E-1,1.7567683E-2],"categories":[],"categories_nodes":[],"categories_segments":[],"categories_sizes":[],"default_left":[0,0,0,0,0,0,0,0,0,0,0,0,0,0,0,0,0,0,0,0,0,0,0,0,0,0,0,0,0,0,0,0,0,0,0,0,0,0,0,0,0,0,0,0,0,0,0,0,0,0,0,0,0,0,0],"id":25,"left_children":[1,3,5,7,9,11,-1,13,15,-1,17,19,21,23,25,27,29,31,33,-1,35,-1,37,39,41,43,45,-1,47,-1,49,-1,-1,-1,51,-1,-1,53,-1,-1,-1,-1,-1,-1,-1,-1,-1,-1,-1,-1,-1,-1,-1,-1,-1],"loss_changes":[4.9224424E0,1.173016E1,6.9530835E0,8.220731E0,2.5453537E1,4.5374517E0,0E0,5.953008E0,2.6452404E1,0E0,6.7265177E0,2.4287279E-1,3.5006628E0,9.496779E0,1.274844E1,3.4157593E0,1.2982346E1,2.06286E0,7.9133444E0,0E0,4.7826983E-2,0E0,4.6811485E-1,1.7323551E1,1.9939854E1,7.1274796E0,2.2996515E1,0E0,6.166167E0,0E0,4.6084535E-1,0E0,0E0,0E0,2.2405868E0,0E0,0E0,2.8723925E-2,0E0,0E0,0E0,0E0,0E0,0E0,0E0,0E0,0E0,0E0,0E0,0E0,0E0,0E0,0E0,0E0,0E0],"parents":[2147483647,0,0,1,1,2,2,3,3,4,4,5,5,7,7,8,8,10,10,11,11,12,12,13,13,14,14,15,15,16,16,17,17,18,18,20,20,22,22,23,23,24,24,25,25,26,26,28,28,30,30,34,34,37,37],"right_children":[2,4,6,8,10,12,-1,14,16,-1,18,20,22,24,26,28,30,32,34,-1,36,-1,38,40,42,44,46,-1,48,-1,50,-1,-1,-1,52,-1,-1,54,-1,-1,-1,-1,-1,-1,-1,-1,-1,-1,-1,-1,-1,-1,-1,-1,-1],"split_conditions":[1.2800001E1,8.5E0,1.67E1,6.799999E0,9E0,5.424262E1,-1.7100185E-1,3.9999998E0,1.26715E1,-1.0380745E0,1.3670013E2,8.049845E0,1.15615486E2,6E-1,1.9774475E2,1.4215E0,1.23715E1,1.3221499E1,1.07E1,-8.0960944E-2,8.215E-1,7.0383054E-1,1.4599999E1,9.422101E0,7E-1,2.0921501E1,2.2253047E2,1.9393674E-1,2.6826641E1,1.1838553E0,1.77215E1,-5.3651637E-1,-1.9006062E-2,3.3525696E-1,2.1611998E1,2.1715165E-4,8.0788426E-2,1.42E1,3.194966E-1,3.2617906E-1,-4.489579E-2,4.6733946E-1,4.159163E-2,-2.7766937E-1,2.3182298E-1,6.421683E-1,-1.8188885E-1,-3.785334E-1,1.8120646E-1,2.089305E-1,-2.1650076E-2,-1.6239167E-3,-3.0318812E-1,1.004796E-1,1.7567683E-2],"split_indices":[2,2,2,2,2,4,0,2,0,0,4,3,4,2,4,0,1,1,2,0,0,0,2,3,2,0,4,0,3,0,0,0,0,0,3,0,0,2,0,0,0,0,0,0,0,0,0,0,0,0,0,0,0,0,0],"split_type":[0,0,0,0,0,0,0,0,0,0,0,0,0,0,0,0,0,0,0,0,0,0,0,0,0,0,0,0,0,0,0,0,0,0,0,0,0,0,0,0,0,0,0,0,0,0,0,0,0,0,0,0,0,0,0],"sum_hessian":[4.01E2,3.89E2,1.2E1,3.72E2,1.7E1,9E0,3E0,3.6E2,1.2E1,2E0,1.5E1,3E0,6E0,3.24E2,3.6E1,8E0,4E0,3E0,1.2E1,1E0,2E0,2E0,4E0,2.12E2,1.12E2,2.5E1,1.1E1,2E0,6E0,2E0,2E0,2E0,1E0,4E0,8E0,1E0,1E0,3E0,1E0,1.1E1,2.01E2,1E1,1.02E2,2.3E1,2E0,4E0,7E0,4E0,2E0,1E0,1E0,5E0,3E0,2E0,1E0],"tree_param":{"num_deleted":"0","num_feature":"5","num_nodes":"55","size_leaf_vector":"1"}},{"base_weights":[1.2534086E-2,-1.0035471E-1,1.1830707E-1,-3.6698315E-2,-1.5837355E0,7.59167E-1,-6.87891E-3,-1.0133725E-1,7.739096E-1,-1.9005736E0,9.511965E-2,1.4929466E-1,1.4359425E0,-9.651954E-1,4.480808E-2,-5.8241777E-2,-5.787325E-1,3.0682774E0,-1.3076133E-1,-3.231107E-1,-7.9188377E-1,6.010027E-1,-1.2356884E0,2.6258056E0,2.1873733E-1,2.3378015E-1,-1.5749371E0,5.4167503E-1,-5.9177168E-2,-3.8224512E-1,9.32703E-2,1.5206653E-1,1.1259333E0,1.9161268E-1,-8.78438E-1,1.5314541E0,2.4076867E-1,-5.6500214E-1,2.0323792E-1,1.0256457E0,2.9342625E-1,-4.422707E-1,8.260203E-1,1.5330363E-2,-5.5633813E-1,-2.8626704E-1,2.7508063E0,-6.939909E-1,7.934039E-2,-8.2561806E-2,-9.2435366E-1,2.5168756E-1,-2.3044918E-2,2.108757E-1,-4.0058798E-1,5.461605E-1,9.96317E-2,-1.6667685E-1,2.1251895E-1,-3.3640397E-1,5.6833223E-2,-4.4151354E-1,-2.8241094E-2,1.2364466E0,1.0492559E-1,-8.176358E-2,-8.5153323E-1,3.0985215E-1,-4.7197375E-2],"categories":[],"categories_nodes":[],"categories_segments":[],"categories_sizes":[],"default_left":[0,0,0,0,0,0,0,0,0,0,0,0,0,0,0,0,0,0,0,0,0,0,0,0,0,0,0,0,0,0,0,0,0,0,0,0,0,0,0,0,0,0,0,0,0,0,0,0,0,0,0,0,0,0,0,0,0,0,0,0,0,0,0,0,0,0,0,0,0],"id":26,"left_children":[1,3,5,7,9,11,13,15,17,19,-1,21,23,25,27,29,-1,31,33,-1,-1,35,37,39,41,-1,43,45,47,49,51,-1,-1,-1,53,55,57,-1,-1,-1,-1,59,-1,-1,-1,61,63,65,67,-1,-1,-1,-1,-1,-1,-1,-1,-1,-1,-1,-1,-1,-1,-1,-1,-1,-1,-1,-1],"loss_changes":[4.8119874E0,1.8355082E1,1.6692373E1,9.92903E0,5.420576E0,1.381901E1,8.711434E0,1.3672158E1,2.9460281E1,1.417429E0,0E0,1.2629204E1,2.2598557E1,1.0800343E1,8.660417E0,8.479205E0,0E0,5.114094E0,6.889531E0,0E0,0E0,4.6589785E0,7.471157E0,7.1094017E0,1.6296644E1,